{"input": [520843, -144981, 679151, 1597013, -245528, -245510, 1655925, 804714, -492280, 568915, -485929, -488353, 253716, -2006220, -1808707, -589601, -1062030, 329512, -952132, -1480908, 1536844, -236744, 70808, -1493957, -570827, 116311, -1206904, 393948, -629815, -305863, -630935, 1942254, -14153, -1109090, 862501, -1280147, 219009, -2054863, -1392704, 206424, 774338, 179693, -121266, -315730, -1550343, -754811, -483015, 1108473, 360310, -1848682, 339827, -403788, -709804, 641389, 1081081, 976518, -879983, -324233, 347355, 1022933, -502451, -194678, -1160076, -1254314], "layers": [{"weight": [38102, 63599, -3377, 47059, 16958, -30252, 16947, 72124, -1680, 73372, -122850, 38542, 4082, -14022, 4303, -93205, -10301, 16746, 69304, -24304, -37913, -23529, 42927, 15416, -24842, 24069, 4552, 45423, -32922, -15365, -18387, -68630, 13886, 12242, 240, -11001, -66372, -19726, -16071, -37622, -7563, 18947, 88450, 8187, 12078, -3491, -89978, -1243, 2824, 115511, -9021, 14141, -1628, -54804, 53591, 35261, 37094, -42645, 65782, -65738, 27520, 102719, -46450, -26556, 4673, -23610, -72716, 3215, -49815, 22209, -43115, 72682, -36730, -15103, 38149, -57720, 10666, 61297, -75381, 8658, 12187, 36663, -58005, -61921, 24476, 13927, 11747, 16246, -31889, 10891, 13743, -33499, 87493, 22220, -55865, 30788, -45706, 36909, 54331, -38485, 45176, 19357, 38549, 88948, -11507, -35346, -41713, -38256, -3616, 15998, 12975, 38790, 610, 68162, -12411, 127559, 29340, -40195, -50218, 22625, -10479, 33482, 22192, -3415, -39709, -71037, -20939, 40160, 10040, -58417, 8121, 18069, -41447, 7209, 2730, -53598, 16778, 26297, 50788, 49417, -64604, -43978, 24152, 24093, 24153, 180669, 26771, 53251, 44737, 30546, -14784, 35591, -36241, -11105, -22761, 3839, 108543, -87563, 32181, -75626, -22131, 51065, 3014, -50539, -33543, 31869, -34250, 10151, 2137, -30556, 100538, 29727, -94967, 8744, -31034, 39974, -37164, -5380, 23681, 40599, -56286, -15686, -22272, -30637, 82789, 18991, -59128, 43042, 99516, 48416, -71249, -22708, 59410, -33185, 20812, 36325, -43467, -2791, -151995, -48037, -11844, -58513, 76550, -67065, -20635, 6131, 67587, -67333, 54545, 480, -46027, 21670, 9335, -28146, 3273, -18069, 5323, 31050, 74374, -58046, 100026, -91541, -7118, 27588, 13177, -29201, -9760, -23119, -27638, 39841, 16742, -32493, 42186, 14410, 38118, 29526, -38875, -26269, 35043, 28623, -980, 5502, 59914, -27741, 25655, -9482, -10208, 51526, 38707, 38149, 61219, 985, 31979, -14550, 15201, -6103, 4549, 27909, -38369, 98120, -47176, -56938, 54308, 37124, 29267, 29465, -574, -42076, 3555, -31755, 45727, -6896, -38711, -15071, 19364, -26435, -38557, 11427, 11487, -23772, -22089, 10882, -67906, -66001, -33691, -10009, 14580, 69185, 40219, -7500, -892, -47012, -868, -13536, 15133, -38792, 24354, 71876, -5100, 18838, 32363, -18815, 10509, 591, 4580, -36249, 1149, 23353, 68050, 44984, 100971, -35984, 40906, 8598, 102688, -37904, -39378, -28108, -99597, -24655, -35599, 7053, 16026, 87981, 44569, -27053, -42130, 23068, -61911, 85884, 55308, -22001, -80335, 63488, -5371, 58046, -74769, -28107, 246, 2203, -21105, 29208, -50065, -6677, 5641, 24124, 33370, -52739, -71940, 59915, 15583, -35099, 72739, 5424, 55302, 3166, 96636, 82315, -11675, 45561, 30264, 64180, -45249, 32172, 49633, -82474, -55487, -95627, -12633, 33648, 70451, 3475, 76372, -64718, -79878, -2605, 18010, -1533, -96950, -4179, -61171, 31403, 17191, -44074, -24097, -49670, -2939, 44790, -46224, 23637, -24866, -37181, -5019, -48546, -25963, -56173, 92133, 1654, -32813, 10034, -5267, -10362, 28801, 35522, -24877, -27002, -12898, -107946, -71053, 64098, 77139, -11678, 27037, 14596, 144380, 52501, -5999, -44809, -75332, 9541, -35468, -66695, -30320, -50718, 79116, 41343, -374, 69400, 3628, -40389, 71425, 25272, -48640, -8926, -41061, -64845, 43432, 89540, -65584, 26400, -30511, -22843, -27780, -40516, 2275, -38966, 12683, -2356, -11205, -42559, -27047, 35423, 23490, -45841, 4658, 35235, -78285, 25480, -31073, 26758, -35792, -84638, -76322, 2255, 12179, -42407, 29946, -77915, -3099, -56789, -30567, 2223, -40348, -18033, 47189, -27053, 39189, -52976, 24845, 67601, -115905, -37369, 27061, -9522, 17404, -28323, 4061, -7300, 54762, 11931, 15831, -19314, -22866, -20284, 18497, -19742, 13589, 97323, 40850, -15288, 56329, -19136, -95575, -47273, -87728, -16484, 864, 78614, 15331, -10274, 38894, -103688, 11049, 36149, -69336, 53635, 15873, -19474, 29674, 106481, 8528, 11640, -21541, -39852, 38938, -40145, 3356, -22399, 22461, 15647, 48654, -23917, -12655, -45898, -20835, 17693, 35498, -43244, 40779, 63571, 19388, 88010, -36286, -58367, -83411, 70155, 30686, -2607, 13129, -52778, 114690, 6060, 5130, 34034, 22556, 10499, -37068, 22109, 88255, 63092, 74710, -23973, -46406, -5899, 2613, 51311, -79366, 71726, -7410, -20018, -47461, -77602, 38602, 3438, -60491, -60731, -15746, 78267, -12173, -70488, -11524, -12789, -126467, -2546, -10829, 32648, 86704, 52829, -12609, -51889, 120674, 2777, 653, -1131, 9289, -6770, -26901, -25644, -1536, -25483, -33428, 4991, -11957, 70528, -124314, 51185, 58434, -97229, -16070, -17418, -66003, -36475, -52079, 82171, 43877, 59628, 33842, -52945, -24597, 22949, -57310, 33435, -11270, -17577, 33340, 20833, -16927, 54365, -50695, 28884, 27813, -14516, 15294, -58669, 43331, -8671, -24512, 49192, -33029, -66048, -72996, 28418, -60044, 82289, -97629, 79553, 9895, -4535, -25553, 18717, -1765, 51738, 5357, 7048, -17051, -2670, 14434, -80196, -63221, 34854, 8013, -8628, 864, 16299, -25311, -36498, 9184, -45880, 19145, -79841, 48261, 22162, 12006, 46082, 78100, 47568, -86325, -60004, -29300, 1224, 24275, -34033, 8758, -35423, -28676, -65964, -43294, -63386, -45762, 49409, -44521, 123442, 23134, 8668, -40252, 32840, -26994, 5721, 120052, -4505, 53894, -32975, -1641, 83039, -29401, 84992, 33189, -26376, 29656, 45607, 29159, -73634, -34098, -11607, -3490, 29106, 8333, -62619, 17829, 28633, 26251, 50682, 39106, 21533, -3290, -77889, 20146, 9739, 12735, -59872, -50695, 49386, -1855, 31958, 1328, 1395, 44000, -24199, 4507, -21678, -20375, -14498, 10417, -22450, 58887, -41951, -8763, -20621, 67854, 9217, 48387, -69663, 12523, 41718, 3859, 49964, -24258, 66090, 107804, -17015, -20891, 68155, 74072, -24519, -19704, -13214, -63046, -43079, -47088, -36005, -1627, 10983, 72709, -46817, 46159, -10035, -2320, 31645, -52649, 17933, 7806, 23093, 13560, 115138, -29906, -24900, -29221, -26048, -29889, 55757, 66613, -26764, -39032, 22106, -25896, 29681, 9516, -71079, 72568, 84215, -28736, -18181, 13405, 15684, 30882, 94266, -8298, -37435, -64681, -34276, -1553, 84154, -24273, 10494, -770, 55728, 118497, -24894, -22952, 48965, 31976, 86599, 27383, -16849, 27698, 51991, 38475, 23788, 50020, 54833, 64815, 30420, -7837, 6880, 56578, -38309, 17288, -18445, 1348, 59951, 8961, 2178, -63769, 34995, 30269, 101443, -14433, 10277, 11695, 73973, -4469, 13084, 28507, 8751, -20935, 9102, 50347, -48137, 6235, -32831, 56040, -71428, -26210, 17689, 73413, -3083, -26035, 88214, -67903, -103110, 20634, -23543, -47889, 33217, 11433, -26452, -60038, 40913, 30490, -4651, 86596, -50180, -71538, -32446, -2138, 11411, -11312, 16509, -58689, 67704, -3852, 52394, 16072, 21419, 26719, 20995, 30140, 62329, 9216, 33248, -4208, 67532, -31719, 84453, -1883, -67094, 6007, -31937, 39421, -30604, -20923, -88608, -21210, -113665, -74275, 35659, 36849, 19951, -45345, -2237, -169, -54320, 70500, 41143, -10362, 1261, 9772, -95745, -11591, -31981, -46970, -13182, 84300, 30052, -26785, 26851, 65621, 43360, 2796, -30337, 32742, 18452, 41979, 29786, 49217, -25099, 61778, 9266, 97317, -32319, 81406, 9281, -30547, -22691, -15022, 19891, 24518, -26903, -1142, 100459, 81011, 20461, 1782, 5629, 28770, -47963, -12069, -78246, 18721, 30349, -22658, 73810, -57481, -68670, 10525, 49102, 78966, -21519, 50583, -1806, -8095, 41438, 30590, -73923, 69241, 64718, -29335, 18561, 23167, 12224, -25806, -31495, -1198, 54994, 25491, -17379, 36188, -133579, 53870, -81582, -16996, -52506, -60712, 54436, -21932, 16249, -2200, 22370, 3602, -60164, 46719, -23154, -72994, -20076, 70376, 39870, -16350, -16378, -15083, 97386, 17910, 20166, 48314, 11198, -12147, -9208, -3358, -1745, 34121, 2436, 34356, -3785, 3687, -93703, 42970, 16248, 46800, -135816, 97932, -6546, 51967, -48765, 28735, -49399, -29251, 89756, -8942, 10196, 40801, 23244, 7054, 17114, 112705, -2702, 9430, 49269, 51842, 55664, 29952, -53600, 76598, -53756, 14192, -35371, -3008, 15417, 15070, 19785, 75673, 21268, -11449, 45210, 55779, -57567, 28014, 32881, -13954, 64512, -7037, 5889, -8116, 731, -51408, -67529, 74772, -39717, -46490, -100981, -29963, -62045, 77000, 47354, -32270, 105625, 46039, -15233, -117206, 107431, -65162, -77159, 47952, 114409, 64914, 26444, 27890, 40020, 35589, 13186, 4886, -2935, -35356, -13162, -79389, -4612, -46359, -51751, 8436, 65276, 43063, -73647, -46407, 44116, -46073, -10534, 25794, -45409, 4941, -62557, -28200, 14996, -74701, 20656, -921, 25908, 10500, 63970, 5872, -20136, 5735, 25477, 2291, 1903, -32919, -31086, -65773, 82044, -58329, -32493, -33689, 41966, -13831, 58511, -31582, 13083, -39173, 100594, -55691, 14529, 29720, 19405, -8689, -6088, 2054, -6893, 45200, 103660, -26143, -64235, -4140, 120972, -37687, 76864, 78674, -25960, 26682, 76362, -17779, -9547, -27277, -47586, -30447, -57395, 1598, -36107, 10963, -72962, 15516, 39087, -93494, 17541, 57570, -56725, 78433, 19649, -33061, -2615, 26182, 3564, 25264, -43174, 7942, -66294, -5216, -42388, -34492, 57965, 51176, 28565, -51223, -14838, 56887, 6646, 108762, 18444, 9006, -14496, 6262, -7150, 33206, 44863, -36858, -62426, -86107, 23822, -51741, -100957, 18222, 116906, -285, 39320, 3837, -4637, 43099, -13612, 12539, 15086, -31329, 46521, -8205, -35440, 25159, -42133, 1322, -428, 50922, 22260, -1174, 38348, 65192, 26158, 485, -61517, -49947, -14313, -28582, -8768, 2657, 24839, -3306, 22814, 3023, -92637, -44049, -6757, -56727, 28133, 71783, 57152, -10009, 69906, 6972, -15807, -28765, -14184, -18203, 7991, 7530, 143, 20490, 55834, 44528, -69632, -119763, 43814, -64098, -10540, -54871, -84502, 25391, 35600, -27035, -121504, -25615, 18373, -69352, 8598, -718, 27165, 5608, -45631, 56112, -7434, -1280, -43764, -20787, -41492, -8110, 80268, -64334, -75666, 68989, -9816, -31375, 48765, -28400, 85628, 31790, -22880, 101164, -28404, 34800, 14035, 61044, 73225, 1501, -35331, 21570, -31781, 94415, 6403, -17131, 8660, -63172, -45563, 56292, -30804, -49094, 25166, 55602, 33714, 46708, -35489, -66674, 70403, -15132, -11762, 62284, 26084, 21378, 101525, -30177, 43510, 2674, 12595, 71676, 23814, 25243, 50294, -17114, -39354, -48995, -92210, 96423, -51734, -10375, -12981, 14415, 38253, 40351, -27343, -7837, 13251, -11662, 75374, 23024, 34461, 31085, 55029, 8489, -60813, 18743, -30545, -24789, 27497, 58068, 998, 14482, 79823, 11290, 122003, 26519, -82569, 35327, 17874, 60481, 31568, -6493, -57412, -9802, -39884, -27223, 27601, 78308, 18508, -56079, 20849, 56115, -28595, -6285, 689, -36807, 30400, -5672, 19673, -41618, -20514, 33875, -17484, 80984, -18740, 10536, 43733, -66512, -82571, -71544, 59207, -25879, 119964, -26460, 8654, 72315, 94073, 96672, 56665, 48022, 27786, 36500, -25847, -38368, -158, -7981, -21254, 32656, 44798, 4146, 69287, -53538, -9081, -33614, -87529, -3877, -5709, 70971, 29581, -48028, 86945, 57259, 27297, -10621, -44992, -17454, 51055, 88375, 72368, -22924, -52503, 6607, -82929, 15155, -6922, -21854, -74782, 24085, -24980, -54862, -134691, -1290, 83108, 77903, -21435, -28240, 21983, -46818, 14152, 35924, 57535, -4697, -9551, -41172, -38776, -10620, 17227, 42841, -37664, 69998, -12714, -1002, -35040, -113682, 41456, 34553, -13193, 3141, 24194, -73274, -24809, 37246, -58818, 13766, -63615, 21873, -1671, -75740, 54619, -34448, -37996, 9405, 53864, -47636, 2892, 20109, 32502, 8274, -17211, -38809, 4040, -50277, -136993, 20472, 42389, -110807, -47350, 29034, 96484, 975, -34139, -8577, 64473, -30292, -37477, -22638, -44705, 5752, 76187, 15150, -11834, -13684, -73304, 41412, -3650, -8463, 149737, 14010, -35254, -19994, 53855, 5312, -67446, 43106, -31332, 87846, 50647, -20977, 60072, 3182, 39990, 22731, -39689, -30178, 48299, -15699, -18929, -44789, 19864, 96720, -50061, 1136, 66224, -3735, 21213, -49820, 20085, -8776, 46225, 55681, 121434, 27181, 15278, 9115, -16561, 15873, -13852, 7900, 61787, -47201, 53453, 61764, -5537, -99502, -28503, 60821, -1072, -46861, -23671, 39420, 25638, -11204, -17202, -18371, -43255, 75751, -15115, 57077, 71340, 46815, -20240, 18932, -1135, -42378, 15210, -55290, 55695, -21788, 9433, 13284, -12141, 27512, -22270, 40858, -63118, 5926, 90924, -46909, -31782, 24099, 8421, 16442, 22940, 29764, 52038, 19218, -11313, 31539, 89093, -6220, -45699, 51915, -5645, -101885, 39739, -25104, -4245, 15568, 8933, 33269, -20422, 24061, -12171, 34646, 28857, -43866, 50926, -25133, 37893, 17223, 86199, -10479, -16381, -911, -14217, 37512, -75795, -49411, -50073, 44563, 80217, -4898, -7917, 3285, 54485, -43487, 11178, 45731, 23498, 8890, 46943, -126765, 31788, -30672, -85845, 23972, 64416, -6445, 44684, 75606, 61661, 76904, 34801, 3537, -75122, -11539, -39543, 101804, -8248, 5778, 25861, 2045, 79487, -29198, 9126, -34817, -61901, -28688, -1737, -20132, -32470, -65947, -3897, -70562, 35642, 3866, -68350, -14500, -35271, 14967, 62859, -87934, 5394, -7509, 31482, 9998, -35263, -14962, -37329, 50458, 999, 89154, -2845, -33220, -70984, -84556, -74286, 12527, 23856, -74148, 41972, -22653, 6884, 75603, 42056, -12592, -41791, -100907, -33724, -9901, -46293, -6155, 3604, -10544, -30481, 7909, 20724, -51133, 66164, -4623, 884, 33211, 10936, 44696, 13464, -28719, 16952, -53634, 5091, -1558, -9759, -6028, -88247, -25732, 4354, 7496, -48192, 59354, -40618, 45461, 20033, -30304, 83251, -55974, 43103, 46921, -31448, 65298, -11726, 13538, 12207, -6298, 38022, 37210, -81995, 61165, -77960, 48420, 52835, -51160, -19265, -51851, -10078, -14445, 36561, 61445, 65449, -26362, -9811, -78943, -37790, 45246, 75761, -57883, -27783, -1238, 13138, -37965, 19886, -22220, -678, 25617, 301, -20464, -5140, -4144, -17351, -12136, 74967, 26304, -13856, 32683, -15654, 55012, 17334, -5032, 20995, -73664, -52838, -55988, 6703, 81244, 104634, 29921, 23486, -84458, -25448, -36942, -29114, -7885, -22138, -92817, 35072, -50305, 11219, 97262, -43113, -118655, -13412, 51628, 91834, -57658, 23292, -21820, -4968, 124003, -70480, 11899, 21932, 50917, 4595, 14446, -18366, 12620, -16094, 29148, -17332, 17684, -1372, 52805, -2410, -83144, 59176, -42473, -30658, -27933, 64453, -100150, 147141, 49522, 10469, -2574, 13391, 24437, 30257, 26054, 4201, -9254, -7094, -9140, 53167, 27834, -137886, 30758, 9132, -877, -18219, 52714, 44433, -36243, 19088, -45565, -64695, -29389, 40441, 44696, 24060, 34002, 24206, -30081, 20254, 37534, 35372, 55753, 33215, 16481, 50183, -1244, -41354, -7647, -34931, -31662, -6777, -37160, -14441, -88799, 10002, 57, -38316, 30914, 43966, -75385, -35767, -36068, -44076, 38897, -9089, -12404, -93969, 29797, -58113, 2810, 13007, 63806, -61375, -141596, 8621, 84433, 58099, 9832, -23055, 37849, -45653, 22338, 23703, 49717, 129411, 18402, -23867, -1199, -82959, -32578, -19193, -24576, 7144, -38566, 52569, 10, -436, -15376, 7277, 38692, -40663, -30862, -14243, -63113, -38418, -22332, 41003, 12312, 9078, 39902, -6442, 18310, -4840, 12444, -27328, -114365, -6297, 66718, 43434, 45271, 57967, 4157, 9253, -28964, -14822, 28876, 56455, -6539, -21111, 25, 28193, -67708, -107677, -25817, -57244, -23829, -6930, -21255, 68112, 15322, 14090, 29178, -53404, 48728, -3553, 31441, -50263, -72862, 38354, 17651, -42301, -40782, 52776, -55776, 77031, -42233, 29937, -15410, 28286, -25516, -7634, 1919, -46996, 34740, -24067, -10720, -46629, -120157, -8958, 113137, 36793, -903, -12328, 1054, 25656, -55373, 52255, 33547, 33678, 20562, 920, 31553, 27752, -16602, -26898, 4776, 72639, -58106, -68818, 7726, 2386, 8129, 11440, -10467, 69865, -75072, -38851, -4842, -77055, -8246, 77913, 979, 10818, -59094, -28903, -17594, -14899, 60101, 26152, -52120, 11560, 23363, 53466, 74117, -47602, -38024, -58973, -10974, 21869, 46300, -3562, -14999, 7117, -39163, 97986, -75389, 8663, 94894, 319, -8912, -16762, -8459, 64378, -103722, 71908, -66775, -12504, -20129, 27599, -74942, 21673, 94927, -63924, 8896, -31043, 19971, 898, -30082, 22878, 84613, -8952, 33752, -60646, -44851, 22153, 69596, 16676, -14680, -33, -58636, 28348, 41376, -21200, -22042, 12468, -20479, -3101, 98464, -11584, -16804, -30366, 34898, -8498, -30452, 61961, 66571, -28156, -87529, 47246, -32105, 37075, -92386, 41857, -56796, 34268, 669, -44734, -19087, 32184, 4966, 27405, 92683, -73353, 75837, 4894, -42147, -62383, -8869, 43220, -5981, 70864, -68051, -567, -58729, 17052, 41589, -19731, -122121, 9329, 20480, 18959, 57950, -50226, 31898, 55921, -83405, 14990, -23643, -3823, 16304, -22848, -31686, 1602, -50985, -50918, 31858, -53871, 31246, 21693, -80930, -31774, 55996, -46011, -21778, 21668, 36736, -11796, -28019, 66700, 81544, 45902, 4001, -37903, -38943, 24503, 19620, 65726, 30502, -70485, 49330, -46803, -18006, 11733, 93584, 145836, 28452, -8591, 25065, 41625, -15037, 84184, 10789, 23341, 31228, 19770, 39341, -28945, -26181, -51590, 20610, 36527, 21467, 78523, -262, 31360, -51194, -18153, 32616, 39818, -13785, -3358, -71179, -16742, 41753, 26974, 23478, 2334, 331, -30965, 32771, 19741, 23073, -24668, -100978, 51450, -22454, -40459, 32520, -18383, 49704, 28934, 32055, -64055, 56833, 12251, -17317, 6724, -83294, 19163, -48271, -63432, -71389, 52178, -29509, 71922, -25126, -80064, -52358, 57952, -7311, -25711, 7504, 23530, 52399, 67926, -16871, -62183, -19389, 12206, -45194, -44884, 16122, -2281, 1538, -35569, -10804, -43341, 41745, 48547, -86575, -43588, -70178, -30482, -3913, -67979, -43229, -47079, 9720, 3252, -33845, 8292, -25636, -12739, 78474, 62859, -60942, 38909, 38049, -53846, 38396, 72119, -52640, -43025, 47722, 12731, 25861, 15972, 18321, -62203, 49113, 54846, -10757, -2039, -71799, 24115, 26826, -2916, 52725, -15666, 26476, -47816, -1104, -8176, 10566, -17329, -6165, 38736, -20482, -75338, 82045, 64782, -60599, 32343, -23586, 12356, 13797, -10992, -36754, -32382, -42964, -39007, -3150, -33565, 31984, 69743, -27201, 11227, 23432, 22134, 3562, 34827, 22614, -58039, 40758, 41608, -35793, 1779, 32044, -9816, 50316, 110851, -36858, -64762, 14247, 33837, -10826, 68149, -62772, 32494, -28411, 80628, 93437, -35951, -25771, 40309, -18154, -2130, 1191, -90021, -649, -32344, -23124, 67697, -58922, 38134, -13082, -13119, 37063, 15946, 26758, 45402, -15536, -28710, -50887, -38707, 138294, 58368, -63357, -62015, 22597, 25663, 25739, -11956, -5883, 15375, 4028, -104071, -10776, -39926, 8216, 139990, 17233, -14703, 43227, 22635, 19700, 28457, 96439, -53032, 22210, -43441, 26050, -43081, -19572, -13838, 45760, 43070, -58416, 2576, -33275, -59016, -10177, -14466, 113798, 20303, -64602, -26484, 47896, 97935, -74373, -88157, 87737, 18270, -40717, 25071, -123600, 158, 15373, 43342, -47545, 4018, -43397, 11976, -41986, -19137, -46698, 30534, 40256, -11002, 1793, -67930, -14053, -2354, 122899, -52144, 68661, 46746, 13160, 82468, 17449, 18249, -2491, 57378, 51418, -29340, -61864, -9519, -37517, -2979, 58028, -21445, -2008, 2721, 39786, -105365, -28450, 9908, 56276, -23067, -87999, 29061, -29795, -55788, -29278, -8653, -28359, -103427, 42067, 59784, 30552, -53350, -9449, -306, 28080, 31341, -34428, 3845, 21444, 68269, 33037, 37002, 3931, 66142, 19215, -40380, 65809, 32727, -20776, -22485, 13908, 21720, 9252, 14598, 79717, 50249, 8940, 44142, -48419, 18660, 84845, -10225, -39749, -30579, -51097, -36800, -17375, -65912, 732, 42311, -42568, 71245, 23953, 48328, -30848, 40072, -51205, 41747, 8058, 25944, -55128, -41973, 28006, -44472, 21721, -64110, 39774, -57798, 25899, 29338, -32674, 27293, 12213, -25268, -47295, -92035, 16396, -73379, 4471, -12354, 31848, -14164, -15449, 34320, 15712, 14826, 22006, -72009, 35489, 28721, -47676, -11446, -1843, -6307, 15656, 67122, 50728, -61535, 29171, 62319, 18139, 51160, 94363, 48006, 11691, 49008, 6794, 1121, -16479, 73314, -38379, 71858, 23441, -65619, 17240, -98478, 29332, 41512, -27778, 5794, 91638, -23716, -49656, 69481, 92033, 173, 47431, 62907, -34818, -22758, 57720, 79017, 26396, -41258, 93181, -24899, -15716, 16054, 72880, 40046, 19455, 21725, 2041, 26173, -118621, -13909, 11316, -53975, 18116, -9588, 82321, 73765, -21843, -7073, -3468, -21180, 9145, -35559, -53019, 29201, 29521, -37717, 41987, -29617, 11872, 38469, -1576, 21325, -24217, -9213, -9654, -35010, -8290, -72621, -23032, -13359, -12013, -11325, -2896, 22483, 41009, -30470, -56423, -48865, -22847, -16503, -36108, -60780, -21389, 8508, 27903, -26140, -19367, -43456, -1474, -39786, 26876, -83746, -16864, 14120, 8621, 126286, 16403, -47084, -4477, -83295, -3780, -39065, 42926, -25770, -5476, -29804, 81541, -15064, 85935, 38179, 22606, 17291, 18467, -90396, -13078, 39633, -2293, -65895, -2457, 79912, 58471, -2908, 44617, -17187, -79901, -43352, 73290, -12849, -11413, -14061, 89292, 76247, 104047, -7458, 13863, -71121, 69259, -54762, 10165, -51457, -27614, -39262, -28506, -25281, -25710, 39078, -51811, 10342, 57115, -24066, -33666, -10810, 55322, 9102, -24911, 22691, -51691, 31951, 19161, -14434, -39324, -41580, 25080, 57631, -29886, 21495, -97869, -27415, -1456, -42658, -43916, -31315, 13702, -8785, -104959, -99448, -28458, 21463, -128841, -23434, -24678, 65104, -18055, 17960, 6624, -99910, 36024, 10101, 23835, 184116, -97732, 80877, -13479, 13474, -2134, -19894, -26722, 15452, -71146, 35197, -19517, -52993, -21103, 58952, -25104, 16809, -34277, 35542, 32146, 86688, -8233, 31356, 4599, 60768, -33709, 34936, -9130, -3010, 4303, 11828, -5450, 10069, 74004, 46211, 40758, -21362, -41700, 44798, 41081, 69059, -28323, -10764, -76882, -18404, 46733, -21876, 30034, -8933, 15196, -53820, 3996, -140266, -8764, -76459, 56554, 36456, 21884, 71326, -44498, 81940, 43714, -11093, 53253, -51878, -38665, -28539, -24806, -49546, 57355, -12139, 16530, -26746, -85375, 12664, -89673, -3219, -64165, 93191, 42737, 4959, 59260, -39687, 25486, 9370, 12381, 59665, 34349, 13539, -77604, -45020, -5754, 4379, -52999, 113093, 71109, 28236, 3378, -9951, -44639, 3633, 12087, -58231, 15671, -7281, -89464, -40347, -19396, 88521, 26099, -62626, 22792, -72559, 50771, -22093, -4391, 62172, -60360, -65516, -27367, 48693, -71248, -132810, -21157, 25873, 56285, -21719, -19293, 54111, -87679, -18219, 8930, 21066, -23907, 1615, -116687, -30868, 21267, -46063, 2766, 20956, -16063, 7994, -45146, -9689, 28615, 7361, -27505, 10514, 33511, -96129, 54353, -15768, 19953, 56143, -64323, -33268, -13531, -36753, 81358, -40177, -26052, 9585, -56373, -18555, 14887, -15609, -4379, -24822, -71019, 15081, 82295, 863, 10563, 32484, -59524, 79837, 9488, 76524, -34375, 85256, 36350, 25934, 10974, -11654, 56297, 6582, -92243, -52389, -8715, 14537, -2654, 57162, -91494, 6733, -85252, 35626, -4430, 19677, -40511, 59999, 48850, 27365, -6074, 27192, -33149, 40120, 77350, 50205, -34214, 16948, -60640, 26842, 21130, -87683, -54480, -13277, -14108, -56717, 18241, 11793, -9110, -35442, 49178, 77628, -22676, -28707, 23035, -16789, -6537, 34685, -89537, 61820, 3408, -19296, -4185, -1762, -81183, 70103, 1938, 20774, 44622, -47886, 22203, -12551, 39708, -99754, -4647, -28269, 20270, 22042, -33183, -33396, -5190, -42047, 39484, -17314, -136320, -17577, -48701, -76497, -58028, 5131, 62305, 14686, -28441, 21379, -21528, -32572, -54132, -82150, -18285, 7412, -4531, -19506, -44350, 28523, -61765, 36391, -46998, -35285, -68783, -23513, 45736, 24180, 45882, 24485, -51755, -15512, -36586, 62396, -56122, 41909, 41874, 85798, -19212, 33403, 106995, -28964, -71984, -88161, 33422, -88308, -17459, 20507, 8684, 19951, 10424, 59971, -44658, -31747, -36233, 38931, 42223, 21160, 55498, -55243, 78182, 71430, 34496, 83555, -77685, -24593, -34481, 33833, -49245, 35522, 64270, 32601, 13306, -46325, -39712, 58599, 36547, -1830, -19597, -94998, -50216, 89634, -60045, 8885, 47243, -58848, 8662, 43982, 586, 134510, -78247, 49648, -8103, 36198, 20695, -34380, 10738, -87124, 28289, 13982, 29949, 49619, 17239, 6944, -41317, -33399, 55650, 67355, -11166, 2157, -42421, 54995, 31204, 91031, -41188, -17726, 10853, 30316, -10113, -40936, 41332, 33817, -42968, 63562, 54875, 6298, 3733, 25982, -40408, 1408, -100933, 41100, -73224, 70501, -15481, -9926, -29437, -13507, 66520, -116663, 59882, 15851, -56602, -50425, 78612, -44338, -54085, 53333, 15876, -43983, 10158, -48101, 51622, 49772, 24948, 16960, 82589, -15, -55423, 21078, 97823, -47586, -16950, 19529, -2528, -46064, 52608, 108795, 9197, -42395, -72637, 12097, 51765, 22282, -113, -27633, -51216, 39145, 42850, -72485, 74554, 26920, 65632, -62937, -64049, -6986, 23577, 84238, 33111, -11380, -48130, 57679, -45239, 76365, -13336, 74588, 31838, -6424, -24356, -15986, 20085, 3618, -27846, -7767, 3685, -99824, 21485, -45943, -54084, -79126, -84122, -63562, -33249, 91596, -24660, 8335, 18780, 6146, -3632, -56052, 68039, 84746, -78906, -48021, -13121, -45231, 23727, -34151, 101528, 55829, 9968, 48159, 51860, -26446, -38275, 3664, 40405, 6521, -73951, -37647, -3469, -3548, 92500, -64994, 23709, 69830, 106517, -18964, 23045, 26718, 9167, -4635, 20445, -118747, 31985, 5917, -10433, 95985, -31650, -18902, 93391, -39018, -25797, -6895, 39425, 9745, -60616, -24955, -28481, -3621, 19969, 19611, -83284, 49892, 11844, 64926, 20830, 51645, 21878, 63130, 24490, -4592, 106563, 41690, 26905, -59851, -60414, 13727, 6824, -28799, 6611, 74497, 32610, -53506, -5229, -37748, -18181, -19396, -22399, -58858, -5986, -26289, -137373, 96272, 51056, -17646, 882, -54943, 79519, 88971, 7348, 47997, 8220, -62684, -19312, 6187, -21315, -10253, -4286, -3793, 2451, -49736, -33624, -60239, 45853, -98742, 54096, 65011, -14170, -122071, -16943, -3010, -47391, -24161, 71757, 31181, -43356, -74917, -15335, -10010, 23269, -25103, 23986, 90747, 38242, -2255, -8589, -16726, 55365, -29417, 2121, 2401, -23531, -64360, 15145, -2861, 23458, -25023, 57249, -41115, 80284, -81953, 20388, 22295, -37307, 19901, 60001, -103955, 23576, -116919, -45284, 76398, -27282, -55048, -9282, 96972, -85894, -49300, 70220, 87115, -4850, -58104, 98282, 74769, 31838, -38097, -2299, -7520, 15515, 68043, 41239, -50522, 64549, 14684, 32219, 68772, -52126, -1680, -24922, -73523, 16259, 117776, -86288, -1514, 30037, 5772, -5305, -60925, 10916, -35487, -102694, 56019, 44942, 2423, 10742, 50379, 10520, 42393, -13950, 61524, 15043, 9100, -59558, 13456, -39013, -29931, -38236, -50000, 99638, 62431, 90053, -57346, 3341, -60657, -32624, -43054, 58129, -18581, 50100, 28329, 108026, -69377, 59050, 53761, -45645, 47228, 15763, -10667, -38637, -33722, 96123, 32, 36677, -37088, -36570, 50738, -63287, -19471, 1596, 5223, -8398, 18561, 32491, 34450, -46228, -13325, 56027, 41953, -64379, 16482, -92766, 2201, 88993, -44450, -39125, 35828, -72348, -29672, 27969, -29744, -11066, 34898, 19768, 12512, -15903, 17354, -5802, 21468, -23303, -8561, -46423, -1642, -38031, -52242, 12130, 9976, 36712, -20217, 19135, 25829, 20857, -38718, 7004, 17076, 337, -97843, 7526, 103754, -16884, -34142, 17508, 14649, 55932, -58986, 34297, 27687, -6666, 15882, 48275, 40906, -53600, 38460, -3033, 3417, 3432, -7045, 55884, -3926, -52500, -18454, 8380, 57642, 28281, -39885, 116540, 12416, 59808, -7114, 25011, 39366, 57126, 49584, 40901, -14776, -26811, 15597, 43758, -10444, 49950, 68119, -42970, -39246, -6583, 14425, -24599, 63410, 19886, 1850, -67335, -61704, 13178, -100005, 47486, -7416, 152081, 108227, -8509, -4987, 46687, 79868, -76813, -83770, -29170, 27327, 23300, 50166, -56258, -108613, 40235, -38837, -94654, 6803, 37195, -5724, -21470, -7473, -17378, -63215, -33514, 24445, 15085, 7881, -46666, -8511, -102091, 8369, 67004, -69128, -27476, 15433, 58750, -21019, -32462, -92330, 4851, 95761, 13006, -1045, 15104, -520, -38125, 38607, 10587, 826, -45739, 61126, 31170, -25929, 46979, -23333, -36671, -35625, -83052, 22112, -85869, -57606, -97332, -4036, -7049, -15320, -48890, -54970, 21776, -25817, 14835, -41513, 8491, 61116, 27488, -19340, 12061, -11286, 370, -15269, -7706, 9946, -46582, -47638, -65114, -75043, -57083, 7478, -41866, 24085, 1628, -92311, 30714, 38021, -46606, 19704, -40164, 4580, -59297, -84085, -17952, -5802, -18649, -55524, -18753, 12628, -2105, 8558, -31424, 54946, -55155, 22864, 55423, 22552, -9497, -24774, 48586, -66729, -45493, -18643, 58038, 17809, -45395, -14551, -28808, -33285, 45904, -64326, 75442, 38839, 51155, -21709, -7031, -67206, -24603, 23149, 60777, -51919, -17140, -7095, -65454, 27731, -33951, -9163, -21194, -37015, -330, -10111, -17438, -34160, 14984, 77544, 6560, 46712, -65193, 7398, -51460, -69259, -34672, 55893, 44550, 11395, -71874, -9204, 14148, 8232, -86462, -41750, -3005, 25149, -102985, -7603, 6708, 39841, 32491, 27319, -37512, -89473, -18432, 46970, 65344, 33320, 20133, 17803, -26078, -6099, 78269, -44200, 75723, -15101, 62154, -65971, 27475, -34550, -66367, 10248, 47338, -39622, -70294, -4307, -4100, 25713, 44530, -2786, 87011, 10515, -16245, -75572, -12317, -15774, 45032, 21688, -55305, 8078, 31491, 71655, 41618, 35679, 2818, 18209, 58594, -62499, -16387, -36229, 17780, 57690, -27994, -112090, -19331, 42836, 25211, 20079, -13130, -59979, 24164, -39123, 102420, 26753, -27229, -28670, -4359, -11231, 52373, 8742, -34309, 88650, 2312, 36054, -28522, 17028, 14589, -88613, 94504, 60523, -18626, -51690, 16298, 4066, 16679, 8984, 23740, 67870, 26640, -49222, 63896, 76935, 147812, -52685, 11390, -97637, 25939, -25707, 90198, -36325, -79212, -22099, -92638, 35222, -96839, 1334, -97436, -15020, 77064, 16912, -40492, -1463, 845, 22163, -64097, 27788, -126819, -29538, -22897, 29699, 1061, -65912, -46190, 9317, -3708, -27157, -22548, 32646, -24277, -4131, 101756, -66762, -86840, 36745, -31824, -14923, -36631, -12183, 74961, 37615, 40433, -66412, -53982, -133135, -37955, 44863, 24242, -10388, -1046, -32304, 9602, 35915, -75775, 14052, 43725, -19466, 32858, 131990, -4893, 18444, -34610, 8500, 21584, 9137, -47817, 9677, 68568, 21038, 45111, -11114, 35166, 13096, -44592, 14937, -46504, -29678, 8878, 13939, -55768, 49425, 26824, -33047, -72103, -6795, -20912, 5306, -17028, -94137, -18211, -14332, 29715, -32741, 78719, -89644, 61486, -10519, 40309, 3742, 53438, -18165, -51518, 66613, -5322, 10390, 57902, -48392, 27925, -27662, -6198, 3389, -70351, -36523, 63357, 41557, -2937, 11401, -13798, 63615, -9395, 10872, 53742, -36454, 73097, -71769, 76420, -17476, -11381, -88630, -21327, -48760, -28495, -6439, 44914, 9735, 14428, -51373, -41302, 84349, -34476, 77666, -11398, 107, 50193, 59644, -5196, -18206, -2622, 15848, 41797, 198, 29022, 76829, 17881, 14615, -71227, -123365, 18212, -4447, -24140, 11420, -2833, 52886, 4038, -35026, 46433, -10182, 24691, -22388, -30473, 3947, 602, 22501, -12598, -86114, -20294, 37225, -13945, -11554, 46255, -33387, -72348, -7533, -22705, -45311, -8224, 23049, -436, 14395, 85037, -16079, 13053, -23879, -39689, -27429, -22451, 16857, 110157, -33578, -19537, -2960, 18560, 12359, 60216, -113783, -111932, -23254, 51457, -73419, -141039, 26785, 11426, -51124, -46216, -45475, 5183, -29370, 23169, -133864, -40181, -52805, -12021, -25231, 37414, -87191, 2133, 26182, 87065, -22592, 15215, -84590, -112168, 39615, -261, 55265, -64404, 24380, 87636, 19682, 12970, 401, -73665, 63568, -28645, 23657, -73297, -55309, 67297, -16286, 68150, -3669, -86373, 41832, -27662, 32764, 1182, -72363, 7704, 102989, 23118, -2697, 50427, 9879, 9826, -51190, 10966, 48556, -39206, 66800, -4300, -41631, 46783, -13449, 35616, -13682, -2805, 23145, 13641, -93578, -52579, 43584, -6196, -24560, -63709, -50633, -94810, -4749, -28063, -45327, -3195, 17068, 98158, -70898, 54368, 45632, -36535, 9530, -21460, 8708, 70769, 28399, 23851, -20179, -69593, -9776, 56582, -71615, -49477, 5921, -46174, -37164, -19864, -64039, -45680, 32986, -61307, -74930, -29544, 34324, -9234, -21786, 2080, -81863, 23199, 17981, -19194, 47172, -52873, 52892, 7245, -15782, -932, -5030, 57224, -50490, -35757, 48596, -27927, 42229, 79693, -18842, 31952, -54101, 35392, 9352, 22183, -30273, -77894, 23599, -96761, -14882, 44136, 8999, 91365, 48071, -30664, 1281, -2221, -74194, -44099, -26296, -95486, 2227, -11680, -78448, 18955, 33570, 10646, -15197, 27735, 31898, 14415, -38669, 12971, 56061, -27978, 98380, -24649, 1520, -31535, 10470, -81699, -25606, -51214, 6347, 46633, 30294, -111216, 95760, 13847, -36413, 7368, 8262, -31271, 9281, -28487, -18962, -32182, -67183, 6839, 27447, 24145, 38449, 15210, -24981, 39375, -63659, -42236, -45215, 50648, 44211, 22852, 50267, -41233, 16347, -5870, 39713, -5403, -18051, 25365, 41087, -31341, -2864, -49634, -117143, 9400, 28554, 12289, -91422, -16453, -104027, 64230, -50929, 58871, 44355, -42232, -53121, 16430, -39594, 4806, -22642, -83525, -104595, 10630, -26334, -25936, 32632, 55027, -12781, -15972, 23454, -63632, 10464, 25880, 31899, -90822, -35703, -41185, 4684, 22544, 70186, -23211, -23333, 53912, 13908, 59445, 13540, -54262, -62515, -72756, 31046, 55738, 86724, 39536, 54530, -27199, -54229, 39863, 19587, 5038, 18165, 15155, 60203, 60727, 25521, 39663, 24106, -21626, 35478, -65393, 49421, -56016, 13402, -39632, 25950, -1591, -74784, 19728, -27101, 41320, 62, 18543, -44904, -27636, -21507, 40174, 78658, -37758, 50497, -101744, -56000, -44961, -63424, -74260, 19367, -10038, 17792, 32379, 12456, 30845, -3261, -55663, 49605, -27626, -43874, -8343, -42805, -19575, 16134, 16335, -42103, -22870, 50379, 23278, 97308, 55341, 53660, -65082, 35820, -2490, -25838, 7879, 44325, 23486, -41195, 34817, -29899, 10161, -14225, -10263, 35932, -48779, 91217, -85398, -28027, 17361, 27401, -4712, -2691, 19252, -10836, 65331, 39360, 40930, -45307, -3723, -14090, -47156, 16889, -25212, 30734, -50185, 80612, -42032, 10284, 37133, -26759, 39975, -57641, 68095, 664, -27968, -14030, 37933, -27407, -35140, -10389, -55192, 85372, -26560, 38998, 9823, -46168, -279, 36765, -8828, 55950, 47903, 43091, -21555, -50638, -28773, 9202, 25594, -101833, -380, 7413, -13015, 60553, 19779, 61440, -10127, 43962, 76674, 61510, -51215, -11896, -16186, 22943, 32186, -39339, 3181, -94722, 67618, -24027, 2620, -14521, 53742, -133061, -779, -4962, -21273, 80949, -41610, 36192, 16706, 59157, -31287, -34372, 51399, 19945, -72448, -25290, 18119, 39286, -31852, -136660, 24536, -57225, -94601, -132818, 38171, 6031, -10582, 65137, 29887, 75794, -65311, -1620, -75814, -10757, -11659, 29384, 2137, 29234, 32987, 101053, -14785, -44128, 11540, -37622, 69495, -13281, -26522, -22102, 33689, -7397, -30090, 78095, -40149, 1668, 30589, -76499, 22521, -49478, 38583, -45142, 32487, 51857, 40396, 11785, -10847, -27030, 68982, -32802, -48632, 31202, -37334, -44552, -67696, -22645, -3879, 11399, 44610, 24708, -8951, -9294, 23923, 59676, 5923, -21999, -46559, -67771, 31244, 27104, 27075, -6033, 65976, -22702, 44796, -1817, -28528, 27786, 19209, 16740, 3811, -1777, 112000, 55534, 33896, 5243, 47229, 24291, 1229, -14235, -3795, -148673, 9876, -22906, 74686, 907, -55755, -2339, -49057, 22200, 13644, 44917, -37087, 1595, -64011, 32896, 24332, 23250, 76, 19450, 75233, -13369, 6502, -50933, -40716, 4587, 51768, -12018, -11063, -19080, -25077, 13832, -70212, 60068, -31204, 33853, -59555, 31364, 31510, 18017, -46632, 11702, -55478, -11853, 48273, 37360, 712, -45712, 30274, 909, -108808, 36700, -1136, 56387, -51361, -148968, 13087, 13673, -79282, -45886, 129202, -14331, 34277, -30512, -98022, -7984, -12455, -18752, -5376, 12393, -7040, -59274, 22799, -91413, -96149, 34663, 23776, -2691, -65438, -33197, -12321, -74837, -34656, 30590, 66932, -19669, 35475, -89757, 30924, -37700, 14413, -11618, 61919, -41006, 29431, -13107, -7424, -8622, -39657, -661, -2938, 11313, 3963, 37421, 43307, -49268, 40740, -55632, 27567, 29062, -89629, 4360, -21970, -35581, 63347, -30653, -37814, 3550, 32150, -6642, 54695, 24899, -102144, -24829, -26347, 22479, -123087, 119533, 24902, 6981, 55408, 109903, 40833, 44493, 6129, -6637, -22312, -38739, -32217, -63333, -3558, -79000, 8953, -1704, 6890, -24485, 144286, 63781, -58361, 10920, -28512, -47573, -62841, 20268, -31952, 45385, 46602, 64428, -39972, 22292, 29658, -22236, -36191, 75476, 10668, 29823, -38550, -57177, -26704, -5816, -49905, -462, -79180, -52523, 31462, 28314, -18377, -47727, -48179, -17504, 30224, 43529, -23284, -54092, 12560, -38619, -24303, 62147, 38787, 7408, -59645, 9913, 49832, -17615, 63359, 60622, 78019, 14314, 27545, 66317, 20980, -23505, -21034, 11187, -60519, -6718, 51421, -102756, 71958, 52632, -21560, 25482, 148, 57679, 46082, -65655, 27539, -9643, 3884, -34147, 81977, 48772, -34691, -62585, -18086, 20375, 11264, 58764, 37042, 45467, 15327, -65149, -9177, 49712, -2416, 23592, -14947, -48292, -5784, 14492, -30748, -11053, -44055, 52486, -13808, 68125, 71689, -3801, -47290, -97816, -69029, -64424, 64642, 5431, 18270, -104124, -56177, 41598, 13448, -6903, 26488, 76709, -10366, 3253, 9032, 112175, -98447, 32039, -5384, 26578, -30827, -2296, 33361, 145976, 37892, -39769, -19872, -21262, -84204, -15479, 34365, -59754, 49167, 22874, -34431, -6637, 74951, 34399, 412, -11146, 3592, -23999, -98700, 95765, 7284, 18671, -2716, -34472, -8719, -75002, 106781, -57891, -48393, -20645, 60403, 680, -57967, 58821, 34279, 25249, 33563, 112281, 102467, -32203, 76150, 17968, 23404, -79357, -7990, -38116, 38831, 50227, -97280, -1033, 52608, -8754, 34189, 16467, 16022, -12723, -57050, -52593, 33264, 912, -6495, -19878, -14311, 49094, -15721, -62888, 34873, -9607, 1472, 75385, -964, 13561, -55284, -10301, 28583, -72937, 9418, 4726, 1936, 48636, 15683, 69312, -46593, 6374, 3961, -50141, 44844, 109013, -797, 23682, 3963, -33463, -85382, -33096, -65274, 79912, -5398, -16221, 41696, -52603, -35961, 3192, 48243, 23526, 11645, 3663, 18769, 9456, -48299, 2161, -50349, 3802, -22539, 119081, -1871, -65850, -6292, 24355, 78470, -27642, -74206, 38305, -64741, -20453, -12081, -3265, 32318, -32058, -12836, -669, 7015, 4587, 20446, 39571, 18412, 21270, -74196, 2355, 22486, 34183, -32467, -30905, -26922, 25154, 48483, -19107, 42578, 5790, -5828, -9913, 35011, 15268, 106722, -39964, 24296, -24816, -40764, -510, 6441, 136844, -8635, -52998, 12802, -97288, -4312, 751, 37262, 45657, -23614, -7063, -35926, -52899, 14532, -59723, -19443, -46667, 25777, 84476, -61036, -86895, -5856, 736, 10254, -20930, -9409, 17234, 48790, -91680, -17301, 10026, -43047, 81181, -29797, -1936, 26074, -27728, -86593, -20101, 48274, -15798, -39692, 43408, -15511, -23923, 7009, 36143, 111687, 38792, 54389, -23727, -48107, 2923, 5026, -50576, -8220, 18725, 16900, 23648, 13644, -23776, -24099, -56223, 83695, 631, -10544, -43555, 137664, -50332, -20110, 19500, 28146, 44921, 84766, 23736, -49521, -12049, 14435, 96987, -65548, 56393, 8437, 39289, -4783, -39505, 35211, 30689, 45583, -624, -28128, -73097, 38423, 19878, -45289, -25256, -21888, -69543, -38344, -53170, -19343, -34640, -76296, 94847, 58736, -36531, 12775, 19577, 55854, -38387, 51213, -25693, -62644, 33957, 60528, 121357, -56260, 32775, -19217, 36735, -68957, -59216, -36384, 3703, -30063, 30906, 48155, 28116, 75911, 19500, -57065, 63934, -28378, 42693, 73798, 21416, -70160, -43058, 62028, -7931, 3732, 35584, 32653, 13074, -9785, -14662, 40230, 25959, -12066, 50744, -6051, -39938, -35591, -45897, -12774, 57854, -37754, 8838, -30795, -12207, -70811, -10342, -9084, 25336, 10470, -56197, 50842, 9862, 9303, -431, -24280, 10214, 22302, -81918, -25265, -11955, 12013, 55959, -36190, -23351, -24035, -37587, -16281, 36146, -49418, 20062, -79809, -26323, -15451, 78540, -12887, -103225, -93735, 1596, 28782, 17607, 7858, 54503, -25303, 41966, -76531, -42436, -84739, -12889, -2169, 5351, 2902, -43496, -8921, -70221, 63927, -14238, -22926, 74511, -58254, -52783, -51406, -3183, 20241, 34686, 120610, -105484, 28546, -26126, -27499, -29063, -42616, 78994, 39498, 1088, 63354, -70928, -62402, -102133, -32798, 7583, 4823, 7003, -66170, 37663, 11237, 34376, -88759, 14607, -55699, -18632, 25058, 4272, -39932, 294, -71819, 53940, -9627, 52453, -24691, -24552, -35836, 41087, -33268, 30227, -17935, -92660, -26744, -55293, 1590, -55823, 43422, -4271, -8328, 30757, 45201, -943, -36164, -83188, -32171, -28943, 5020, -16185, 32260, -28745, -2675, 55522, 16029, -2815, -28227, -29695, -39888, -25370, 35436, -10405, -63296, 82916, 15004, -65977, -20720, 5200, 79935, -51964, 45770, 65627, -29480, -13014, -48596, -9541, -1716, 30933, 51123, -35081, -92255, -996, 13765, 11696, -15319, 5850, 71065, 17901, -17509, -23456, -7965, 76753, -8596, -928, -22617, 51535, 91904, 21131, 3882, 1725, -111809, 34943, 6292, 20087, -33363, -18029, -19274, 47908, -17761, 97664, 20205, -59822, -6028, -30559, -102903, 75005, 32973, 25004, 7756, -64808, -22679, 39474, -49296, -118724, -10650, -6648, 6357, 34163, 29900, 12135, 56063, -71230, 23662, 29381, -58128, -70475, -34980, -31022, 35331, -28818, -40157, -28682, 52457, 612, -8406, -5159, 60590, -35131, 61689, 9871, -7523, 117277, -49503, -16586, -57793, 44665, 79212, 78309, 57396, -9267, -17128, -78367, 95470, 21992, -23070, 62278, -45617, 19068, -8095, 29950, -2981, -68039, 3544, 49185, -1370, 36348, -49029, -1231, -29286, 35029, 1477, 32360, 51007, 32433, 12808, -46810, -131, -24999, -16134, -17563, -45952, -91787, -31332, 9068, -63221, 735, 89111, 47975, 77072, 18341, 54749, -33949, -30216, -128449, 55623, 72232, -25941, -11909, -35351, 17944, 52752, -81725, 19200, -12974, 5317, 21524, -8826, -4858, -10029, 45502, 19637, 10344, -59600, -17753, 42142, 1768, 30928, 82838, 48704, 4369, -23962, -119746, -7896, -15288, 18306, -7217, -15024, -83443, -44079, 22352, 80465, -4573, 15372, 44665, -38026, 17201, -34724, 40555, 7100, 13996, -36699, 33155, 97760, -47265, -15933, 10861, 36878, -26239, -132851, 63737, 35663, -81733, -28491, 73538, 67893, 44016, -8259, 3892, -6140, 52907, -41072, -37787, 47376, -2080, 64641, -31490, -2569, -43255, 345, -69335, -22867, -67351, 32541, 33604, -81138, 62551, 117113, 2157, -30064, 132443, -61851, 943, 8423, 63079, 16870, -23383, -44605, -16029, -47219, 2243, -26457, -70061, 58858, -23338, -59468, -7890, 3206, -81898, 15552, -49105, 80237, 24570, -18753, -34944, -4922, 28736, -1196, -10183, 2737, -28317, -16094, -97811, 45662, 14012, -36270, 89039, 4081, -48589, 40176, 18666, 18503, -19965, 21125, -12275, 26070, -89330, -20346, 80758, -35971, -28316, -21007, -56967, -103555, -10813, 6371, -2462, -6794, 2018, 47965, -8931, -26921, -13183, 27168, 66215, -29456, 4639, 15867, -46546, 957, -68731, -82957, 17198, -18001, 9486, -839, -45787, -2122, -57825, 65228, -63587, -9181, -48876, 26749, -15542, -24322, 40010, 1380, 24227, -46018, -65877, 5027, -14952, 29376, -3747, 9617, -76126, 88556, -7702, 32712, -39207, 14444, -61095, 21199, -16693, 1369, 32731, -57798, -32098, 21446, 98393, -6475, 27721, -5016, 91079, -81934, 4437, -76228, -117543, 13949, 6542, -13357, -4980, 145291, -12107, 23922, -30451, 13845, -11172, -19251, 85295, 55203, 6413, -108053, -16929, 126755, -10817, 51734, 67618, 10268, -39476, -114201, 32083, -38207, 8260, -58609, -12438, 1581, 12595, -52278, 56128, -27991, -78522, -5113, 1612, 7531, 63875, -11088, -5609, -51732, 38479, 8643, -19697, -89317, 67734, -57571, -27727, 16804, -56111, -70036, -99600, 33810, -25566, 137271, -46629, -43210, -26513, 11401, -22050, 28715, -45890, -64788, -84325, -104272, -24294, -14114, -29610, 58308, 57587, -15700, -84124, -26575, -28128, -30816, -32719, -30643, -18126, -29803, 9769, 16899, -42704, 59605, -45959, -75865, 17856, -38331, 15067, -112717, 65297, 31526, -70363, -69345, 78419, -34579, -39118, -106264, -16449, -10679, 33552, -65608, -71292, 21147, 47209, -73677, 50716, 1760, 51199, -3293, -118279, -7126, 49714, -41911, -18193, -8260, -135969, 78376, -42269, 23716, -4066, 58974, 19041, -11016, -41900, 37414, -87853, 30288, -51538, 58724, 7564, 30205, 3845, -82176, -40363, 31531, 7815, 55381, 18911, -45332, -37330, 4826, -108514, 78474, 20715, 57540, -74120, 58362, 104643, -61941, 36174, 52, -72424, 23113, 39091, -28189, 54674, -78161, -70095, 6406, 1190, -33603, 37965, 24896, 40241, -5774, 28257, -20898, 96311, -38103, 98725, 1636, -64503, 64154, 5904, 39912, 57391, 15848, -27772, 45755, 35, 32162, -100996, 20961, -29946, 77530, 29219, 11248, 22805, -46821, 76121, 93383, 18425, 74580, -26689, -37380, 1919, 20396, -18476, 25218, 14368, -46814, 24328, 40494, 8041, 54052, -57089, 21944, -54879, -52243, -29587, -44177, -25698, -10042, 39257, -15060, -74356, 53462, -39254, -2754, 20940, 9360, 51310, 22462, -40390, 102161, 9113, -6909, 45202, 11698, 18721, 116868, -12901, -14901, 5467, 50247, -70647, -92172, -27532, -76621, -19922, 23564, -41771, -66909, 3251, 40448, -79484, 38464, 38327, 44741, 57139, 103261, -16698, 5138, -19528, 93, 71882, -63073, -40378, 64581, 47833, -17029, 40066, 16001, 70353, 3494, 48096, 123894, 28047, 2313, 33878, -17129, 111981, 8444, -12799, -39189, 51453, 40666, -23323, 27032, -70742, 8674, 21231, 80063, -36147, -59947, -41990, -62677, 62681, 72621, 15016, 57271, 6282, -4460, -15617, -14555, -72582, 12392, -1891, 34953, 4386, -7630, -40854, 3384, 34619, -53615, 4102, 10928, -33673, -27567, 10814, -53150, 16409, -41987, 49841, 109629, -40364, 25051, -34080, 48814, -59333, 22537, -40938, -9706, -48349, 38563, -39249, 25884, -16136, -5368, 6929, -35725, 9865, 71763, -36488, 54951, 70251, -38273, -68233, 14160, -25670, 87626, 1632, -37618, -53795, 51110, -26785, 2055, 44821, -22709, -2154, -777, 32044, 27702, -10322, 2985, -17434, -69291, 12080, 88732, -41441, -36250, -40832, 33979, 21031, -7434, -43049, 4332, -73371, 6726, 40869, -58673, -71866, 74066, -28688, 53269, -7222, -7595, 20559, -41454, 6213, -17889, -61923, 15826, -12347, -7363, -56749, 74627, 41112, 45213, -14323, -81088, 91580, -2865, -35114, 19545, 54731, -1081, 59957, 50786, -50476, -31597, 44903, -127205, -7009, -67097, -22347, -14013, -16799, -25898, -51449, 107476, 87572, -54494, 74191, -18732, 6058, -2967, -30938, 46137, 5903, -22347, -61177, -41904, -76970, 573, -56116, -12453, 64249, 56240, -1514, -4084, 88154, 24420, -15372, -66871, 18470, 38890, -29621, 13656, -17049, -8630, -116663, -10400, 45457, -29609, 2463, -35449, 16902, -10154, -44045, 62488, 43561, -28366, 23343, 25201, 30120, -79450, 47204, -26715, -16780, 123700, 14156, -18116, -103415, 65171, -63082, -47055, -15538, 66421, 36260, -7402, 14457, -28154, 6549, 3439, 45429, 45355, 23164, -16992, 34787, -4313, -50735, -18912, 3964, 42683, -8606, -56704, 2661, 5320, 8715, 43136, 47781, -27865, -28893, -48779, 32770, 67941, -14775, -11322, 68783, 23708, 20457, -55847, 31828, -43571, -53178, -16261, -27470, -10392, -67573, 44962, 52881, -91318, 45884, -38009, 40187, -3210, 1349, -8680, 56841, -58129, 28504, 51645, 33592, 109014, -24804, 44892, -4975, 57839, -361, -18189, 61247, -23051, -66248, -24237, 29029, 65278, 5211, 61815, -63690, -20786, -13532, -5372, 3944, 32399, -20859, 6520, -2116, -43418, -5330, -6737, -7741, 1489, 3549, -20272, 59682, -54841, -33809, 130363, -48675, -63483, 34442, -97404, -11033, 100626, -72448, -92942, -70302, 42127, 52745, -24037, 32038, 65194, 83815, -11552, -107925, -38494, -20014, -12143, -8809, 52469, 59763, -8050, 51512, 16772, 3025, 42511, 3388, 96498, -67452, -24158, -5933, 20608, 59459, -1144, -66694, 39509, 35403, -91061, -178, -74568, -31168, -42336, 37949, 5479, -60286, 41270, -67237, 15480, -38172, -17148, 23647, 24453, 62695, -3857, 14371, -20527, 8534, 20609, -4610, -84585, 15544, 17096, -31896, -60230, 69209, 23046, -10742, -53320, -38538, 61083, 6455, -25819, 23901, -38190, 70380, 63438, -21879, -29481, -122774, -69477, -62813, 6340, -15298, -63088, -13185, 23697, 24752, -89083, -6015, -64870, 42285, 36772, -42112, -35923, -21631, -105642, 15755, -12795, 45495, -51509, -29033, -70647, -47095, -55428, 46705, -32744, 5823, -17855, -59530, -7892, 28094, -56636, 37942, -39847, -22649, 24886, -31111, 1762, -14757, 6067, -111642, -85801, 28885, 48637, -42696, -11443, 13820, 32508, -95085, -41550, -15596, 32973, 117161, -10692, -65978, 18864, 61946, 5065, -42516, 44924, 31116, -48117, 17886, 46766, 55423, -3116, -16792, 57551, -56749, 20567, -64246, 49959, -12101, 59489, 23044, -57361, 66806, 72744, 41374, -35714, -14350, 6820, -33000, 79360, 6768, -126770, 15914, -16326, -3514, -17286, 37845, 52506, 13273, -15912, -1938, 919, -37629, 27148, 21573, 72237, 58868, -32154, 38467, -44594, 32635, -24226, -47984, 13132, -125420, -82110, -8323, 3866, -17319, -74066, -38354, 18345, 27282, -761, 54248, 18635, -35051, -13154, -65786, -5071, 52151, 32136, 65745, -14203, 63124, -9065, 69008, -1025, 33165, 69174, -9071, 10241, 60440, -6237, -61942, 100494, -22029, 7445, 54209, -28535, -47263, 11899, -84084, -13501, 11491, -12659, -72378, 74757, 4855, 67112, -12194, -41267, 12623, -10119, -55230, 68924, -29181, -86297, 62283, -23648, -28503, -82786, 81639, -60469, 2741, 42796, 19776, -2797, -79797, -37971, 8807, -36914, 9536, 31970, 45135, -57500, 103009, 35990, -80, 51092, 110923, -67467, -10563, -111534, 9034, 17135, -1836, -30694, -96109, 17516, 68251, -27715, 20636, -73536, 21440, -18447, -35753, -35656, -18458, 17934, -61532, -18622, -1945, -51538, 84252, -40024, -31392, -45877, 84337, 25928, -43920, 51875, 9412, 12064, -16154, -35143, 15839, -25561, 85194, -59522, 72036, -5220, 14025, 39070, -29555, 40528, -126967, -33763, -43333, -58782, -10080, 18089, 32950, 11296, -31217, 17305, 5828, 43895, 36433, 1429, -42076, -30619, -25782, -14784, 12570, 33537, -2397, 756, 6720, -24193, -43395, -82319, -32598, 22188, -32962, -11152, 21873, 24417, -50623, 46756, 52866, -52983, -38633, 55855, -6887, -104094, -65636, -11694, -54539, -19387, 1519, 68571, -13620, 50296, 67000, 67260, 13353, -92066, 21610, 49163, -3802, 81810, 40321, 26648, 50944, 15633, -116897, -23406, 56140, -37871, -10479, -48996, 83655, 78851, -41448, 6907, -31911, 28837, 23901, 38064, 15565, 137652, -48203, -80217, -18433, -73529, -69987, -46955, -43245, -44766, 24301, -23737, -8418, 41934, -35936, -12406, 17152, -91047, -111837, 16231, 23072, 96799, 7414, 38441, -9166, 13938, 78184, -99602, 19396, 100146, 13226, 77402, -29506, -1503, 1572, -103991, -54780, -51437, 38550, 40899, 15195, 38645, -7698, 56363, 412, 2713, -12455, 32096, -19752, 45789, -53091, -51532, 32236, -4152, -21285, 41738, -28477, -9388, 65615, 72176, 73736, -13230, 57712, -44500, -42528, -110222, 78447, -40515, -5934, -42689, 32599, -17615, -61188, 20711, -67233, -39269, -98800, -66775, 8372, -92124, -69456, -111, -25492, 93414, 85998, -40700, 26126, 35137, -28018, -70132, -577, -8105, -20435, 20742, -35205, -54021, 5115, 18100, -55177, 43522, -83024, -27110, -12099, -29835, -26498, 87742, -39901, 114478, 20499, 4317, 22333, 118638, -46593, -52541, -35399, 1507, -80928, 1048, 79417, 7100, -13725, -28988, 42135, -38726, 86584, 90662, 12040, -540, 48331, 51339, -37796, -24692, -62010, 19183, 31261, -63303, -21346, -63178, -42148, 25839, -34396, -14107, -76311, 8769, -2076, -34184, -8864, 8455, -38212, -69227, 84670, -29697, -4537, 47402, 165491, -58359, 21094, -33180, -25266, -33773, -52786, -1936, -69145, 44399, 2579, 19810, -21861, -17220, 13485, -54587, -16788, -40310, -41762, -98938, 62806, -32194, 54555, 50120, -60305, -51040, 120072, 82107, -1478, 12069, -29583, 20275, -33631, -95305, -61973, 989, -53040, -3155, -50395, -36688, 40008, 11605, -453, 41218, 22538, 67835, -21565, -20147, -61014, -20117, 45242, 60961, 45032, -84136, 50793, -86215, 42116, -17247, 32944, -62483, 54920, -68698, -31346, -46804, -82265, 4433, 84694, 125061, 4556, 52365, 10884, 23395, -16045, 9148, 25204, -27126, -3634, -2740, 38753, -49990, -2417, 89661, 54587, 63268, 1146, 15053, 46999, 73166, -91518, -61686, 61405, -12984, -31500, -58812, -26027, -65762, 98059, -1052, -2718, 27577, 45128, 44356, 50346, -29583, -13968, 36063, -24731, -239, 18700, 36820, -83362, 33517, -10960, 33175, 36433, 75401, 63469, 63146, 67699, 13664, 1509, 40930, 34330, -14493, 18984, -1646, -40044, 60515, 2588, 96072, -76225, -26109, 1531, 53336, 18733, 14559, -52862, -54253, 15123, -63968, -24942, 23490, -46065, 75281, 57395, -73690, -43722, -107189, -36699, 35939, -19409, 21609, -71388, 37420, -26031, 571, -4355, -59628, -54072, 45384, 18710, 49241, 15224, 6705, -80939, -12679, -1284, 91589, 32214, 72032, 28021, -33356, 5492, 11077, -44041, -18025, -9649, 75294, -97574, 56545, -43930, -64342, 55332, 34321, 58829, 37548, 96594, 26201, -7338, 16081, 58311, -36548, -30569, -14488, -98692, 6475, -88448, 2488, 40577, -22363, 78646, -68488, 55863, 31660, -80471, 127119, -2989, -41149, -65984, -10317, -5975, 4813, -13965, 29694, -18177, -90738, -7004, -111020, 16590, -45923, 7661, 61622, -44490, 49766, -20323, 82214, -17123, -39414, 32227, -20436, -39459, -22408, -2092, 62940, -90697, 1082, 29304, 9072, 61424, -3486, -8654, 27777, 4657, -18308, 24204, -30599, -28660, -24760, 63450, -151046, 18551, 1607, -78822, 14524, 22310, 27650, -124354, 64075, -34595, 32196, 34752, -41112, 30971, -18077, -97135, 54760, -36345, -40070, -18901, 12766, -2686, 25701, -62814, -34813, -5440, 88999, -5337, 50890, 1808, -22681, -11570, -7898, 28307, 64461, 16867, 55667, -45243, -19444, -33965, 14745, -16833, 34222, -43658, 2018, 32209, -96850, 99491, -13278, -94962, 7414, 1568, -3840, 46481, 35050, 13969, 21109, -4894, 83259, -69365, 6549, 3049, 38138, -39571, -81767, 7354, 13188, 69853, -59572, 54148, 111017, -17715, -60537, -19085, 657, 26438, -27733, 72929, -52265, -81558, 51898, -106665, -9572, 146200, -565, -52557, -2692, -2382, 7533, 31056, -48728, 79135, 11494, 34082, -29456, 60323, -12054, 13015, -43757, -46750, 32273, -20802, -40039, -30161, 32777, -29498, -5517, 705, -89912, -68987, 15769, -34562, 49554, 45337, 33725, 85336, -3896, 30429, -27405, 115001, 93020, 557, 18128, 63743, -6900, -30792, 40985, 3678, 8581, -39122, -80548, 11074, 42437, -10589, 67360, -33009, -49459, -3153, -3873, 36107, -36341, 64155, 92236, -1836, 58604, -49543, 50421, 49111, 40490, -730, -138536, -30093, -29352, -45874, 5732, -19647, -38669, -49651, -33553, 52591, -30998, -24147, -21416, 15897, 21395, -142775, 47908, 67357, -49247, -45595, -21114, -35452, 10501, -91280, -52424, 72179, -43528, 58309, 16663, -84843, 29793, -5518, -21359, 11487, 22257, 33182, 55253, 19139, -64509, -22211, 138011, 33974, 111105, 65437, 11339, 14134, -1715, -81492, 846, 56773, -28119, 19318, 39934, -42658, -21163, -47734, -38554, -60381, -42225, 66564, -42930, 5930, -23581, 55281, 61485, 40519, 14356, -10835, -55891, 91139, -35624, 31121, 49687, -26039, 48676, 35837, 81031, -22009, -60299, -23704, 9794, 2730, -18450, -89529, 22063, 92491, 21770, 28565, 26844, 18619, 43689, 18541, -14663, -37327, -11675, 14731, -14822, 14741, 20593, 39071, 60155, 3658, -61327, -16183, 2066, -86086, 65120, 6677, 17883, 64035, -29550, 26919, -5152, -8633, -36211, 78106, -17609, 32800, -87926, 55334, 49342, 4569, -10642, 18757, 107330, -82685, 36672, -42749, -934, -11624, -20085, -491, -53186, 48262, -84134, 25312, -15312, -54909, 9491, -73011, 1862, -66724, 21631, -43347, -21149, 13784, -36227, -2718, -70989, 29584, 82763, 130937, 4275, 36962, -83500, 70469, 36400, -22693, 58016, -11933, -21479, 22290, -49865, 47908, -49519, -49241, -42659, 35616, -28923, -63213, -28403, -1503, -55380, -54007, 99007, -40355, -15149, -17221, -19759, 29137, 44462, -14347, -57983, 59763, -4471, 81141, -105304, 9163, 89971, -16566, -10574, 13858, -26204, -14634, -15841, -29422, 57626, 21622, 11753, 37917, -12397, -36305, -28259, 84, -49670, -23459, -24203, 99628, -130075, -8423, 80924, 5714, 35331, 4681, -31294, -105132, 9635, -36371, -37531, -23399, 81823, 112772, 10186, -21795, -55205, 21972, 83607, -11599, -111560, 31421, 46209, -74366, 8276, 21160, -3428, -37082, 47641, -18916, -69646, -96108, 59126, 28918, 4125, -20646, -24807, -50445, -20233, -99419, -34517, -14581, 28600, -1872, 37277, 63266, 49622, 22064, 556, -45993, 34699, 78770, 16043, 89907, -71540, -54123, 40104, 12394, 61608, -726, -40703, -10016, -71873, -52924, 45602, 40928, 17023, -80708, -16807, -57445, 55172, -27373, -50915, 1397, -30019, 69578, -34458, -65615, -100958, -1444, -26351, -67007, 55767, 31290, -1323, 63978, 31069, -38587, -48733, 38358, 18587, 7960, -39695, 28509, -35428, -4783, 67853, -30989, -73763, -49358, 46626, 11945, -6044, -23873, 22760, -39818, 14334, -34291, -42095, -29894, -17604, -2290, 11041, -172961, -37874, -18362, 70578, -50645, 7634, 70108, -61570, 18475, -37622, -23664, -37661, -34320, 127641, 39600, 51665, 23071, -75323, 18521, 50314, -40019, 45268, 33029, 86849, -19591, -51471, -16958, 67319, -85741, -96994, 4192, -20755, 362, 44329, -25912, -87832, 95873, -46764, -49662, 51758, -18030, -2973, 22640, 50813, -15637, 71276, -100156, 35629, -39369, 64351, 6661, -31555, 31083, 41885, 30101, -48286, -22697, -191, -1935, 35158, -94486, 15678, -13598, -39320, -34818, -10060, -168868, -32886, -41070, 24984, -37774, -10087, 72323, 46629, 42311, -23441, 25465, -10968, -9196, 19212, -27995, 70013, -7509, 28997, 68259, 48378, -66069, 20863, 39893, 41823, -52207, -30811, 46639, -35722, -14054, 73899, -2241, -34081, -41155, 15602, -62516, -11599, 15626, 60922, 31304, -33485, 55260, -14045, -57947, -8068, 67441, 7749, 587, 76775, -67122, -60287, -75773, 17475, 7807, 72345, 11417, -18952, 84, 5520, -78395, 127098, 24379, 9848, 28847, 33267, -6591, -29601, 28110, 18087, -37979, 66544, 13756, 34224, 65272, 1026, 14863, 37985, -33991, 2535, 5887, -44833, 108683, -65993, -60873, 61629, 33448, -48111, 28478, 68833, -1419, 121869, -80848, 32536, 54703, 41798, -9583, -13620, 20828, 38254, 28252, 48772, -47779, -10681, -44081, -18106, 47608, 5064, 122245, 9070, 2799, 4979, -29909, -2712, 52886, 5345, -37208, -43381, -21112, 3464, 55972, -62861, -14998, 6767, -85989, -39091, -31883, -37326, 8998, -7529, -26039, 20069, 80801, 76871, -90166, 27061, -8348, 7276, -18677, 5514, 7100, -27149, -42034, -21041, 10985, 28089, 40017, -23174, 13311, 45135, 54659, -2759, -10360, 8963, -53914, -9079, 34916, 30103, -12674, 10210, -38671, 32989, -3649, -12940, -16963, -2949, -21003, 30863, -18536, 74700, 68709, -41808, 3269, -30512, -15318, 93901, -14423, 16892, 25385, -46923, -40099, -56555, -41546, -133649, 25538, 96329, 6932, -66414, -30142, -21518, -47718, 40337, 37996, -54183, 34002, 71598, 89218, 134361, -42298, 132438, -16610, -27783, 15338, -27295, 18713, -61903, -11196, 60286, -2676, 6640, 22287, 54897, -77620, 27411, -12574, 7814, 49705, -56000, -47487, -90760, -25752, 62389, -5655, -62843, -22775, -69771, -52764, 18233, -55047, 52176, -3335, 4014, -13054, 36242, 36725, 15712, 26485, -9946, 25426, -15844, 105, -12879, -21441, -32315, 21932, 61459, 54917, -58925, 60456, -14920, 28171, -42496, 6658, 14712, -69619, 28524, 63116, -8190, 63783, -8895, 39840, -104037, 113426, 70128, -13347, -92479, 13507, -67711, 20861, 19300, -44146, 52566, 37776, 45760, 415, -66379, 45856, -12679, -65172, 63402, 98449, -1934, 101249, 4282, -17841, -29565, 76769, -36584, 34480, -26221, -21586, 48312, -17821, -18982, 53121, 74908, 30232, -30705, -23944, 3748, 15050, -46325, 33906, 4010, -80456, -43561, -23640, -3417, 88595, 11169, -39427, 10346, -16511, 15229, 27225, 56705, -1139, 76857, 42581, -33174, 103628, 15334, -39162, 77511, 97435, -1549, -23618, -8083, 33516, 59923, 26752, 4770, 70247, -14670, 48344, -13508, 20212, -5325, -2619, -17697, 63065, -34370, -34712, 99461, 45855, -111847, -26507, -84971, -44581, -147177, -6424, -53550, 2809, -76208, 3888, -19457, 70432, 66184, 36828, -15316, 93102, -72828, -65818, -3929, 105700, -9488, -8593, -67617, 44358, 44698, 37003, -29507, -33140, -60639, 3933, -50664, -55213, -19868, -22938, -25228, 21873, 3707, -13513, 8582, -46496, 4937, 7062, -70483, 46692, -41334, 4235, 54604, 43408, 1610, -16999, 44432, 31639, -28997, -37276, -97180, 7223, -3878, 53280, 16837, 62567, -32702, 53372, -24803, 36464, -68407, 11026, -93069, -12527, 20650, -24430, -49259, 39678, -4852, -22958, 1965, 123643, 54092, 54517, 20424, 7807, -112361, -31840, -22536, -87921, -54276, -92889, -1797, 38395, 51901, 19451, -45177, -90602, -82386, -59507, -41682, -7491, -47558, 15896, -10892, 495, 53471, -55345, 19635, -655, -15638, 41513, 41220, -44384, -8542, 13187, -12802, 27434, 13186, 85936, -71761, -5741, -42603, 28329, -75835, 16240, -29545, -34428, -67832, -21809, 50856, -1181, 29434, 78061, 12368, -26204, 21911, -25524, -23654, -71273, 43436, -18101, 8539, -48580, 20443, -35730, -6645, 41165, 37082, -1033, -82914, 140344, 81870, 33889, -35321, -5327, -25483, 59267, 12310, -36772, -22075, 52577, 75035, 71669, 35500, -11847, -152007, 13935, -86, 6564, 2527, -62193, 26139, 29647, 31997, 44389, 28326, -19228, -3322, 4273, 5050, 46810, 30184, 97414, 103470, 3735, -179915, 58000, -25340, -37585, -18685, -20945, 28712, -73128, -50538, 16092, 29212, 30084, -36907, -45875, -23758, 11249, 69660, -96012, -10351, -62494, -77480, 45344, 25539, 21076, 43190, -22496, -20288, 102497, -11563, 34473, 299, -86672, -95880, -27151, 49525, 36966, 42865, -46286, 75774, -45247, 9980, -485, -8154, 62772, -33065, -63288, 938, -18749, 158378, 31724, -19196, -49525, -88174, -48076, 5390, 66933, 52600, 10743, -15155, 12606, -24321, 80581, -8872, -4049, -103908, -9165, 39226, -50070, -35204, 37173, -69246, 49604, -24954, -18221, -52703, 17728, 115353, 36647, -40530, 53254, -14850, 64455, 37828, -138015, -47085, 44286, 7112, -48008, -29711, -89391, -4144, 103668, 37746, 102717, 41379, 48182, 92572, 17691, -8780, 48425, 68176, -22507, -33837, 6511, 38992, 37425, -66785, 89642, -30067, -12430, -42329, 126535, 11352, -39905, 40513, 36068, -8803, 39419, -38701, -23115, -94267, -62085, 84767, 76973, 3085, 77981, -7506, -11414, 2650, -5858, -10091, 53618, 7040, 33411, 48365, 18203, -45500, -63441, 6977, -8031, 4098, -753, 121153, -62379, -93316, 15586, -17652, 14822, 27380, 60216, -70679, -26107, 20106, 36130, 102859, 44817, -2663, -41756, -26462, -27794, 30726, 12052, -62071, -20441, 41151, 16491, 26666, 17957, 76269, 11069, -18102, -42943, 11705, -114454, -8642, -9653, -63985, -43530, 37968, 10819, 4773, 14366, 4344, 58282, 5788, -68381, 76443, 17367, -27632, -58777, 18566, -5495, 73818, -16221, -39268, 42007, 43390, 7909, 31717, -1767, 10967, 54631, 29324, -7938, 63417, -110897, 96229, -79999, -29407, -1919, -6869, 47194, -49606, 12228, -27115, 13840, -3037, 4358, -25788, -23919, 13471, 44254, -28056, -40740, 28767, -1524, 38945, -42476, -83445, -24995, -35937, -3695, -29864, 34749, -13512, 7056, 7392, 9142, -1132, 23944, -37311, 65624, -11092, -61503, 8819, -39915, 31200, 103617, -36885, 15586, -82322, 21285, -41534, -29301, -51643, 34333, 47236, 1097, -40536, 74539, -35190, -101386, 21496, -51807, 46360, -17873, 28310, 65722, -56688, -26539, -3548, 72102, -30874, -27879, 22422, -27068, 7153, -72757, 103838, -63199, -15088, -1523, 89693, -62127, 93023, 35507, 19559, -46173, 26783, -33927, 59398, -45537, -5306, -26039, -46309, 34763, 25110, 56695, -83465, 49903, 117490, -21179, 88871, -12341, -64357, -14332, 49154, -39305, -28152, 27833, 144, 27415, 11153, 22491, -20272, 10867, -43488, 60419, -29744, 52936, -10955, 9472, -23211, -47644, -81818, -49488, -15189, 9936, 47380, -20903, -41358, -67654, 22512, 64863, 59383, 33291, 29944, 79608, 15573, 30299, -15043, -63871, -32068, -430, 2850, 90331, 3811, 55280, -20402, -14616, -62322, -34811, 24712, 355, 44218, 8500, -16528, 100742, -4403, 54537, -18814, 33276, 43518, 9777, -110411, 856, 57701, 24736, 20907, -80763, -33785, 19290, 19244, 56960, -6793, 19031, 768, -46281, -105783, 20212, 8157, -28989, -75929, 29531, -12470, 26114, 87412, -100420, -32807, -9818, 68222, -76737, 90780, 6371, -4502, -9288, -20458, 49150, -50107, 16198, -18016, -35739, 121266, 19651, 28758, 53355, -66652, 82172, -117654, -36050, -21526, 27279, 10257, -7823, -563, -45863, -70211, 34069, 32530, 74303, -37047, 32489, -13304, 55826, 47924, 9904, -15922, 45062, 30336, -32096, -62265, -13530, 71063, 53763, -52161, -54761, 59775, -53254, 23883, -28890, 75829, -36128, 53617, 8669, 11826, -92395, -103303, -10343, 11578, -52765, -51053, 26330, 26394, -6459, 36587, -55063, -16691, 77275, 3204, 5923, 108134, -65620, 37348, 78031, -15234, 40311, -46051, -32203, 18053, 37448, 52565, 73606, -3163, 55973, -16052, 42302, 9730, 20900, 19860, -75251, -52714, 4809, -79123, 38979, 40871, 15342, -52574, 64720, 95532, 6897, 23941, 9460, 24871, -5607, -1621, 42472, 109995, -65655, -4868, -55356, 74656, -27561, -67677, 29927, 81797, 31119, 9604, 19186, 66347, -40994, -5245, -21228, -54766, -15399, 51945, 26570, 30214, 6869, 24541, -37543, -14514, 9004, 13014, 15015, -6487, -17699, 148080, 42523, 19374, -10936, -21159, -6134, 13732, -88181, -73595, -29866, 9714, -11220, 69315, -69515, -35233, 71283, 6149, 41494, 96191, -32535, -4657, -12775, -91658, -14556, 41316, 25350, 29031, -17609, -30767, 59520, -23321, 13791, 7659, 68545, 45553, -60740, -55689, 27147, -3017, -21345, 47627, 8791, 2460, 36569, -17590, 73554, -36955, 30806, 67238, -64587, -16100, 53562, 54268, -8042, -34451, 44827, 55501, -54615, -56456, 10563, 29513, -14024, 31855, -33301, -99166, -19878, 2965, -12935, -54331, -85143, -24108, 42094, 58908, 55696, -38261, -54102, 23289, 29782, 18765, -94447, -40651, -1392, 22847, 35982, 6765, 15512, 3980, 32151, 14671, 3083, -12585, 3812, 22724, 12543, 17858, 62965, 12435, -30434, 41436, -64066, -50712, 15749, 24216, -58385, -17952, -28422, -22822, 44249, 33131, -897, -25602, -63290, 66598, 27766, -33138, 33745, -3293, -13464, 20409, -34772, -16120, 5696, -23421, 31376, 87648, -35372, -78084, -93869, -7056, -31098, 9747, 6218, -75181, -85107, 13877, 6351, -19968, -77710, 22105, 59644, 13036, -39741, 2089, -64062, 49612, 3838, -82915, -14100, 21726, -15618, -12938, -57417, 26567, -30409, -101124, -17410, 46010, -18145, 81501, 20116, 15886, -6021, -3202, -12353, -14175, 24894, -43885, -50453, -52671, 95928, 24870, 14279, -49591, 29231, -5466, 10043, -45797, 7516, -19875, -35902, 34425, -72109, 26484, 32098, -41250, -38468, -10459, 13226, -7168, 20331, 82673, -23809, -80431, 38731, 78937, 18418, -51009, -5810, -52452, 30146, -63367, -14074, -47097, 5947, -17179, 8289, 1048, -46268, 29397, -2287, -46356, 105085, 22342, -7187, 66364, 86370, -6816, 16291, -46331, -6902, -9335, 8667, 15604, 26252, 11144, -56776, -44008, -25623, -13235, 49275, -54535, -16761, 44690, -14062, 21591, -6544, 12042, -10714, 31281, -72453, -17037, 13907, 25027, 70010, -18337, 69378, -30904, 62305, 38334, -42835, 14398, -2403, 29336, -10470, -14408, 64202, -4629, 38754, -10568, 78156, -31810, -28799, 71490, -20865, 75080, 41822, -7252, -85032, -906, 4766, 54735, 74488, -32122, 37570, 35893, 50336, 23385, -91091, -7288, -54195, -9501, 45956, 14310, 53838, 16026, -60883, -118212, 6978, -10032, -45813, -79749, -34455, -9120, 31226, 8846, 75408, -48563, 41316, 2218, 32576, -20470, 50255, 13844, -31862, -564, -11234, 22939, -55324, -1376, 18537, 1549, 63163, 36297, -351, 10161, 13865, 18912, -85612, -14140, -69611, 59943, -2853, -9066, 42054, 19804, -52926, -3325, -15717, -81808, -32370, -8607, -5390, -69507, 54006, -4788, 1761, 18788, -36956, 21400, -17214, -42044, 26891, 69950, 33990, 43282, -24414, -74918, 69878, 96344, 72348, -15746, -54145, -49974, -78957, -5035, 75296, -6643, 14177, 64507, -18950, 95454, 93417, -6148, -27083, 32696, -16297, -54235, 60082, 57044, 7293, -59220, -57657, 5028, -23441, -15995, 47924, 34382, 64626, -46454, -16094, 35591, 21012, 71859, 19721, 86665, 25323, 49809, -15171, 670, 42718, 75639, 34197, -3900, 64588, -102790, -66694, 31964, 662, 28395, 3020, 26774, -38190, 26752, 46632, 57236, 94423, 11447, 12845, -71427, -24920, -9054, 49253, -28652, 37343, -76, -8308, 11672, -18343, -20119, -79944, -11628, -22508, -24196, 19549, 30886, 10888, 46679, 26990, -13836, -21705, 14669, 26906, 65550, 55859, -25392, -4783, 31467, 50082, 44032, -2995, -58806, -46844, 12785, 16048, -51521, 2090, 29600, -53985, 51817, -17704, 58974, -25016, -48142, -21484, -4462, -18217, -10129, 15661, -8027, -3100, -80152, 18368, -4183, 75513, -44060, -84798, 28984, 16250, -47289, -71736, 72094, 66313, -116646, -21488, 78040, -22324, -23007, -13260, -52563, -79943, 49358, -86422, 11595, 41575, -68053, -43342, 56891, 24989, -28947, 56378, 56579, 12617, -42212, -19388, 13430, -8844, 44031, -71737, -70072, 8482, -23050, -29405, -82911, 917, -2474, 30644, 3231, -6218, 55194, -61547, 25153, -78366, -39314, -56866, 36668, -3067, -633, -51899, -14054, -35802, 17982, -46476, 62359, -78574, -37821, 78650, -20405, -61660, 10273, -22293, -39197, -51389, 129819, -11796, -90297, 70046, 28655, -35942, -43757, 31582, -11579, -90316, 83810, -20351, 70133, 59951, -46941, 48450, -30549, -87537, -19911, 18647, -21699, -14399, 53626, 4994, -39545, 32921, 9270, -118247, 20087, 18374, 944, 41815, -31531, 15780, -73481, 19090, 91586, -46653, -35630, -33295, 6096, -49850, 19754, 39711, 25058, -82928, 46667, 43957, 38929, 17484, 10326, 48413, 90201, -44692, 50557, -4043, -6081, -72054, -13355, -46765, -21752, -51498, -21051, -19044, 4537, -75722, -67786, 16972, -37395, 50389, 10564, 28453, 66153, -14523, -26940, 40877, 23893, -8785, 65251, -9953, 1537, 995, -43827, 3638, 65499, 20866, 1457, -7586, 15516, 35159, 28569, -15562, 15230, 22506, -47231, 7889, -101352, 22628, 30966, 35055, -18525, 14492, 66775, 66297, -1368, 6533, 52095, -70378, -15150, 62630, 45731, 17316, -70614, -2340, -27663, 15524, -37953, -48100, -96829, 57295, -18747, 7369, -105, -50056, -59042, -47143, -33912, 17192, -37314, 81899, 48167, 37907, -5611, 71010, -10223, -1466, 7971, 32911, 29867, -22280, -24994, 30007, 33540, -18446, -74429, -9722, 29239, 84663, -56177, -20004, -18261, 63579, -1639, -42548, 26199, -18975, -57416, -41865, 81316, 18017, 5053, -11718, 13700, 13141, 13701, 5386, 40741, 1083, -45859, -28719, -92804, 95045, 40458, -38925, -13217, -29866, 72336, -66583, 5368, -5089, 38774, -4877, -82449, -11776, -45588, 3732, 67254, -81568, -37525, -25918, -17896, 34707, -8138, 19499, -29345, 10782, 36474, -34340, 36641, 2456, 49026, -9445, 17878, -1904, -4512, 12142, 25173, -58597, 67228, -87207, -32113, -4421, 19337, 73913, -87142, -23808, -99735, 1483, 12740, 74598, 5657, 48958, 27378, -20410, -66071, 12896, -69970, 60737, -7600, 56046, -22519, 12607, 9817, -2112, -20289, 18404, -43431, -56715, 58281, 34100, 3090, 78085, -12557, 62027, 8233, -48054, 86662, 46458, -5675, 34100, -18931, 38882, -112127, -47822, 45921, -11707, 9732, -63156, 86653, 55828, -9411, -18978, 48282, 92965, 44725, 101844, -43253, -38424, -55754, 20716, 8235, -7126, 37949, 57789, -71544, -27994, 38460, -21934, -37431, 47763, -60469, -14142, 15411, -26909, 36725, -26677, 66055, -5897, 31478, 34984, -29428, -96296, 16917, 3390, 26065, -10623, -20184, 94185, -69044, 34418, -26945, -15746, -14870, -37676, 26787, 65212, 22041, 4848, -46258, 24236, 101119, -17852, -17631, -26312, -22950, -128737, 18994, -39651, -75511, 35320, -50740, -15881, 68767, -66083, -71869, 12629, 53904, -73827, 19118, 27245, -96562, 37445, 41107, -14621, 58727, 53293, 4836, -21170, -45620, -1761, 26718, -15202, -103049, 59495, 8920, -17802, 40195, 71496, -131392, 20364, -66901, 23405, 5999, 29812, -23412, -87843, -21119, 19079, 47616, -54952, 48163, -30381, 16997, -23911, 8543, 41823, -57539, -31883, 8674, 112619, -40478, 95670, 93995, -4563, -13981, -32454, -3198, -65966, -3575, 70194, -28656, -11288, -79773, 17541, 12403, 2987, -10168, -13729, 23536, -1351, 14770, 10081, 52682, 31747, 9044, 71204, 19708, 61195, 28462, -86374, 61189, 6339, -2436, 13193, -16178, 10646, -27755, 59755, -5327, -17941, -43373, 12604, 8774, 18215, -48172, -75085, 29336, 69620, -48130, 74535, 13314, -331, -18643, -64925, 46318, -36371, -36568, 46515, -88300, -71447, -850, 13753, 22731, -14152, 118659, -10687, -10822, -37374, 5810, 28838, 56440, -69838, -11536, 20948, 27529, 307, 25436, -37935, 73056, 46548, -63069, -50416, -49094, 31793, -60246, -15523, 21323, -3103, 12140, -49979, 27895, -28756, -15223, 11148, 4834, 1125, -35200, -14047, 102, -64483, -21690, 18180, -59904, 54236, 59537, -58390, 63664, -6733, 19626, -23290, 43285, 19043, -38179, -54641, -68479, 8813, 26845, 30526, -5533, -54256, -31985, 54038, -22726, 6725, -50441, 15784, -21463, 49084, 36275, -23246, -5940, -25844, -66563, -40209, 9295, 15253, 6966, -14149, 43755, 2980, 32978, -83179, -183936, 13308, -66813, -9963, -14166, 74439, 18757, 7778, 39250, 17280, -21462, 50246, -52040, 15158, -72571, 9564, 9050, 78615, -73387, -28178, 38579, 15724, 8455, -44837, -27706, 58385, -2415, 17602, -5402, -55479, 43790, 23598, 108120, -47624, 38574, -61503, 7379, 45792, -97170, -9610, -26411, -32917, 18064, 52553, -6250, 9636, 5360, 85, -51083, 51979, 13843, 18517, -37820, -21535, -8260, -71941, -79158, -28171, 24503, -30628, -47776, -38204, -21353, -16594, 101549, 49455, 48055, 54799, -46838, -57321, -51905, 62580, -25660, -58681, -20211, -11189, 12587, 11768, -38836, 32153, -29974, -7328, 32205, -30097, -26699, 27746, -40222, -18044, 26061, 96324, 28390, 22164, 24891, -50326, 5421, -1396, 15080, 5463, 17806, -14606, 2748, -57577, -15002, 65221, 14950, -981, 88916, -63815, -52027, 80315, 2155, -11376, -56235, 20994, 25532, -51325, -6578, -15734, 12004, -52486, 58709, 42946, -17031, -10149, -6397, -36498, -20794, -12674, 75633, 44390, 43829, 17347, -52396, -1946, 45510, -59005, 29850, 108916, 49793, 66309, 10239, 45390, -33663, 37321, 30687, 13595, 61713, -25266, -8772, 4477, -48282, 10642, -80607, 49096, 2187, -24427, -39127, -11000, 32275, 25686, -33085, -39674, 30804, -33874, 2809, 5803, 14634, 40248, -59225, -89621, -26610, 84480, 94827, 85871, -9050, -83570, -109874, -28795, -9288, 60991, 40695, 10664, -41728, -45055, 11917, 32687, 18377, -48516, 30512, 19973, -50208, -36780, 32286, -10997, 74521, 23500, -22820, -479, 2972, -34157, -42795, 32891, 39638, 28314, 71059, -25406, 78513, -42248, -47489, -82531, -20905, -23621, 24663, 11437, -55943, -18416, -17419, -83282, -46000, -36146, 67228, 8978, 31052, -70277, 56001, 61014, -93710, -33075, 23248, 30218, -31817, -14326, -28013, 5178, 56140, -36157, 46932, -36656, -39748, 38387, 43233, 39926, -61703, -21850, 38593, 1948, -50349, 21492, -33520, 84152, 72443, 28328, 63823, 3038, 35894, 69296, 11512, -11967, -79936, -3898, 38613, 44344, 23652, -25384, -92701, -23222, -14272, -14674, 29006, 93116, 5793, -10163, -12156, 5833, -38842, 5637, 21140, 9833, 21456, 20340, -83091, 29865, -31466, -51388, -51792, 20330, -10437, -78874, 22417, -67509, 6557, 11184, 41528, 83550, -63995, -2461, -12958, 20340, 10114, -16532, -20676, -52355, 46325, 21534, 43038, -14556, -30801, -50566, 16831, -48760, 86691, -61320, 12833, 73476, 28094, 8238, -45416, -64796, 36111, 70629, -20579, -53415, -115273, -45992, -5330, 74989, 31566, 14307, -18763, -27347, 65916, 9413, -98599, -31585, -40245, -25616, 26397, -5038, -3605, 61594, -32660, 87419, -31480, 4183, -13187, 5788, 20849, 20344, -35316, -52658, 117383, -22696, 32789, -75388, -13112, -5965, 22172, -127666, 7791, -53916, 15210, -48597, -40117, -12831, -49348, -22300, -55962, -85964, 47736, -60777, -8379, 35306, -28837, -38695, 10609, 52424, -54834, -7041, -81243, -18439, 1604, -40077, -21430, -66037, 3615, 49505, -51449, -29199, 23566, 56839, -70021, -7915, 13277, -4786, -116146, 23498, 71247, 5471, -48352, -24062, 82998, 42672, 30013, 16714, -31003, -9406, -3654, 25772, 70759, 52443, -66560, 10504, 34550, 29021, -29507, 136653, -59887, -50795, 10954, 99265, -39212, -12466, 50518, -838, -15691, 26525, 12779, 48321, 60562, 14397, 13680, 10040, 22937, 2587, -29, 56114, 71096, -70695, 470, -32295, -14583, 18875, 31392, -5258, -89724, -45255, 42040, -128509, 55683, 24442, 61720, -9312, -96667, 20181, 59773, 43364, -31076, 4069, -24987, -38418, 44802, -56157, -41914, -51772, -69883, 6866, 54467, -8670, -70610, 39388, 79049, -30305, -22441, 24181, 76056, -24377, -62484, 29610, 37471, 288, -26173, 46630, 24762, -36035, 2302, -63387, 32164, -12297, -20432, -1542, 1890, 41967, 27718, -7335, 35811, 18792, -20005, -5849, -6951, 23694, -17211, -18308, 92322, 44068, -35667, 26774, 5550, 18361, 6440, 55787, 16207, -2912, 48872, 10940, 5697, 14726, -4390, 433, -27512, -35225, -46827, -65275, -41253, -8172, 4836, -12722, -110468, 73838, 50949, 20903, 89449, -45832, 88518, -45263, 11195, -59735, 689, 18109, -7254, 33476, 4643, -24498, -26580, 38027, -30656, 42927, 57338, -78252, 53127, 96621, 11817, 28093, 48629, -12918, 8548, -61628, 6501, 23358, 24205, 49962, -36333, -24976, 88887, -7049, 9380, -3142, -38532, 76133, -24746, -52863, -21137, -93867, -30541, -45399, 28954, -31579, 41632, 65580, 36632, -10100, 6617, -71512, -6273, -40349, 32560, 120646, 23439, -93372, -16939, 5744, 4097, -34271, 11503, -58266, -44310, 30284, -47628, 25239, -64219, 82759, -36308, -10489, 15504, -26511, 6725, 26981, 45047, 37116, -8057, -6876, 110158, 44544, -43228, 4689, -15716, -6346, -57656, -19317, 84951, 27155, -116820, 57057, 51097, -16848, 33635, -40300, -22052, 70272, -12742, -87679, -2969, -3685, 56196, 672, -19770, 49007, 5664, -35171, 54162, 9082, 137, 8343, -50208, -24744, 168, -9129, 59669, 10195, 40090, 441, 49533, 18642, 629, -623, -44757, 23771, -1885, -23540, 51886, -58627, -19812, 48194, 14796, -2244, 11770, 8413, -71122, -16378, 75805, -30918, -14926, -25399, -4080, -27345, 22825, 9253, 36275, -49283, -15960, -10585, 21367, -37197, 42938, 55635, -46372, -23019, -24944, 123442, -20160, 78670, -59397, -46408, -32197, -39658, -12563, -33237, -38422, 54325, 57388, 44516, 24572, 4349, -23308, -44697, 17022, -55036, -46609, 54064, 89129, 18443, 51886, -11529, -62729, 28707, 26696, 3361, -11366, 45122, -46225, -36285, -47274, 3985, -51015, -32087, -33096, -12221, -69749, 4089, 58491, 6354, 72278, 62556, 36471, 3502, 1055, 35817, -18367, -88278, 23072, -53040, -45118, 11, -4461, -66218, 7761, 45306, -52912, 59672, -73162, 99289, -19286, 6829, -88725, -2914, 10714, -4040, -26405, -44388, 53015, 1445, 72252, -24689, -20389, 38246, -76107, -56904, 51465, -54956, -85302, 87622, -65361, 8634, 3240, -131801, -12535, 21028, 16615, 42369, -18171, 33412, -32325, -66142, -60855, -68564, 47343, -71024, 12851, -12470, -4814, 63945, -20560, 28680, 1761, -7129, 107854, -67590, 60452, 30781, -22487, 76405, -86665, -24468, -56670, 19324, -52196, 20308, -8743, -22479, 18225, -12597, -51050, 131367, -22845, -103992, -39489, -59427, 38741, 15083, 18697, -17352, -13100, -17394, -3807, 39172, 15760, 23452, 23426, 41475, 13512, 16828, 55748, -31186, -40129, -55612, 8578, -86928, 21672, -5120, 53208, -31509, -9534, 52624, 64860, -31895, 8524, 13806, 17522, -12313, 60089, -88615, -19748, 21005, 21441, 63436, 56189, -13390, 60956, -33484, 43653, 84902, 56973, 4960, -15558, -71681, 14562, -52297, -37193, -55839, -21590, -1312, 12831, -28160, 50143, -9764, -36939, 10612, 92078, 15717, -17016, -71628, -10289, 11017, -18175, -78096, -39886, 68209, 67246, -41578, 31548, -55268, 65854, 11500, 44532, -80427, 31777, -360, 39950, 42902, 3085, -28175, 36563, -2821, -40928, -43149, -69270, -23929, 51709, 8339, -24843, 37743, -39038, 4471, -8424, 36536, -73962, -39869, -76823, -12173, 56808, -23702, -23948, 40878, 50108, -4153, 32109, -50502, 64618, 100761, 24442, -97742, -26178, 28738, -19765, 59658, 27581, -33129, 1513, -41915, -8562, -26007, 55089, 99228, -67114, -90187, -11497, -71204, 2167, 35120, 70066, 9444, -9058, -92774, 1228, 3343, 29963, -33224, -20401, -69309, -107447, -51982, -73638, 15790, -24297, -25240, -46163, -151587, 70730, -46906, -19340, -68225, 45577, 6726, -38751, -18393, 78696, -3422, -8522, -44145, -88844, -7505, 15263, 51564, -105440, -52760, -27233, -163, -6801, -5706, 19137, -42359, 43805, 20326, -14998, 75073, 72986, 43747, -141551, 74043, 37269, 94088, 58029, 74014, 41203, 63245, 93512, 10155, -73728, -14418, 18286, 3512, -58456, -76487, -34756, 37878, 74108, 42981, 49587, -3790, -81693, -21347, -12134, -23309, 2565, 20700, 40001, -13042, -89274, -22644, 2050, 57342, -26627, 24035, 13603, 2059, 43636, -30989, -26973, -558, -30019, 23823, -33444, 10612, -4697, 10079, -21559, -15901, 4502, 9476, -197, 79971, -46459, -3011, -73793, 17448, -52298, -13051, -17447, 13172, -25922, -27916, 67333, 13344, -26310, -11763, 77157, -11028, -32323, -32122, -25751, -27878, -60007, -52718, -38890, 27741, -17878, -9715, 59559, 60728, -13230, -29584, -40536, 32487, -9599, -18124, -38156, -36093, 15009, -61686, 46653, -25034, -7017, -62696, -580, -15396, -2348, 69014, 8333, -37265, -33356, 27908, 60901, 13220, 32296, 28593, 66545, -91424, 31288, 46131, -62778, -41532, -39896, -34176, -22590, 11377, 40595, 50707, -39289, -39611, 61704, 30328, 3886, 22197, -1398, 24600, -15759, 12605, -70835, -32253, -31748, -17557, -43448, -25020, -71017, 25731, -3869, -79964, -39148, 15785, -25464, -32682, -3498, 16113, -67356, 25798, -37529, -841, -1661, -24716, -48003, -13397, 76218, -63854, 79359, -12179, 1659, -50960, -36168, -23583, -49037, -9797, -19086, 86790, -54677, 4816, 11622, -50191, 32208, -18679, -116877, 30943, -52378, -49134, 32258, -16280, 43038, 56749, -30243, 37199, -35426, 104719, -32495, 48117, 39568, 14823, -31444, -7100, -100990, 10524, 16395, 6260, -139429, -59350, -35081, 13677, 13568, -7982, 29789, -48124, 28616, 22262, 17705, -8537, 85850, 23128, -45409, 11644, 35287, -27579, 51080, 17915, -109848, 14053, -19040, 25190, 44278, 9152, 78090, -8380, 29300, 37747, -4565, 36520, -27886, -19816, -61548, 11321, 15252, 55300, 37100, -13355, -55249, 20298, 52087, 35413, 50855, -9936, -21882, -34556, -2621, -3685, 9692, -6063, -6266, -36422, 44156, 3588, -8180, -35050, -62458, 61335, 26009, -76152, 35787, 43259, 5832, 74941, 10163, -66440, 17124, 11484, -28291, 26896, -78203, 46451, -41178, -46188, -5338, 20304, 7687, -34826, -23732, -53133, -10536, 50412, -200, 40301, 68249, -27574, -8749, 101815, 67731, -78425, 18155, 26, 38755, -34935, -39372, -31703, -26820, 38234, -55391, -29197, -83893, 47228, 59603, -15338, -13972, 21253, 69144, 19161, -32710, -75913, -52292, 3434, -30731, 9143, -25929, -49620, -55195, 73265, 41688, 81150, 25320, -20164, 62056, -1551, 10356, -2008, -138191, 75252, 23025, 15467, -2897, 7664, -28009, 28914, -61295, 8725, 26334, -9316, 17391, -46487, -45291, 11101, 31820, -87919, 24480, -25473, -9041, -62815, -39936, 45305, 1541, -17950, -5463, 22941, 20656, -3518, 51253, 45509, 19385, 2561, 30824, 14737, 49745, 42184, -47750, -50925, -32884, 45775, -73919, 18512, 17001, 54521, 8457, -62988, -44988, -55428, -25226, -8577, -54652, 68965, -62147, 63124, 55577, 42125, -32533, 16059, -59901, 42716, -3469, -19195, -57386, -116180, -48701, 52183, -18890, -7940, 30741, 84675, 62134, -45596, -91094, 110651, 106402, 8837, -59578, 45169, -5064, -5298, 41945, 15680, -55607, -15228, 31004, 23928, 12287, 43772, -16962, 8378, -158294, -21086, 35822, -18307, -21863, -48838, 47052, 25719, 38707, -80949, -7524, -13135, -13157, -28888, -16230, 39843, -89701, 83344, 22689, -1985, 42525, -68082, -31170, -5678, 64036, -2180, 21105, -27648, 22830, 78652, 46684, -3820, 31676, 27082, 23756, 52144, 51793, -5963, 30100, -17965, -43286, -12638, -3577, -77918, 40344, -129770, 127308, 70429, -12240, 442, 14207, -27628, 9033, -6753, -4421, 8509, -61596, 1856, 7665, 6042, -10121, 53358, -16584, 10660, 60835, -3722, 10057, -4520, 58025, -12086, 60181, -4858, -40303, 31858, -14287, 29098, -127992, 244, -21553, -49860, -25944, -26903, -2250, -64119, 14831, 64067, 13174, 37937, 51328, 57984, 87698, -23409, -33692, 36740, 33213, 36374, 88596, 533, 19984, -45974, 100133, -15782, -14453, -16260, -30242, -34206, -24558, -64047, -36826, 91394, 34498, 43419, 55204, 86009, -83069, -57674, -37690, -22027, -14095, -20960, 10284, 1655, -33896, -102020, -46559, -25756, -11586, -52974, -23016, -53036, -5900, -50321, -39808, -61369, -7198, -40631, 42523, 19032, -3276, -37397, 17844, 32390, 6691, 75204, 21554, 42842, 6263, 31684, -37364, -21496, 16383, 16042, 23804, 51602, -66822, -45696, 10766, -33968, 158396, 24184, -3673, -24172, -22517, 1413, 5251, -21416, -12809, 63039, 64925, 11819, -62897, 25252, 72886, 64234, 34440, 66703, 2503, 29454, -31924, 13705, 62347, -27640, -40396, 4572, -10629, 30441, -21255, 80584, -60478, 58792, -35867, -84220, 11155, -11940, -52034, -78846, -392, 45761, 27431, 2659, 22455, -1276, -67045, -66631, -9527, -7534, 39906, 35513, 28377, -13144, -64744, 19324, 24627, -112007, -39125, -32406, 5550, -37673, -1788, -9873, -7463, -33594, -29964, -50658, 17823, 26781, -36137, 71309, -14753, 71756, -30112, -95034, 18861, 11655, 1613, -30117, -1621, -23975, -14178, 39467, 8639, 28603, -10873, -16038, -54091, -17352, -155739, -27678, -3839, 26433, -12599, 16304, -102218, -2665, -78758, -56662, -8777, 59849, 17407, 855, -916, -33465, -25509, 20041, -64965, 27811, -18219, 38713, 45069, -78457, -27272, -40119, -85006, -48419, 114480, 28582, 89909, 38880, -34788, -17903, 27594, 20516, -27074, -70809, 154175, -6619, -15275, 5315, -11382, 5755, 60350, -5841, -54524, -7580, -21778, 66772, 54918, 5042, -59965, -57487, 709, 15771, -17567, -22517, -27799, -1097, -111737, -51645, -29405, 56624, -38163, 8463, 10623, 60864, 59207, -2697, -22297, -31130, -11304, -20353, 25962, 19710, 27752, 59053, 87357, 5846, 51558, -16491, 55569, 49778, 47288, 4411, -31342, -65395, -1877, 71889, -14530, 36818, 39576, -13303, 61728, -136398, -57339, -42937, -38440, 15769, 13601, 18476, 27952, -44554, -57125, 18585, -29554, -73645, 45550, 65422, 73021, 8769, 29352, 64238, -30078, 52084, 12914, 42847, 8727, 60786, 10482, -69589, 68086, -44433, 58761, -4232, 55148, 53214, 20171, 23847, 19819, -94436, 5549, -52336, 8028, -53597, -55567, 75261, 50150, -194, 8664, -11626, 26724, -31703, 46600, -11868, -19688, 1018, -27721, 15413, -25199, 21971, 57023, -33732, -6123, 21634, -20439, 21774, 26045, 50798, -28417, -44210, -14423, -45382, 26471, -54479, 109404, 60771, 590, 40675, -76756, 118330, -27677, -5651, -87032, 22804, -51881, 4767, -25523, -50539, -37720, 10588, -60094, -35115, 31103, 122040, 22396, -43014, -17215, 1481, -16386, 42348, 10198, 42573, -14745, 62158, -7807, -45543, 102103, -85580, -34642, -29404, 117624, 84730, 70056, -15506, 113773, 17273, 45828, 8427, -2320, -11807, -9831, 28534, 17219, -1476, 70787, -139122, 23911, 33657, 53785, -3042, 9750, 46235, 69926, -14093, 12519, 78715, -99604, -32357, 68739, 51233, 24499, -21036, -41352, -27724, 72592, -29470, 4756, -35344, 39521, -25263, -4577, -78940, -75657, 360, -62142, 98715, -96673, -37523, 783, -17122, -51778, -44921, -46455, -13445, 91533, 3655, 55471, 23774, 52233, -131301, -14277, 61296, -26811, 82649, 69585, -21999, -23595, -47532, -29524, -57801, 20109, -68279, 28311, 29453, -77900, 72677, 24085, 35156, -35577, 29186, 52821, -4624, 93878, 2066, 53496, 13740, 27457, -78375, 17400, -34466, -39691, 81788, -10024, -47049, -16841, -60983, 67240, -32623, 24821, 63593, -23454, 24949, -48305, 114691, 43910, -9032, -36241, -5346, -15943, 91581, -57470, 6321, -860, -5506, -5093, -5443, 40941, 28558, 19644, -142275, 14059, -77639, 30308, 69145, -43435, -12276, -28106, 57934, 4456, 81048, 19402, 11369, 3198, 38359, -81487, 4002, -3285, 34018, -8802, -48710, 345, -50778, -90283, 34097, 27154, 21904, 61099, -31186, -67110, -3284, -16296, -39498, -3744, -28680, -86097, -20688, -53289, 10863, -30764, 52129, 75211, 31859, -72733, 70584, 73891, 881, 62037, -25870, -87515, -35653, 81093, -69922, -22, 1601, -24055, -20798, 3388, -26362, -66686, 10084, 50334, 40778, -37972, -58675, -13327, 73520, 30275, 33012, 41729, 19731, 5656, 31058, -25612, -66329, 33904, 58042, -52438, 38543, 78817, -105, -38359, 5769, -25817, -28921, 20314, -75205, -67711, 905, -1046, 16111, 87936, 4901, 28051, -45746, 36011, -24684, 3349, -5104, 48440, -61430, -107070, -10009, 21971, 7140, 57783, 20510, -26441, -109048, -11128, 48205, -18385, 1328, 19759, -47611, 29226, 76771, -8104, -52946, -3123, -104310, 15799, 21209, 78577, -9097, 19155, -40389, -16714, -71522, -9134, -14317, 14031, -29243, 3908, -15633, -15545, 3768, 1900, 35694, -5657, -16407, -8479, -33513, -16878, 95249, -42799, -13067, -18171, -11591, -15533, 13095, -80197, 48637, 29664, -58283, -106406, -45819, -11380, 121000, 25475, -84765, -32341, -2495, 11896, -61653, -6330, -33653, -51759, 12173, 36290, 39440, 26935, -23324, 33508, 14493, 6281, -28685, -23300, 3465, 114415, 14126, -28661, -39034, -23061, 102101, -18723, 42527, -17629, 12248, 37128, -26819, -30064, 77791, 46171, 37078, 36918, 21551, 94621, 2059, 27070, -68039, -38685, -56311, 59746, -119698, -18866, -140386, -38982, -23022, 64942, 18599, -39069, 49987, 836, 1762, -56398, -46425, -38692, 2179, 3652, 72408, 18057, -126968, 12316, -67997, -45298, -38086, -31106, -64486, 9542, -66158, 16725, 104900, -62339, -13342, -118334, -14112, 30139, 33793, 3628, 41701, 119394, 80296, -24503, -68048, -19046, -44408, 21165, -55391, -3415, 39298, -4722, -44376, 55091, -88112, -15372, -1954, 746, 8464, 28626, -1660, -17260, -19113, -28676, 36931, -30318, 39708, 891, -24444, 28999, -34113, 29927, 9976, -27964, 24790, 25632, 54280, 45306, 23038, -52877, 114823, -65821, 44515, 20225, -55060, -5829, -3693, 61224, -33450, -12284, -109547, 81350, -50198, 15330, -4755, -4596, 37977, 78372, 11793, 30719, 15423, 47716, -21708, 50429, 52075, 50764, -30957, -7894, 11230, -64284, 74792, -576, 13314, -27058, -62222, -28325, 10279, 31580, 7587, 16259, -15804, 23271, 69536, 33050, 37962, 13788, -70489, -48988, 21331, -513, 20626, 78614, 34047, 59034, 4440, -37853, -2714, -37738, 73074, 37064, 24409, 57958, -94728, 27580, -61461, -340, -14617, 31031, 10701, 63078, -28225, 33253, 7607, -76685, -43077, -7028, 52160, 21746, -54748, -6580, 94622, 5216, -15350, 23060, 35798, -21391, 23568, -15423, 33732, 7958, 22601, -35601, -38513, 44338, -3723, 13366, -14368, 42145, -28502, -6359, 36858, 55005, -24561, 91897, 14689, -48907, 17306, -17960, 20355, -2010, 3483, -42748, 46428, -54215, -51994, 17227, 75163, -16534, 32871, 50333, 38204, -14594, -51163, -103520, -12326, 55245, -52716, 32835, -44556, 4974, 33191, -30926, 7995, -19465, 33067, 11035, 2650, 73077, 31058, -32373, -4026, -3559, 3766, 118384, 17391, -95471, -25454, -90616, -15465, -93192, -40872, -71312, 18015, 25, 14207, -4903, -65384, 24081, 90140, 19190, -19973, -66967, -42583, 21245, 50323, 12233, 37510, 33186, 23753, -30878, 8156, -39784, 817, 15515, 78724, -61418, 22580, 69461, 35585, 39060, 27559, 60884, -50996, -64991, -297, -101345, 57710, 57244, -20321, -17387, -3393, 2439, 5964, 26178, -8095, 44230, 20912, -28463, 62608, -63694, -4322, 45342, -33908, 14516, 25479, -40353, -3399, -7339, -25873, 107934, -35785, 47125, -18420, -50956, 4821, 30438, 43166, 73260, 138114, 11748, -31095, 21237, -12484, 43422, -60829, 111060, 40143, -78969, -33249, 38269, 55163, -59660, 33436, -91318, -4189, 52148, -25863, -70665, 6857, -28358, 29522, -41516, -36232, -94772, 7969, -7545, -55728, 9088, 48163, -10109, 12575, 12817, -56476, 96441, -22080, 30768, 36071, -6546, 28455, 11527, -66478, -15582, -28725, -21653, -61150, 52823, 75123, 45862, 59580, -16161, -29836, -36511, 30203, 10648, -3621, 60734, 18989, -39328, -31930, 31981, 48851, 25870, 88952, 76672, 20682, -39324, -61430, -18166, 35321, 85658, 19576, 54806, -11503, 29204, 38610, -92831, -19388, 44535, 12871, -56109, -113958, -17153, -3357, -41450, 6710, 23746, 31451, -110478, -61632, -14285, 26831, 22942, 22128, -17980, -15364, -34154, 36023, -43165, 39861, 9747, -2112, -30796, -63566, -30371, -15475, -111092, -9255, 43347, 26599, -23269, 2201, -26081, 6976, 72221, 45417, 24422, -23113, 35167, -79104, -11834, 27372, 34721, 31413, 13826, -9178, 25228, -44683, -39610, 2895, 8122, -85610, 21344, 36236, -3624, 111348, -32025, -16933, -18526, -3573, -15415, -65971, -25630, -4578, 57612, 103271, 62625, -36360, -32629, -7472, 83685, -7757, -62252, -23502, 35501, 32354, -9389, 32048, -106598, 4869, 40361, -39056, -39219, -87525, 74556, -33771, 11303, 28320, 70907, -7217, -25296, 8116, 60215, -7980, -44777, -72252, -57271, 40535, -15035, -28489, -33574, 3988, -11229, -12808, 63275, 72123, -75500, 15362, -36430, -11641, 14503, -9975, 10807, 31558, 13814, -30333, -29506, -67513, -40044, 92009, -37140, -55962, 15003, -5175, -9172, 66075, 25751, -24853, -19905, -23568, 41020, -14450, -84088, -2266, -72077, 102427, -45284, -7590, 12108, -13536, -13601, 19781, 71570, 35991, 69333, -49080, 14882, 7280, 16464, 64537, -10354, -19016, 25040, -83387, -11107, -6293, -43159, 49569, -49812, -6372, 13747, 63468, -495, 43900, 32854, 5789, -51091, -67273, 4994, -25449, 43108, 34976, -8657, -54289, 23950, -47735, -35567, -45928, -6495, 54875, -236, -20784, -71542, 25891, -36596, 5511, -16611, 39305, -7373, -2763, 22779, 98802, 41663, -4155, 150, -24613, -44549, -25921, -36209, 30639, -50232, 62519, 35266, 961, 15, -26133, 12665, 51025, -32974, -71906, 32977, 15211, -52530, -34391, -40287, -33976, -15179, -12499, -30518, -35553, -10729, 7864, -14832, 54334, 23826, -74601, 24560, 28396, -20386, -70115, 378, -361, -52598, -68053, -4106, -10930, -19567, -3911, -51713, -20390, 25010, -16411, -78405, -22166, -50184, 12527, 14951, -77786, 35593, -52155, 73116, -2287, -58448, -53552, 16323, -18350, -4532, 75629, -32790, 2812, 66582, 12685, -75340, 23700, -54538, 65970, -38587, 139251, 68811, -37356, 939, 35341, 36749, 20743, 58718, -5766, -17197, -16266, 40252, 17125, 13659, 37292, -96182, 14540, 10250, 78257, -71681, 73022, 3536, 22931, 78590, 26296, 18775, 11362, -22672, -1336, -33553, -2090, -109541, 20119, -5709, -15766, 10305, -67225, 90471, -4819, -6839, -45271, 1123, 65040, 48578, 40068, 25623, -16813, -68004, -9427, -11061, 49182, 14508, 75607, 56155, -21407, -84180, 64975, 63747, -64067, 70774, 17919, 7535, 75723, 63057, 30543, 22191, 28905, -18760, -2584, -42313, -15617, -17193, -29792, 6413, -15193, 23552, -76077, -5316, 6169, -14567, -8084, -74338, 16717, 30369, 23144, 48710, 9450, 22447, 7320, 32242, -73962, -41903, 74416, -115379, -6573, 54972, -4373, -18992, 6069, -16559, 1447, -32046, 51990, 66742, -6255, -65018, -24565, -8628, 23707, -47270, -36069, 23948, 44029, -29149, -62520, 154005, 36732, -12521, 40752, -5836, 40664, 7475, 4280, -5326, -67873, 90885, -44152, -63777, -9982, -45087, -2425, 32252, 46673, 38206, -14332, 2326, 19127, -82429, 26757, -68338, 95679, -18969, -8669, -36094, -29542, 106641, 44097, -72648, 70538, 55956, -13187, 14382, -701, 92502, -37341, 6847, -20077, -67201, 102774, -55408, 10323, -81628, -18714, 19788, -38675, 27517, -12616, 54401, 63858, -27515, 3598, 8603, 29044, 674, 8920, -11414, 5404, 60865, 30297, 32885, 33907, -7213, 14951, -50888, 59499, -130503, -4087, 53501, -63957, 18747, -31924, -17295, 44359, 9288, -95399, -45788, 45737, 21053, 81977, 78906, -16049, 117386, 1148, -45143, -29714, -105826, 75359, 74784, -47621, -10686, 4483, -45035, -82303, -9864, -15057, -18214, 10444, 67036, -14213, 7993, 34086, 25986, -28813, 4519, 25676, -52913, 59252, 67133, -33894, 9082, 30119, -25586, 22585, 7656, -68836, 21532, -51590, 44043, -31476, -7563, 64351, 23277, -50621, -47593, -28104, 18506, 16802, -39536, -54735, 13205, -8528, 101160, 1716, 85077, -54884, -73774, -52525, 55763, 82350, -36679, -21598, -54818, -84955, 33689, 10458, 492, -65654, 76904, -23604, 25024, -68210, -8934, 13664, 15338, 7252, 23190, -53014, 9256, 5335, 10864, 3393, -59706, -61797, -103835, 38337, 38812, 39557, 14387, -100030, -48146, 7991, 6355, -10445, 17300, 546, 5663, -29968, 46050, -20200, -62399, -36155, -16341, 46613, -1982, -8729, -58555, 36834, -30572, -4691, 69411, 23858, -76355, -82979, -3016, -56870, 30413, 1982, 7756, -33142, 81660, 133300, -13064, 16555, 4568, -12178, -39019, -50878, -53252, 19003, -24369, -120906, 20861, -1794, 63151, 17497, -69341, -104558, -33739, -29314, 44228, -416, 53163, -62126, 45265, 33810, -94643, 62023, 4383, 18384, -40558, 59801, -55609, 39020, 38481, -45682, 93008, 10857, 30663, -71612, 99308, -57424, 48061, -46649, -29027, 36988, 48186, -59615, 51136, 49003, -43984, 74967, -68318, -29298, 22462, -40027, 12371, 11305, -8773, 39034, -10709, 10858, 53762, 37078, 36859, -53889, 24609, -41196, -60090, -3363, -42406, 37075, 38197, -89221, -38842, -68455, -21694, 21345, -11362, -27656, 60970, -108083, 58002, -25524, -3663, -24730, 72352, -57725, 550, 24734, -75546, -43137, -6949, -41579, -38246, -16406, 30461, -16071, 50571, -46789, -58707, 90334, -30854, -61474, -81691, 50416, -16005, -11897, -7466, 47501, -8419, 109921, 6273, 49791, 37761, -1709, -27525, 15567, 23920, -26851, 7800, 57970, 97068, 40065, 87352, -29514, 32914, 62768, -42032, -22771, 81497, -45726, -62891, 71653, 56121, 20264, -2144, -20564, 13222, 74083, 11187, 101617, -42108, -923, -17494, -50886, -7179, 19570, 24583, 101781, 21781, 53934, 3099, 78690, 112472, 24905, -46549, -25736, 13221, 21407, 32752, 21580, 328, -29834, 18811, 86987, 47828, 25074, 48280, -17401, -23834, -35066, -5875, -19789, 56661, -22290, -37643, 91095, -21167, 7200, 21164, -53304, 57936, 29877, 73078, -31851, 4648, 1846, 12375, -68212, 5198, -66892, 16804, -99820, -86828, 38385, -25643, -46324, 59595, 15364, 40896, -7796, 125658, -28348, 81806, -2878, -77586, 22643, 14760, -49300, -43246, -1158, 16401, -115859, 49385, -23189, -62451, 44130, -1108, 57031, 20537, -71, -7162, 22636, -19392, -39980, 28601, -6776, 1574, 51085, -5340, 705, -28120, 20199, 16405, 42241, -27158, -21469, 37146, 11827, -42496, 61269, -79647, 36778, -59331, 88432, -72432, 54033, -3828, -17191, 8694, 29632, -42411, -38255, 30462, -80064, -27397, 142589, -45394, 53825, -27477, 23871, 30685, 52941, -9391, 93266, -27636, 10983, 11502, -52613, -13406, 7574, -20264, 114464, -39326, 55308, 40163, -650, -40573, -36026, -24289, -83740, -47056, -69519, 63113, 29002, 36857, 27613, 7830, 68497, -28641, 5002, 35032, -61956, 145211, 1340, 6658, 58940, 42906, 1786, 6102, -70535, -26095, 24254, 20816, 57265, -5651, -65055, 49554, 67344, 42122, -7673, 48975, 160794, 5400, -61512, -27493, 29331, -75255, 7944, 17835, 71988, 61440, 40544, -101416, 43192, 33084, 12002, -81137, -36426, -54717, -94491, -137, -37413, 123110, -7914, 60669, -73581, -24858, 4544, -42587, -19799, -10221, -10969, 86993, 17736, 22486, 25306, 28728, -3887, -15041, 7823, 54247, 52814, -11273, 36007, -9125, 1588, -22205, -8518, 62900, 4334, 6344, -67865, -14502, -11316, -38882, 1016, -20126, 3751, 5698, -44819, -18697, 3628, 55536, 12039, -31041, 18711, 80073, 42988, 25676, 34026, 67525, 50440, 26578, 50113, -50723, -70447, 7367, 3221, -25506, 38727, -87357, -25077, -22741, -76732, 70094, -63738, -27589, 42579, 30295, -51966, 32004, 13589, 109405, 18942, -6623, -40165, -34900, -38723, 64296, 843, 26507, 71009, -110597, 59971, 2598, 20401, -38847, -35411, 22924, 111823, 47049, 59345, -9004, -28146, -36615, -22897, -96263, -33994, -26277, -8223, 6178, 16997, -700, -27266, -92069, -26978, -45602, 21856, 42640, 44013, 35496, -6262, -24476, -35034, -70692, 46512, -8193, -58446, -38757, -40656, 2018, 50058, -16319, -105630, -8871, -7325, -10547, -29424, 10197, 3102, -1164, 19350, -20156, -22818, 64719, 26230, 38779, 57497, 24663, 43536, -74061, 9574, -8568, 78673, 43501, -29564, 17482, 7863, 21305, -47777, 16883, -10699, 13245, -33969, -27436, 55046, -49311, -45851, -2419, -36197, -41502, 4927, -70578, -47267, 96324, 21547, -35009, 19612, 26604, 46632, -5963, 45792, -95590, -49534, 7685, 15458, -42757, 12165, -29254, -12988, 48055, 42623, -46756, -49578, -19281, -1254, -30851, 48800, 16290, 19043, -59393, 54739, -132248, 39112, 43813, -20277, 59692, -2959, 2928, 15922, 149430, 63046, 32879, -42805, 6733, -38130, 38552, 6587, -52733, 3804, -39832, 7091, -40285, 1289, 35192, -2488, -18330, 9532, 32694, -51920, 12223, 61784, 26901, 2708, 30000, 21219, 35339, -94910, -72847, 47120, -70588, 18830, -16509, -46715, 16396, 9427, 98962, -29300, 67532, 16526, -30998, 37480, 26530, 1681, 12488, -27995, -38724, 35613, -10501, -3755, 13122, 12440, -67026, 60317, 5683, -9503, 20204, 11092, 35970, 25228, 33662, 63353, 41436, -7526, -52657, 78209, -11148, -22186, -81442, 15872, 6982, -71049, 21256, -23362, 126159, -26699, -20408, -41022, 59924, -17481, -33994, 33152, -64730, 29314, 83537, 26570, 29913, 40800, 80175, 56736, 20618, 42387, -41545, 36403, -47154, -17211, -144553, 18825, -30194, 52106, 18298, 52713, -50814, 48694, 98751, 35834, 37062, 7953, -24604, 35695, -70626, -19590, -83051, -32997, 30108, 23700, 2388, 7991, -88435, -17471, -31951, -30906, 28116, -40352, -28356, -97870, -13793, -51013, 3714, -44601, 4902, -6785, 78408, 23316, -86268, -59315, 2589, -43604, -139198, 63285, 33774, 24431, -28480, 20055, -33030, 9607, -43170, 71104, -73634, 57786, 1825, -22953, 7831, 34389, 64092, 