{"input": [520843, -144981, 679151, 1597013, -245528, -245510, 1655925, 804714, -492280, 568915, -485929, -488353, 253716, -2006220, -1808707, -589601, -1062030, 329512, -952132, -1480908, 1536844, -236744, 70808, -1493957, -570827, 116311, -1206904, 393948, -629815, -305863, -630935, 1942254, -14153, -1109090, 862501, -1280147, 219009, -2054863, -1392704, 206424, 774338, 179693, -121266, -315730, -1550343, -754811, -483015, 1108473, 360310, -1848682, 339827, -403788, -709804, 641389, 1081081, 976518, -879983, -324233, 347355, 1022933, -502451, -194678, -1160076, -1254314, 851995, 1422121, -75508, 1052281, 379203, -676457, 378951, 1612748, -37566, 1640648, -2747002, 861827, 91275, -313532, 96218, -2084117, -230343, 374460, 1549684, -543446, -847767, -526130, 959869, 344721, -555494, 538200, 101793, 1015698, -736156, -343579, -411155, -1534607, 310505, 273736, 5362, -245982], "layers": [{"weight": [-148412, -44108, -35936, -84125, -16912, 42368, 197781, 18306, 27006, -7806, -201198, -2780, 6316, 258290, -20171, 31620, -3640, -122545, 119834, 78846, 82946, -95356, 147094, -146995, 61536, 229686, -103865, -59381, 10449, -52793, -162599, 7189, -111391, 49660, -96409, 162522, -82130, -33771, 85303, -129065, 23851, 137064, -168557, 19360, 27251, 81980, -129704, -138460, 54730, 31141, 26266, 36328, -71306, 24354, 30731, -74905, 195641, 49685, -124917, 68845, -102203, 82532, 121488, -86055, 101017, 43283, 86199, 198893, -25731, -79035, -93272, -85544, -8085, 35772, 29013, 86736, 1363, 152414, -27751, 285230, 65606, -89879, -112291, 50591, -23432, 74868, 49623, -7637, -88793, -158843, -46820, 89800, 22449, -130625, 18159, 40403, -92679, 16119, 6104, -119849, 37517, 58803, 113566, 110499, -144459, -98338, 54005, 53874, 54007, 403988, 59862, 119073, 100034, 68303, -33058, 79584, -81037, -24832, -50894, 8585, 242710, -195797, 71960, -169106, -49486, 114185, 6740, -113010, -75005, 71261, -76584, 22697, 4779, -68325, 224809, 66471, -212352, 19551, -69393, 89384, -83102, -12031, 52952, 90781, -125860, -35075, -49802, -68507, 185121, 42465, -132213, 96245, 222524, 108262, -159317, -50776, 132845, -74205, 46538, 81226, -97196, -6242, -339872, -107415, -26484, -130840, 171171, -149961, -46142, 13709, 151128, -150561, 121967, 1073, -102919, 48455, 20873, -62937, 7319, -40403, 11903, 69429, 166306, -129794, 223665, -204691, -15916, 61690, 29464, -65295, -21823, -51695, -61799, 89087, 37436, -72657, 94330, 32223, 85235, 66021, -86926, -58739, 78359, 64002, -2192, 12303, 133973, -62031, 57367, -21201, -22826, 115215, 86551, 85303, 136889, 2202, 71508, -32534, 33991, -13646, 10171, 62407, -85797, 219403, -105489, -127317, 121437, 83012, 65444, 65887, -1284, -94084, 7949, -71006, 102249, -15420, -86560, -33700, 43299, -59111, -86216, 25552, 25687, -53157, -49392, 24332, -151843, -147583, -75334, -22382, 32601, 154702, 89932, -16771, -1994, -105123, -1941, -30268, 33839, -86741, 54457, 160719, -11404, 42123, 72367, -42071, 23498, 1320, 10242, -81056, 2570, 52219, 152163, 100587, 225778, -80462, 91469, 19225, 229617, -84756, -88051, -62851, -222707, -55129, -79601, 15770, 35836, 196731, 99659, -60493, -94206, 51581, -138436, 192042, 123673, -49197, -179635, 141964, -12010, 129794, -167188, -62849, 550, 4926, -47193, 65311, -111948, -14930, 12614, 53943, 74618, -117927, -160864, 133974, 34846, -78485, 162650, 12129, 123658, 7080, 216085, 184061, -26106, 101877, 67673, 143511, -101180, 71938, 110984, -184417, -124074, -213829, -28249, 75240, 157534, 7769, 170773, -144714, -178613, -5825, 40272, -3428, -216787, -9345, -136784, 70220, 38441, -98554, -53883, -111067, -6572, 100154, -103361, 52853, -55602, -83139, -11223, -108553, -58054, -125607, 206016, 3698, -73372, 22437, -11778, -23170, 64400, 79430, -55627, -60379, -28841, -241374, -158879, 143327, 172487, -26113, 60456, 32637, 322844, 117396, -13413, -100196, -168448, 21335, -79309, -149134, -67798, -113409, 176910, 92447, -836, 155183, 8113, -90312, 159711, 56509, -108763, -19958, -91815, -144997, 97117, 200217, -146650, 59032, -68225, -51079, -62117, -90596, 5088, -87131, 28359, -5268, -25056, -95165, -60479, 79209, 52525, -102504, 10416, 78789, -175050, 56975, -69481, 59832, -80034, -189256, -170660, 5042, 27234, -94824, 66961, -174223, -6929, -126984, -68350, 4970, -90221, -40324, 105517, -60491, 87629, -118458, 55554, 151159, -259171, -83561, 60510, -21291, 38917, -63332, 9080, -16324, 122451, 26678, 35400, -43188, -51129, -45357, 41361, -44143, 30385, 217622, 91344, -34186, 125956, -42790, -213713, -105706, -196167, -36859, 1931, 175787, 34281, -22974, 86969, -231854, 24706, 80831, -155041, 119931, 35494, -43546, 66352, 238099, 19070, 26028, -48167, -89113, 87067, -89767, 7504, -50086, 50225, 34987, 108794, -53479, -28298, -102631, -46588, 39563, 79376, -96696, 91185, 142149, 43352, 196796, -81138, -130512, -186512, 156872, 68615, -5828, 29357, -118016, 256456, 13550, 11471, 76102, 50437, 23476, -82887, 49437, 197345, 141078, 167058, -53605, -103768, -13190, 5843, 114734, -177468, 160385, -16568, -44762, -106127, -173524, 86316, 7688, -135262, -135799, -35210, 175010, -27220, -157616, -25768, -28597, -282789, -5693, -24215, 73003, 193877, 118129, -28195, -116028, 269836, 6210, 1461, -2530, 20771, -15137, -60153, -57342, -3434, -56982, -74747, 11160, -26736, 157705, -277974, 114453, 130662, -217411, -35933, -38948, -147588, -81560, -116452, 183739, 98113, 133332, 75673, -118390, -55000, 51315, -128149, 74763, -25200, -39303, 74550, 46584, -37850, 121565, -113358, 64586, 62191, -32458, 34198, -131189, 96891, -19388, -54811, 109997, -73856, -147688, -163224, 63545, -134263, 184004, -218306, 177886, 22127, -10141, -57139, 41852, -3946, 115690, 11978, 15760, -38128, -5971, 32275, -179324, -141367, 77937, 17917, -19292, 1933, 36447, -56598, -81611, 20536, -102590, 42808, -178529, 107915, 49555, 26847, 103043, 174638, 106364, -193030, -134173, -65517, 2736, 54280, -76100, 19584, -79208, -64122, -147499, -96808, -141734, -102328, 110482, -99552, 276025, 51728, 19381, -90005, 73433, -60360, 12794, 268444, -10073, 120510, -73733, -3669, 185682, -65742, 190049, 74213, -58979, 66313, 101980, 65202, -164650, -76246, -25954, -7805, 65082, 18633, -140021, 39867, 64025, 58698, 113328, 87443, 48149, -7357, -174164, 45049, 21778, 28477, -133877, -113357, 110431, -4148, 71461, 2969, 3120, 98386, -54111, 10079, -48473, -45560, -32419, 23292, -50200, 131676, -93806, -19595, -46109, 151727, 20610, 108197, -155772, 28002, 93285, 8628, 111724, -54242, 147781, 241057, -38046, -46714, 152398, 165630, -54826, -44060, -29547, -140976, -96328, -105292, -80509, -3637, 24559, 162582, -104685, 103214, -22438, -5187, 70760, -117726, 40099, 17454, 51637, 30322, 257457, -66872, -55679, -65341, -58246, -66835, 124677, 148951, -59847, -87279, 49432, -57905, 66368, 21278, -158937, 162268, 188311, -64256, -40653, 29975, 35070, 69053, 210785, -18554, -83708, -144632, -76644, -3474, 188173, -54275, 23466, -1722, 124612, 264968, -55666, -51321, 109488, 71502, 193641, 61229, -37675, 61935, 116256, 86034, 53192, 111849, 122610, 144930, 68022, -17524, 15384, 126512, -85662, 38658, -41245, 3014, 134055, 20038, 4869, -142591, 78250, 67684, 226834, -32273, 22980, 26150, 165408, -9992, 29258, 63743, 19567, -46812, 20352, 112578, -107638, 13943, -73413, 125310, -159718, -58607, 39554, 164157, -6894, -58217, 197254, -151835, -230562, 46139, -52644, -107084, 74277, 25564, -59148, -134250, 91484, 68179, -10399, 193634, -112207, -159963, -72552, -4780, 25516, -25295, 36916, -131233, 151390, -8614, 117157, 35937, 47894, 59744, 46946, 67394, 139372, 20607, 74344, -9409, 151007, -70925, 188842, -4211, -150028, 13433, -71413, 88148, -68433, -46786, -198133, -47428, -254162, -166084, 79735, 82397, 44612, -101395, -5003, -378, -121463, 157643, 91998, -23170, 2819, 21851, -214091, -25918, -71511, -105027, -29476, 188501, 67197, -59892, 60040, 146733, 96955, 6253, -67836, 73214, 41260, 93868, 66603, 110054, -56123, 138139, 20720, 217607, -72267, 182029, 20752, -68306, -50739, -33591, 44477, 54823, -60157, -2554, 224633, 181146, 45752, 3985, 12586, 64332, -107248, -26988, -174964, 41862, 67863, -50666, 165044, -128531, -153551, 23535, 109796, 176573, -48118, 113108, -4038, -18101, 92658, 68401, -165297, 154826, 144713, -65595, 41503, 51803, 27334, -57704, -70425, -2680, 122970, 57001, -38862, 80918, -298691, 120457, -182422, -38005, -117406, -135757, 121722, -49042, 36334, -4920, 50021, 8055, -134531, 104466, -51774, -163219, -44891, 157366, 89152, -36559, -36622, -33726, 217763, 40049, 45093, 108033, 25039, -27163, -20589, -7508, -3903, 76297, 5447, 76823, -8464, 8245, -209527, 96084, 36332, 104649, -303694, 218982, -14637, 116201, -109042, 64254, -110459, -65407, 200701, -19994, 22799, 91233, 51976, 15773, 38269, 252016, -6042, 21087, 110169, 115923, 124469, 66976, -119853, 171278, -120203, 31734, -79092, -6725, 34473, 33697, 44242, 169210, 47557, -25602, 101092, 124725, -128724, 62642, 73523, -31202, 144253, -15734, 13168, -18148, 1634, -114953, -151000, 167196, -88810, -103955, -225799, -67000, -138736, 172178, 105887, -72158, 236185, 102946, -34061, -262082, 240223, -145707, -172533, 107224, 255827, 145152, 59130, 62365, 89487, 79579, 29485, 10926, -6563, -79059, -29431, -177519, -10312, -103661, -115720, 18863, 145962, 96292, -164679, -103770, 98647, -103021, -23554, 57677, -101538, 11049, -139883, -63058, 33532, -167037, 46187, -2059, 57933, 23479, 143040, 13131, -45026, 12824, 56969, 5123, 4256, -73609, -69510, -147074, 183456, -130429, -72656, -75330, 93840, -30928, 130835, -70621, 29255, -87592, 224935, -124529, 32487, 66456, 43390, -19429, -13613, 4594, -15414, 101070, 231790, -58457, -143634, -9257, 270502, -84271, 171874, 175920, -58048, 59662, 170750, -39754, -21347, -60994, -106405, -68082, -128339, 3574, -80738, 24514, -163147, 34695, 87402, -209058, 39223, 128730, -126840, 175382, 43937, -73926, -5848, 58545, 7970, 56493, -96540, 17759, -148239, -11663, -94782, -77126, 129614, 114432, 63873, -114537, -33178, 127203, 14860, 243199, 41242, 20138, -32413, 14003, -15988, 74251, 100318, -82417, -139590, -192540, 53267, -115696, -225747, 40745, 261410, -637, 87922, 8580, -10369, 96372, -30437, 28038, 33732, -70054, 104023, -18346, -79246, 56257, -94211, 2955, -956, 113864, 49776, -2624, 85749, 145774, 58491, 1086, -137556, -111685, -32005, -63912, -19605, 5940, 55542, -7392, 51013, 6761, -207143, -98496, -15109, -126846, 62907, 160511, 127796, -22381, 156314, 15589, -35346, -64320, -31716, -40703, 17869, 16837, 319, 45816, 124848, 99568, -155703, -267798, 97971, -143328, -23568, -122695, -188951, 56776, 79603, -60451, -271690, -57278, 41084, -155075, 19227, -1605, 60743, 12539, -102034, 125470, -16623, -2863, -97860, -46482, -92778, -18135, 179486, -143854, -169194, 154263, -21949, -70157, 109042, -63503, 191471, 71086, -51161, 226210, -63514, 77814, 31383, 136497, 163736, 3356, -79002, 48232, -71064, 211119, 14317, -38307, 19365, -141256, -101881, 125873, -68880, -109777, 56272, 124330, 75388, 104443, -79356, -149088, 157426, -33835, -26302, 139271, 58325, 47803, 227017, -67478, 97291, 5978, 28164, 160272, 53250, 56444, 112461, -38268, -87998, -109556, -206187, 215609, -115680, -23200, -29026, 32234, 85536, 90227, -61140, -17524, 29631, -26077, 168542, 51482, 77058, 69508, 123048, 18981, -135983, 41910, -68300, -55429, 61485, 129843, 2230, 32383, 178490, 25245, 272806, 59298, -184629, 78994, 39967, 135240, 70588, -14518, -128377, -21918, -89184, -60872, 61717, 175102, 41384, -125397, 46620, 125476, -63940, -14053, 1540, -82303, 67977, -12682, 43991, -93060, -45871, 75747, -39094, 181085, -41905, 23560, 97789, -148726, -184634, -159977, 132392, -57867, 268247, -59166, 19352, 161702, 210354, 216164, 126706, 107381, 62131, 81617, -57796, -85794, -354, -17845, -47524, 73022, 100171, 9270, 154930, -119715, -20307, -75164, -195721, -8670, -12766, 158697, 66145, -107394, 194416, 128035, 61037, -23749, -100604, -39029, 114164, 197613, 161821, -51260, -117400, 14773, -185434, 33887, -15477, -48867, -167217, 53855, -55858, -122675, -301179, -2885, 185834, 174196, -47930, -63147, 49155, -104688, 31645, 80329, 128653, -10502, -21357, -92063, -86705, -23748, 38521, 95796, -84219, 156520, -28429, -2241, -78351, -254200, 92699, 77264, -29499, 7024, 54100, -163845, -55475, 83285, -131522, 30782, -142248, 48909, -3737, -169359, 122132, -77028, -84961, 21031, 120443, -106517, 6468, 44965, 72677, 18501, -38486, -86779, 9033, -112422, -306326, 45777, 94784, -247771, -105878, 64923, 215744, 2180, -76337, -19178, 144166, -67734, -83801, -50619, -99964, 12863, 170360, 33877, -26461, -30599, -163912, 92601, -8162, -18925, 334822, 31327, -78831, -44707, 120423, 11877, -150814, 96388, -70060, 196430, 113251, -46905, 134324, 7115, 89420, 50828, -88747, -67481, 107999, -35104, -42326, -100152, 44418, 216271, -111939, 2540, 148082, -8351, 47435, -111400, 44911, -19623, 103361, 124506, 271535, 60779, 34162, 20383, -37032, 35493, -30975, 17664, 138160, -105544, 119525, 138110, -12380, -222493, -63735, 136000, -2398, -104784, -52929, 88145, 57329, -25054, -38464, -41079, -96722, 169384, -33798, 127628, 159522, 104680, -45259, 42334, -2537, -94760, 34012, -123631, 124537, -48719, 21093, 29705, -27148, 61519, -49797, 91362, -141136, 13252, 203311, -104892, -71067, 53887, 18831, 36766, 51295, 66555, 116360, 42973, -25298, 70524, 199217, -13908, -102187, 116086, -12623, -227821, 88859, -56133, -9493, 34811, 19975, 74391, -45664, 53803, -27215, 77470, 64526, -98088, 113873, -56200, 84731, 38513, 192748, -23432, -36629, -2036, -31791, 83880, -169482, -110487, -111967, 99647, 179371, -10952, -17702, 7346, 121832, -97240, 24995, 102257, 52544, 19879, 104967, -283454, 71080, -68585, -191956, 53603, 144039, -14413, 99916, 169060, 137879, 171963, 77818, 7910, -167978, -25802, -88421, 227640, -18443, 12919, 57827, 4572, 177739, -65290, 20406, -77854, -138414, -64149, -3884, -45016, -72606, -147463, -8714, -157781, 79698, 8644, -152835, -32423, -78869, 33468, 140556, -196626, 12061, -16791, 70395, 22355, -78850, -33455, -83469, 112828, 2235, 199354, -6361, -74282, -158724, -189073, -166109, 28010, 53344, -165800, 93852, -50653, 15392, 169054, 94040, -28157, -93448, -225634, -75409, -22139, -103513, -13763, 8059, -23578, -68158, 17685, 46341, -114337, 147947, -10338, 1977, 74262, 24454, 99944, 30107, -64219, 37906, -119928, 11383, -3484, -21823, -13478, -197326, -57538, 9735, 16762, -107760, 132719, -90825, 101655, 44795, -67762, 186155, -125162, 96380, 104919, -70320, 146011, -26219, 30272, 27297, -14083, 85019, 83203, -183347, 136770, -174325, 108270, 118144, -114396, -43077, -115942, -22536, -32300, 81753, 137396, 146348, -58948, -21939, -176521, -84502, 101172, 169406, -129431, -62124, -2769, 29377, -84893, 44466, -49686, -1515, 57282, 673, -45758, -11493, -9266, -38798, -27137, 167630, 58817, -30983, 73081, -35004, 123011, 38760, -11251, 46947, -164718, -118150, -125192, 14989, 181667, 233969, 66905, 52517, -188855, -56903, -82605, -65101, -17631, -49502, -207545, 78424, -112485, 25087, 217483, -96404, -265320, -29990, 115444, 205348, -128928, 52083, -48791, -11109, 277279, -157598, 26607, 49041, 113853, 10274, 32301, -41067, 28220, -35986, 65177, -38756, 39542, -3068, 118075, -5389, -185916, 132322, -94973, -68552, -62460, 144120, -223942, 329017, 110736, 23408, -5756, 29943, 54644, 67656, 58259, 9393, -20692, -15862, -20438, 118884, 62239, -308322, 68776, 20420, -1962, -40739, 117872, 99355, -81042, 42683, -101886, -144663, -65716, 90429, 99942, 53801, 76032, 54125, -67264, 45290, 83929, 79093, 124667, 74271, 36852, 112213, -2781, -92471, -17099, -78109, -70798, -15154, -83091, -32292, -198560, 22365, 126, -85678, 69127, 98311, -168565, -79977, -80650, -98556, 86977, -20324, -27736, -210120, 66628, -129946, 6284, 29085, 142675, -137240, -316619, 19278, 188797, 129913, 21984, -51552, 84633, -102084, 49950, 53002, 111171, 289371, 41148, -53369, -2682, -185501, -72846, -42916, -54955, 15976, -86237, 117549, 22, -975, -34382, 16273, 86518, -90925, -69009, -31848, -141125, -85905, -49935, 91686, 27532, 20299, 89223, -14404, 40943, -10824, 27825, -61107, -255729, -14080, 149186, 97121, 101229, 129618, 9296, 20690, -64765, -33143, 64568, 126236, -14622, -47206, 55, 63041, -151399, -240772, -57728, -128001, -53282, -15496, -47527, 152302, 34262, 31507, 65243, -119415, 108959, -7944, 70305, -112392, -162923, 85762, 39469, -94587, -91191, 118010, -124719, 172247, -94437, 66940, -34458, 63249, -57054, -17070, 4291, -105087, 77681, -53814, -23970, -104265, -268680, -20031, 252981, 82272, -2020, -27566, 2356, 57370, -123817, 116845, 75013, 75307, 45978, 2057, 70555, 62056, -37124, -60147, 10680, 162427, -129930, -153881, 17276, 5336, 18176, 25580, -23404, 156224, -167867, -86874, -10827, -172301, -18440, 174218, 2190, 24191, -132138, -64630, -39342, -33315, 134390, 58478, -116545, 25848, 52242, 119553, 165732, -106440, -85025, -131867, -24539, 48901, 103530, -7964, -33538, 15913, -87571, 219104, -168575, 19371, 212190, 713, -19927, -37481, -18915, 143954, -231931, 160792, -149313, -27961, -45010, 61714, -167575, 48462, 212264, -142939, 19892, -69414, 44658, 2008, -67265, 51157, 189200, -20018, 75472, -135609, -100290, 49535, 155621, 37289, -32827, -74, -131115, 63388, 92519, -47405, -49287, 27879, -45793, -6935, 220172, -25903, -37575, -67900, 78034, -19003, -68092, 138549, 148856, -62959, -195721, 105645, -71789, 82903, -206580, 93596, -127001, 76626, 1497, -100028, -42681, 71966, 11104, 61280, 207245, -164023, 169577, 10943, -94244, -139493, -19831, 96642, -13374, 158456, -152167, -1268, -131323, 38130, 92997, -44120, -273072, 20861, 45795, 42393, 129581, -112308, 71326, 125043, -186498, 33518, -52867, -8548, 36457, -51090, -70853, 3581, -114006, -113857, 71237, -120460, 69868, 48506, -180964, -71048, 125211, -102883, -48696, 48451, 82144, -26376, -62653, 149146, 182337, 102641, 8946, -84753, -87078, 54790, 43872, 146968, 68205, -157609, 110305, -104654, -40262, 26235, 209261, 326099, 63620, -19210, 56047, 93077, -33624, 188242, 24125, 52192, 69827, 44207, 87969, -64724, -58542, -115360, 46085, 81677, 48001, 175583, -587, 70123, -114473, -40590, 72932, 89035, -30825, -7508, -159161, -37437, 93363, 60315, 52499, 5219, 741, -69240, 73277, 44142, 51592, -55159, -225794, 115045, -50210, -90469, 72717, -41106, 111142, 64698, 71677, -143231, 127082, 27394, -38722, 15035, -186252, 42850, -107937, -141838, -159631, 116674, -65983, 160823, -56183, -179029, -117076, 129584, -16347, -57492, 16779, 52616, 117168, 151886, -37724, -139046, -43355, 27292, -101057, -100365, 36049, -5102, 3439, -79534, -24159, -96913, 93344, 108554, -193587, -97466, -156922, -68160, -8749, -152006, -96664, -105273, 21734, 7271, -75680, 18541, -57324, -28485, 175474, 140558, -136271, 87004, 85081, -120404, 85855, 161264, -117707, -96207, 106710, 28468, 57826, 35713, 40967, -139091, 109819, 122640, -24053, -4559, -160548, 53924, 59985, -6521, 117897, -35031, 59203, -106920, -2470, -18282, 23625, -38748, -13786, 86617, -45798, -168462, 183457, 144856, -135504, 72321, -52741, 27629, 30852, -24579, -82184, -72408, -96070, -87223, -7044, -75053, 71518, 155949, -60823, 25103, 52396, 49493, 7964, 77876, 50567, -129778, 91138, 93039, -80036, 3978, 71652, -21948, 112510, 247870, -82417, -144813, 31858, 75661, -24208, 152385, -140363, 72658, -63529, 180290, 208930, -80390, -57625, 90134, -40594, -4762, 2662, -201292, -1451, -72323, -51708, 151376, -131754, 85271, -29251, -29335, 82877, 35657, 59833, 101522, -34740, -64198, -113786, -86551, 309235, 130514, -141670, -138670, 50527, 57385, 57555, -26734, -13155, 34381, 9007, -232711, -24096, -89276, 18372, 313027, 38533, -32876, 96658, 50613, 44050, 63633, 215644, -118582, 49664, -97138, 58250, -96331, -43764, -30942, 102322, 96307, -130623, 5760, -74405, -131964, -22756, -32347, 254460, 45399, -144454, -59221, 107100, 218989, -166302, -197124, 196185, 40854, -91047, 56060, -276378, 354, 34375, 96917, -106315, 8985, -97038, 26779, -93884, -42792, -104419, 68277, 90015, -24602, 4010, -151896, -31423, -5264, 274810, -116598, 153530, 104528, 29427, 184405, 39018, 40806, -5570, 128300, 114973, -65607, -138333, -21284, -83890, -6661, 129755, -47952, -4490, 6084, 88964, -235603, -63617, 22155, 125837, -51580, -196771, 64981, -66623, -124746, -65467, -19349, -63412, -231270, 94064, 133680, 68317, -119295, -21128, -684, 62788, 70081, -76984, 8598, 47949, 152654, 73873, 82739, 8790, 147897, 42967, -90292, 147154, 73180, -46457, -50278, 31098, 48568, 20688, 32643, 178253, 112359, 19990, 98704, -108268, 41726, 189720, -22864, -88881, -68376, -114256, -82288, -38851, -147384, 1638, 94611, -95185, 159308, 53560, 108064, -68979, 89603, -114498, 93349, 18019, 58013, -123270, -93855, 62624, -99441, 48571, -143355, 88938, -129239, 57913, 65602, -73062, 61030, 27309, -56502, -105755, -205796, 36663, -164081, 9998, -27625, 71213, -31672, -34545, 76742, 35133, 33151, 49206, -161016, 79355, 64222, -106607, -25594, -4122, -14103, 35008, 150090, 113431, -137596, 65229, 139349, 40560, 114398, 211002, 107344, 26142, 109585, 15193, 2506, -36848, 163936, -85818, 160680, 52415, -146728, 38551, -220204, 65589, 92823, -62113, 12955, 204908, -53031, -111035, 155364, 205792, 388, 106060, 140664, -77855, -50888, 129067, 176687, 59022, -92255, 208358, -55676, -35142, 35897, 162966, 89546, 43502, 48579, 4563, 58525, -265244, -31102, 25304, -120693, 40509, -21440, 184075, 164943, -48843, -15816, -7754, -47360, 20450, -79512, -118554, 65296, 66011, -84339, 93885, -66226, 26546, 86019, -3525, 47683, -54152, -20601, -21586, -78284, -18536, -162384, -51501, -29871, -26862, -25323, -6476, 50273, 91700, -68133, -126165, -109266, -51087, -36902, -80740, -135908, -47828, 19024, 62393, -58450, -43306, -97171, -3297, -88964, 60097, -187262, -37710, 31573, 19276, 282385, 36679, -105283, -10010, -186253, -8451, -87352, 95986, -57623, -12244, -66643, 182332, -33685, 192158, 85370, 50548, 38664, 41293, -202131, -29243, 88621, -5127, -147345, -5495, 178688, 130746, -6502, 99767, -38431, -178664, -96937, 163881, -28730, -25521, -31440, 199663, 170494, 232656, -16677, 30998, -159031, 154868, -122451, 22731, -115061, -61747, -87793, -63740, -56531, -57490, 87381, -115853, 23125, 127712, -53813, -75279, -24172, 123703, 20354, -55702, 50738, -115584, 71446, 42846, -32276, -87932, -92975, 56080, 128868, -66827, 48065, -218841, -61302, -3257, -95387, -98200, -70022, 30639, -19643, -234696, -222372, -63634, 47992, -288097, -52401, -55181, 145578, -40372, 40159, 14812, -223406, 80552, 22586, 53296, 411696, -218535, 180848, -30141, 30129, -4772, -44484, -59751, 34551, -159087, 78704, -43641, -118496, -47187, 131822, -56134, 37587, -76646, 79474, 71881, 193841, -18409, 70114, 10283, 135882, -75375, 78119, -20415, -6731, 9621, 26449, -12187, 22514, 165478, 103332, 91137, -47767, -93244, 100171, 91860, 154421, -63332, -24070, -171912, -41154, 104498, -48916, 67159, -19976, 33980, -120344, 8935, -313643, -19597, -170968, 126458, 81517, 48934, 159489, -99501, 183224, 97747, -24805, 119078, -116003, -86457, -63815, -55467, -110788, 128250, -27143, 36963, -59806, -190904, 28318, -200514, -7197, -143478, 208381, 95563, 11089, 132509, -88743, 56988, 20952, 27685, 133416, 76807, 30275, -173528, -100668, -12867, 9791, -118510, 252883, 159005, 63137, 7554, -22252, -99816, 8124, 27027, -130208, 35041, -16280, -200048, -90218, -43370, 197938, 58359, -140035, 50965, -162247, 113528, -49401, -9818, 139020, -134969, -146498, -61195, 108882, -159315, -296973, -47307, 57854, 125857, -48566, -43141, 120995, -196057, -40739, 19967, 47104, -53457, 3611, -260920, -69022, 47554, -103001, 6185, 46858, -35919, 17874, -100950, -21665, 63986, 16460, -61502, 23511, 74932, -214952, 121538, -35259, 44616, 125540, -143830, -74390, -30257, -82183, 181921, -89839, -58253, 21432, -126055, -41490, 33287, -34903, -9792, -55504, -158804, 33721, 184018, 1930, 23621, 72637, -133099, 178522, 21216, 171113, -76864, 190638, 81281, 57990, 24539, -26060, 125885, 14718, -206262, -117145, -19487, 32506, -5934, 127818, -204588, 15056, -190629, 79662, -9905, 43999, -90585, 134162, 109233, 61189, -13581, 60802, -74123, 89712, 172961, 112262, -76504, 37897, -135596, 60019, 47249, -196064, -121822, -29689, -31547, -126823, 40787, 26369, -20371, -79250, 109965, 173582, -50705, -64190, 51507, -37542, -14617, 77558, -200210, 138234, 7621, -43148, -9357, -3940, -181530, 156756, 4333, 46452, 99777, -107077, 49647, -28064, 88790, -223056, -10391, -63210, 45326, 49288, -74200, -74677, -11604, -94020, 88288, -38714, -304820, -39303, -108899, -171052, -129754, 11472, 139318, 32840, -63596, 47805, -48139, -72834, -121044, -183693, -40886, 16573, -10132, -43617, -99169, 63779, -138111, 81372, -105090, -78899, -153804, -52576, 102269, 54068, 102595, 54751, -115728, -34686, -81810, 139521, -125492, 93711, 93633, 191850, -42959, 74692, 239249, -64764, -160961, -197133, 74733, -197463, -39040, 45856, 19417, 44611, 23309, 134099, -99858, -70988, -81019, 87052, 94414, 47314, 124098, -123527, 174821, 159723, 77136, 186835, -173710, -54992, -77102, 75653, -110115, 79429, 143711, 72897, 29753, -103586, -88799, 131032, 81721, -4091, -43821, -212421, -112287, 200427, -134265, 19868, 105638, -131588, 19368, 98348, 1311, 300774, -174965, 111016, -18120, 80942, 46274, -76877, 24012, -194815, 63255, 31264, 66968, 110952, 38548, 15528, -92387, -74682, 124438, 150611, -24968, 4824, -94856, 122972, 69774, 203551, -92099, -39637, 24269, 67789, -22614, -91537, 92422, 75617, -96078, 142128, 122704, 14082, 8346, 58097, -90356, 3149, -225694, 91903, -163734, 157645, -34616, -22195, -65823, -30203, 148744, -260866, 133900, 35444, -126565, -112755, 175783, -99144, -120938, 119256, 35500, -98349, 22715, -107558, 115429, 111293, 55785, 37923, 184674, -33, -123928, 47131, 218738, -106405, -37902, 43668, -5652, -103002, 117635, 243274, 20566, -94798, -162420, 27051, 115750, 49825, -252, -61790, -114522, 87530, 95816, -162082, 166707, 60196, 146758, -140732, -143217, -15621, 52721, 188362, 74038, -25447, -107623, 128975, -101157, 170757, -29820, 166785, 71191, -14365, -54463, -35747, 44912, 8090, -62266, -17368, 8239, -223214, 48042, -102731, -120936, -176931, -188103, -142129, -74346, 204814, -55142, 18638, 41994, 13743, -8121, -125336, 152141, 189498, -176440, -107377, -29340, -101139, 53054, -76365, 227023, 124838, 22290, 107687, 115962, -59134, -85587, 8194, 90349, 14582, -165360, -84182, -7757, -7934, 206836, -145331, 53015, 156145, 238179, -42404, 51530, 59744, 20498, -10365, 45715, -265525, 71520, 13231, -23328, 214629, -70772, -42266, 208829, -87248, -57684, -15417, 88157, 21790, -135542, -55802, -63686, -8097, 44653, 43852, -186228, 111562, 26484, 145179, 46578, 115482, 48921, 141162, 54762, -10267, 238282, 93222, 60161, -133830, -135089, 30693, 15259, -64395, 14783, 166580, 72918, -119643, -11693, -84407, -40653, -43371, -50085, -131610, -13386, -58784, -307175, 215270, 114166, -39458, 1973, -122857, 177809, 198945, 16431, 107325, 18380, -140166, -43183, 13834, -47663, -22927, -9584, -8481, 5480, -111213, -75185, -134698, 102531, -220793, 120963, 145369, -31686, -272959, -37886, -6730, -105969, -54025, 160453, 69723, -96948, -167520, -34290, -22383, 52030, -56132, 53635, 202916, 85511, -5042, -19205, -37400, 123799, -65779, 4742, 5368, -52616, -143913, 33866, -6397, 52454, -55952, 128012, -91936, 179520, -183253, 45589, 49853, -83420, 44501, 134167, -232450, 52717, -261438, -101257, 170830, -61004, -123090, -20755, 216836, -192066, -110238, 157017, 194794, -10846, -129924, 219765, 167189, 71193, -85187, -5141, -16815, 34692, 152149, 92214, -112971, 144336, 32834, 72044, 153778, -116558, -3757, -55727, -164402, 36355, 263356, -192946, -3385, 67166, 12906, -11862, -136233, 24409, -79352, -229630, 125262, 100494, 5417, 24020, 112650, 23524, 94793, -31193, 137571, 33637, 20348, -133176, 30090, -87237, -66929, -85498, -111803, 222798, 139601, 201365, -128230, 7471, -135634, -72949, -96273, 129980, -41548, 112028, 63347, 241554, -155131, 132040, 120213, -102066, 105606, 35247, -23853, -86396, -75404, 214938, 72, 82012, -82932, -81774, 113454, -141513, -43538, 3568, 11678, -18779, 41505, 72651, 77032, -103369, -29796, 125280, 93811, -143955, 36855, -207432, 4921, 198995, -99394, -87485, 80114, -161774, -66349, 62541, -66510, -24743, 78034, 44202, 27978, -35560, 38804, -12974, 48004, -52107, -19144, -103805, -3671, -85040, -116816, 27123, 22307, 82090, -45207, 42787, 57755, 46638, -86576, 15662, 38183, 753, -218783, 16829, 232001, -37753, -76344, 39148, 32755, 125067, -131897, 76691, 61910, -14905, 35514, 107946, 91469, -119854, 86000, -6783, 7641, 7675, -15754, 124960, -8778, -117393, -41265, 18737, 128893, 63239, -89185, 260591, 27764, 133734, -15908, 55927, 88025, 127737, 110873, 91456, -33039, -59952, 34876, 97846, -23354, 111691, 152318, -96083, -87757, -14719, 32256, -55005, 141789, 44467, 4136, -150566, -137973, 29466, -223619, 106183, -16584, 340063, 242003, -19026, -11150, 104394, 178591, -171760, -187315, -65225, 61104, 52101, 112174, -125797, -242865, 89969, -86843, -211654, 15211, 83170, -12799, -48009, -16710, -38858, -141353, -74940, 54660, 33730, 17622, -104349, -19032, -228282, 18715, 149827, -154574, -61439, 34509, 131370, -47000, -72588, -206457, 10846, 214127, 29083, -2336, 33773, -1163, -85251, 86327, 23673, 1847, -102275, 136683, 69699, -57978, 105049, -52174, -81999, -79661, -185710, 49445, -192009, -128812, -217641, -9025, -15762, -34257, -109322, -122918, 48693, -57730, 33173, -92825, 18986, 136659, 61464, -43245, 26969, -25236, 826, -34143, -17232, 22240, -104161, -106523, -145599, -167801, -127641, 16721, -93616, 53856, 3640, -206413, 68679, 85018, -104214, 44060, -89810, 10241, -132592, -188021, -40141, -12974, -41700, -124155, -41932, 28238, -4707, 19137, -70267, 122864, -123331, 51124, 123930, 50427, -21236, -55396, 108642, -149210, -101725, -41687, 129777, 39822, -101507, -32538, -64416, -74427, 102644, -143838, 168693, 86846, 114385, -48543, -15722, -150277, -55015, 51763, 135902, -116094, -38326, -15865, -146359, 62007, -75916, -20488, -47390, -82768, -739, -22608, -38992, -76385, 33505, 173394, 14668, 104451, -145775, 16542, -115067, -154867, -77529, 124980, 99616, 25481, -160715, -20582, 31636, 18406, -193336, -93357, -6719, 56234, -230281, -17000, 15000, 89088, 72651, 61087, -83880, -200069, -41215, 105029, 146114, 74506, 45020, 39808, -58313, -13638, 175015, -98834, 169322, -33767, 138982, -147515, 61437, -77256, -148402, 22915, 105851, -88599, -157183, -9631, -9168, 57495, 99572, -6230, 194564, 23513, -36325, -168985, -27542, -35273, 100695, 48495, -123666, 18062, 70415, 160226, 93062, 79781, 6300, 40717, 131020, -139752, -36641, -81010, 39757, 128998, -62597, -250642, -43224, 95785, 56375, 44899, -29359, -134116, 54033, -87481, 229019, 59822, -60885, -64108, -9746, -25114, 117109, 19547, -76717, 198227, 5170, 80619, -63777, 38075, 32622, -198144, 211317, 135334, -41649, -115581, 36444, 9091, 37295, 20088, 53083, 151761, 59570, -110064, 142875, 172031, 330517, -117807, 25468, -218324, 58002, -57483, 201688, -81224, -177124, -49416, -207145, 78758, -216540, 2984, -217874, -33586, 172321, 37817, -90544, -3272, 1889, 49559, -143325, 62135, -283576, -66048, -51199, 66409, 2373, -147384, -103284, 20833, -8291, -60726, -50419, 72999, -54284, -9237, 227534, -149284, -194180, 82165, -71161, -33370, -81910, -27242, 167619, 84109, 90411, -148502, -120707, -297699, -84870, 100318, 54206, -23227, -2338, -72235, 21471, 80308, -169438, 31420, 97773, -43526, 73474, 295138, -10941, 41241, -77391, 19006, 48263, 20431, -106923, 21639, 153322, 47043, 100872, -24853, 78633, 29283, -99710, 33399, -103987, -66362, 19853, 31168, -124700, 110518, 59979, -73896, -161227, -15194, -46761, 11864, -38076, -210497, -40721, -32046, 66444, -73212, 176022, -200450, 137486, -23522, 90134, 8368, 119491, -40618, -115199, 148951, -11899, 23232, 129473, -108208, 62442, -61855, -13859, 7579, -157310, -81667, 141670, 92924, -6568, 25493, -30854, 142248, -21008, 24310, 120170, -81513, 163451, -160481, 170880, -39078, -25449, -198182, -47689, -109032, -63716, -14398, 100432, 21769, 32262, -114874, -92354, 188610, -77091, 173666, -25487, 240, 112236, 133368, -11620, -40710, -5864, 35437, 93460, 444, 64895, 171794, 39983, 32679, -159269, -275852, 40724, -9943, -53979, 25536, -6334, 118256, 9029, -78321, 103826, -22768, 55211, -50060, -68139, 8826, 1345, 50314, -28170, -192556, -45380, 83238, -31182, -25835, 103429, -74656, -161775, -16843, -50769, -101318, -18390, 51538, -974, 32189, 190150, -35953, 29187, -53395, -88747, -61332, -50201, 37694, 246318, -75083, -43686, -6619, 41503, 27635, 134647, -254426, -250288, -51997, 115060, -164170, -315373, 59893, 25549, -114317, -103341, -101685, 11590, -65674, 51806, -299329, -89847, -118075, -26879, -56418, 83660, -194966, 4770, 58546, 194684, -50517, 34022, -189149, -250815, 88581, -583, 123576, -144012, 54516, 195960, 44009, 29002, 897, -164719, 142142, -64053, 52899, -163896, -123675, 150480, -36417, 152387, -8203, -193137, 93540, -61855, 73263, 2644, -161808, 17228, 230291, 51693, -6031, 112758, 22090, 21971, -114465, 24521, 108574, -87667, 149369, -9616, -93089, 104609, -30073, 79641, -30593, -6273, 51754, 30503, -209247, -117571, 97456, -13856, -54917, -142457, -113219, -212001, -10620, -62751, -101354, -7143, 38165, 219488, -158532, 121570, 102037, -81694, 21311, -47986, 19471, 158244, 63502, 53331, -45121, -155615, -21859, 126522, -160135, -110634, 13240, -103249, -83102, -44418, -143195, -102144, 73760, -137088, -167549, -66063, 76751, -20649, -48715, 4651, -183051, 51874, 40206, -42919, 105479, -118227, 118270, 16200, -35290, -2084, -11248, 127956, -112898, -79956, 108664, -62446, 94428, 178199, -42131, 71446, -120973, 79140, 20911, 49602, -67693, -174177, 52770, -216364, -33277, 98690, 20122, 204299, 107490, -68566, 2864, -4967, -165903, -98608, -58800, -213513, 4980, -26117, -175416, 42385, 75065, 23806, -33981, 62017, 71326, 32234, -86467, 29004, 125355, -62561, 219985, -55116, 3398, -70515, 23412, -182685, -57257, -114517, 14191, 104275, 67739, -248687, 214127, 30962, -81422, 16476, 18475, -69924, 20753, -63698, -42400, -71962, -150226, 15292, 61373, 53989, 85975, 34010, -55860, 88045, -142346, -94442, -101104, 113252, 98859, 51098, 112400, -92199, 36553, -13125, 88802, -12082, -40364, 56718, 91873, -70081, -6404, -110986, -261941, 21020, 63848, 27480, -204426, -36789, -232611, 143624, -113881, 131639, 99182, -94434, -118781, 36739, -88534, 10746, -50628, -186768, -233882, 23770, -58884, -57996, 72967, 123044, -28578, -35714, 52444, -142285, 23399, 57869, 71327, -203083, -79834, -92093, 10474, 50410, 156941, -51901, -52174, 120552, 31098, 132923, 30275, -121332, -139789, -162688, 69421, 124633, 193920, 88406, 121932, -60819, -121259, 89137, 43797, 11266, 40619, 33888, 134618, 135789, 57066, 88689, 53903, -48357, 79332, -146223, 110509, -125255, 29969, -88621, 58027, -3557, -167222, 44114, -60599, 92395, 139, 41463, -100408, -61796, -48092, 89832, 175886, -84428, 112916, -227507, -125220, -100535, -141821, -166051, 43306, -22447, 39784, 72401, 27852, 68971, -7291, -124465, 110920, -61773, -98104, -18656, -95715, -43771, 36077, 36526, -94144, -51140, 112652, 52051, 217586, 123745, 119988, -145529, 80097, -5569, -57775, 17618, 99113, 52516, -92115, 77852, -66856, 22721, -31809, -22950, 80346, -109072, 203968, -190955, -62670, 38820, 61270, -10536, -6018, 43049, -24229, 146086, 88012, 91522, -101309, -8324, -31506, -105445, 37766, -56376, 68724, -112218, 180254, -93987, 22996, 83032, -59836, 89388, -128889, 152266, 1484, -62538, -31371, 84821, -61285, -78576, -23230, -123413, 190898, -59391, 87201, 21965, -103236, -624, 82209, -19741, 125107, 107114, 96355, -48199, -113230, -64339, 20577, 57230, -227706, -851, 16577, -29103, 135400, 44227, 137384, -22645, 98302, 171449, 137541, -114519, -26600, -36193, 51302, 71969, -87964, 7113, -211805, 151199, -53726, 5858, -32469, 120170, -297534, -1742, -11096, -47567, 181008, -93043, 80929, 37356, 132280, -69960, -76857, 114931, 44598, -161998, -56550, 40515, 87846, -71222, -305582, 54864, -127960, -211533, -296991, 85352, 13487, -23662, 145650, 66828, 169481, -146039, -3623, -169525, -24052, -26069, 65705, 4778, 65369, 73761, 225961, -33061, -98673, 25804, -84125, 155395, -29698, -59305, -49421, 75332, -16541, -67284, 174625, -89776, 3729, 68399, -171058, 50359, -110636, 86275, -100941, 72642, 115955, 90328, 26352, -24254, -60442, 154249, -73347, -108744, 69769, -83481, -99621, -151373, -50637, -8673, 25490, 99752, 55249, -20014, -20782, 53494, 133439, 13245, -49192, -104110, -151541, 69863, 60605, 60541, -13491, 147528, -50764, 100167, -4062, -63790, 62131, 42953, 37431, 8523, -3973, 250439, 124178, 75794, 11723, 105608, 54316, 2748, -31831, -8485, -332443, 22083, -51220, 167004, 2028, -124672, -5230, -109694, 49640, 30508, 100437, -82930, 3566, -143133, 73557, 54408, 51989, 170, 43492, 168227, -29894, 14538, -113889, -91044, 10256, 115756, -26873, -24738, -42665, -56073, 30930, -156999, 134316, -69775, 75697, -133169, 70133, 70458, 40287, -104273, 26167, -124052, -26504, 107942, 83540, 1592, -102216, 67695, 2032, -243303, 82065, -2541, 126086, -114847, -333102, 29264, 30573, -177280, -102603, 288906, -32046, 76647, -68227, -219184, -17853, -27851, -41930, -12021, 27711, -15741, -132541, 50980, -204406, -214996, 77509, 53165, -6018, -146323, -74230, -27551, -167342, -77493, 68402, 149664, -43981, 79324, -200704, 69148, -84300, 32228, -25979, 138455, -91691, 65809, -29308, -16600, -19278, -88675, -1478, -6569, 25296, 8861, 83676, 96837, -110166, 91097, -124396, 61641, 64984, -200416, 9750, -49125, -79562, 141647, -68543, -84555, 7937, 71889, -14853, 122303, 55677, -228402, -55519, -58913, 50265, -275232, 267283, 55682, 15611, 123896, 245750, 91304, 99490, 13704, -14840, -49891, -86624, -72039, -141616, -7956, -176650, 20019, -3810, 15407, -54749, 322632, 142618, -130500, 24418, -63754, -106376, -140517, 45321, -71448, 101484, 104206, 144065, -89379, 49846, 66318, -49721, -80926, 168770, 23855, 66686, -86201, -127851, -59711, -13005, -111592, -1032, -177053, -117445, 70350, 63312, -41091, -106720, -107731, -39140, 67583, 97334, -52065, -120952, 28085, -86354, -54343, 138965, 86729, 16565, -133370, 22167, 111428, -39388, 141675, 135554, 174455, 32007, 61592, 148288, 46913, -52558, -47033, 25014, -135325, -15022, 114981, -229770, 160902, 117689, -48210, 56979, 330, 128974, 103042, -146808, 61579, -21562, 8686, -76354, 183305, 109058, -77571, -139944, -40441, 45561, 25187, 131401, 82829, 101667, 34273, -145679, -20520, 111158, -5403, 52753, -33423, -107984, -12934, 32406, -68754, -24716, -98510, 117361, -30876, 152332, 160301, -8498, -105744, -218722, -154354, -144057, 144543, 12145, 40853, -232828, -125616, 93017, 30070, -15436, 59228, 171526, -23178, 7274, 20195, 250831, -220133, 71641, -12038, 59430, -68931, -5134, 74597, 326412, 84729, -88926, -44434, -47544, -188287, -34612, 76843, -133613, 109941, 51147, -76990, -14840, 167596, 76918, 921, -24923, 8033, -53662, -220699, 214138, 16287, 41749, -6072, -77083, -19496, -167709, 238770, -129448, -108210, -46165, 135065, 1521, -129618, 131527, 76651, 56459, 75050, 251067, 229124, -72007, 170277, 40178, 52334, -177447, -17866, -85231, 86828, 112311, -217526, -2311, 117636, -19575, 76448, 36822, 35826, -28449, -127568, -117601, 74381, 2040, -14524, -44448, -32001, 109777, -35153, -140621, 77978, -21483, 3292, 168567, -2156, 30323, -123619, -23034, 63913, -163093, 21060, 10569, 4329, 108754, 35068, 154987, -104185, 14253, 8857, -112119, 100275, 243760, -1783, 52955, 8862, -74825, -190921, -74006, -145957, 178688, -12070, -36272, 93235, -117624, -80412, 7138, 107874, 52605, 26039, 8191, 41968, 21145, -108000, 4832, -112584, 8502, -50400, 266273, -4183, -147245, -14070, 54459, 175465, -61809, -165930, 85652, -144766, -45734, -27013, -7302, 72264, -71684, -28703, -1496, 15686, 10258, 45719, 88483, 41171, 47562, -165908, 5267, 50280, 76435, -72598, -69105, -60199, 56247, 108410, -42725, 95207, 12948, -13032, -22165, 78288, 34139, 238638, -89362, 54327, -55491, -91151, -1140, 14402, 305993, -19309, -118508, 28627, -217542, -9642, 1680, 83320, 102092, -52803, -15793, -80334, -118286, 32495, -133545, -43477, -104352, 57638, 188894, -136481, -194303, -13095, 1646, 22928, -46800, -21039, 38536, 109097, -205002, -38686, 22419, -96257, 181526, -66628, -4330, 58303, -62001, -193627, -44948, 107945, -35326, -88755, 97064, -34684, -53494, 15672, 80819, 249741, 86742, 121618, -53054, -107570, 6536, 11238, -113090, -18381, 41871, 37790, 52878, 30510, -53164, -53886, -125719, 187147, 1410, -23578, -97391, 307826, -112547, -44968, 43604, 62937, 100446, 189541, 53074, -110733, -26943, 32279, 216869, -146571, 126099, 18865, 87853, -10695, -88335, 78735, 68622, 101928, -1395, -62896, -163451, 85918, 44448, -101270, -56474, -48943, -155502, -85740, -118891, -43252, -77458, -170604, 212084, 131338, -81686, 28565, 43774, 124894, -85837, 114516, -57452, -140075, 75931, 135346, 271362, -125800, 73287, -42971, 82141, -154192, -132411, -81356, 8280, -67222, 69107, 107678, 62870, 169742, 43603, -127601, 142960, -63455, 95464, 165018, 47887, -156884, -96282, 138700, -17734, 8344, 79569, 73015, 29234, -21880, -32786, 89957, 58046, -26980, 113468, -13530, -89303, -79584, -102628, -28564, 129365, -84420, 19763, -68859, -27295, -158339, -23125, -20311, 56653, 23413, -125661, 113686, 22052, 20803, -963, -54291, 22838, 49869, -183175, -56493, -26733, 26861, 125128, -80923, -52215, -53743, -84046, -36405, 80824, -110503, 44860, -178457, -58861, -34549, 175622, -28815, -230817, -209599, 3568, 64359, 39369, 17571, 121872, -56580, 93838, -171129, -94891, -189482, -28820, -4851, 11964, 6489, -97261, -19948, -157019, 142945, -31838, -51263, 166612, -130259, -118026, -114947, -7117, 45260, 77561, 269693, -235870, 63831, -58419, -61490, -64988, -95291, 176635, 88321, 2432, 141664, -158600, -139535, -228376, -73339, 16955, 10786, 15660, -147960, 84217, 25127, 76866, -198470, 32662, -124546, -41662, 56032, 9552, -89290, 658, -160593, 120614, -21526, 117288, -55211, -54901, -80131, 91873, -74389, 67591, -40103, -207195, -59802, -123638, 3555, -124823, 97096, -9550, -18622, 68775, 101073, -2108, -80866, -186014, -71938, -64719, 11226, -36191, 72135, -64276, -5981, 124150, 35843, -6295, -63118, -66399, -89193, -56729, 79237, -23267, -141534, 185406, 33551, -147529, -46331, 11627, 178739, -116194, 102345, 146747, -65919, -29099, -108665, -21334, -3837, 69169, 114314, -78444, -206289, -2228, 30780, 26153, -34254, 13081, 158906, 40028, -39151, -52450, -17810, 171625, -19220, -2076, -50574, 115237, 205504, 47250, 8679, 3857, -250013, 78135, 14068, 44915, -74602, -40313, -43099, 107125, -39716, 218383, 45179, -133765, -13479, -68333, -230098, 167717, 73730, 55911, 17344, -144915, -50711, 88267, -110228, -265475, -23814, -14864, 14215, 76391, 66858, 27134, 125361, -159276, 52909, 65697, -129978, -157587, -78218, -69368, 79002, -64439, -89795, -64134, 117297, 1368, -18796, -11535, 135482, -78556, 137941, 22072, -16821, 262238, -110692, -37087, -129230, 99873, 177124, 175104, 128340, -20722, -38298, -175235, 213477, 49176, -51585, 139257, -102002, 42637, -18101, 66970, -6666, -152141, 7925, 109981, -3064, 81277, -109632, -2754, -65485, 78327, 3302, 72359, 114055, 72521, 28639, -104670, -292, -55899, -36078, -39273, -102753, -205242, -70060, 20277, -141367, 1644, 199258, 107275, 172338, 41013, 122422, -75913, -67564, -287220, 124376, 161515, -58005, -26629, -79048, 40124, 117958, -182743, 42933, -29011, 11890, 48129, -19734, -10862, -22426, 101745, 43910, 23130, -133269, -39697, 94232, 3953, 69157, 185232, 108906, 9768, -53581, -267759, -17656, -34185, 40933, -16138, -33595, -186584, -98563, 49980, 179926, -10226, 34373, 99875, -85028, 38463, -77646, 90683, 15876, 31295, -82061, 74138, 218598, -105687, -35626, 24286, 82461, -58673, -297065, 142521, 79745, -182761, -63708, 164436, 151812, 98424, -18467, 8702, -13729, 118305, -91839, -84494, 105935, -4652, 144543, -70413, -5744, -96722, 772, -155037, -51132, -150602, 72763, 75140, -181431, 139868, 261873, 4824, -67226, 296153, -138304, 2108, 18835, 141049, 37721, -52286, -99739, -35843, -105584, 5015, -59160, -156661, 131612, -52185, -132974, -17643, 7169, -183130, 34776, -109802, 179414, 54941, -41933, -78137, -11007, 64256, -2673, -22771, 6121, -63319, -35988, -218711, 102103, 31331, -81103, 199097, 9124, -108648, 89835, 41738, 41375, -44644, 47238, -27447, 58295, -199748, -45495, 180581, -80433, -63317, -46972, -127382, -231555, -24179, 14246, -5506, -15192, 4513, 107253, -19970, -60197, -29478, 60749, 148062, -65866, 10374, 35479, -104079, 2141, -153687, -185498, 38456, -40252, 21211, -1876, -102383, -4745, -129300, 145854, -142184, -20530, -109290, 59813, -34753, -54386, 89465, 3086, 54174, -102899, -147306, 11242, -33433, 65686, -8379, 21504, -170224, 198017, -17222, 73147, -87671, 32297, -136613, 47403, -37327, 3061, 73188, -129241, -71774, 47954, 220014, -14479, 61985, -11217, 203659, -183209, 9922, -170451, -262833, 31191, 14627, -29867, -11135, 324880, -27072, 53490, -68091, 30957, -24981, -43046, 190725, 123437, 14339, -241614, -37855, 283433, -24187, 115681, 151199, 22960, -88271, -255361, 71740, -85433, 18471, -131053, -27812, 3536, 28164, -116898, 125505, -62589, -175581, -11432, 3605, 16839, 142830, -24793, -12543, -115677, 86041, 19326, -44043, -199720, 151458, -128732, -62000, 37575, -125468, -156606, -222712, 75602, -57167, 306947, -104266, -96621, -59286, 25495, -49304, 64208, -102612, -144870, -188556, -233159, -54323, -31560, -66211, 130381, 128768, -35107, -188106, -59423, -62896, -68906, -73161, -68521, -40532, -66641, 21844, 37787, -95488, 133281, -102767, -169639, 39927, -85711, 33690, -252043, 146010, 70495, -157336, -155061, 175350, -77320, -87471, -237613, -36782, -23878, 75025, -146704, -159414, 47287, 105563, -164747, 113405, 3937, 114484, -7363, -264480, -15935, 111164, -93716, -40681, -18469, -304036, 175253, -94516, 53030, -9091, 131871, 42578, -24634, -93692, 83661, -196445, 67727, -115243, 131311, 16913, 67541, 8597, -183750, -90254, 70505, 17475, 123836, 42286, -101366, -83473, 10792, -242645, 175473, 46321, 128664, -165738, 130502, 233990, -138504, 80887, 116, -161946, 51683, 87410, -63033, 122255, -174773, -156737, 14323, 2662, -75138, 84892, 55668, 89982, -12912, 63185, -46730, 215358, -85202, 220756, 3658, -144233, 143454, 13202, 89247, 128331, 35437, -62101, 102311, 79, 71917, -225835, 46869, -66961, 173362, 65335, 25151, 50993, -104694, 170211, 208810, 41200, 166766, -59680, -83583, 4291, 45607, -41312, 56389, 32127, -104680, 54399, 90547, 17980, 120864, -127654, 49068, -122713, -116820, -66158, -98782, -57462, -22455, 87782, -33676, -166265, 119545, -87775, -6157, 46823, 20931, 114733, 50227, -90315, 228439, 20377, -15450, 101075, 26157, 41862, 261324, -28849, -33320, 12224, 112357, -157972, -206103, -61563, -171329, -44547, 52691, -93402, -149614, 7271, 90444, -177731, 86008, 85701, 100043, 127767, 230898, -37339, 11489, -43667, 207, 160733, -141035, -90288, 144408, 106959, -38077, 89591, 35779, 157315, 7813, 107545, 277035, 62715, 5172, 75754, -38302, 250397, 18882, -28619, -87628, 115052, 90931, -52151, 60445, -158184, 19396, 47475, 179027, -80826, -134045, -93892, -140149, 140159, 162387, 33577, 128062, 14047, -9973, -34922, -32547, -162299, 27709, -4229, 78157, 9807, -17061, -91351, 7566, 77410, -119888, 9172, 24436, -75295, -61641, 24181, -118848, 36692, -93885, 111448, 245139, -90257, 56016, -76204, 109152, -132672, 50393, -91540, -21704, -108111, 86230, -87764, 57878, -36081, -12003, 15493, -79883, 22059, 160467, -81589, 122873, 157087, -85580, -152574, 31663, -57400, 195937, 3650, -84117, -120288, 114285, -59893, 4596, 100223, -50778, -4816, -1737, 71652, 61944, -23081, 6674, -38984, -154939, 27011, 198411, -92665, -81058, -91302, 75979, 47027, -16624, -96261, 9686, -164063, 15039, 91386, -131198, -160696, 165616, -64148, 119113, -16148, -16982, 45971, -92694, 13893, -40002, -138464, 35388, -27610, -16465, -126895, 166870, 91930, 101099, -32028, -181318, 204778, -6407, -78517, 43705, 122381, -2417, 134068, 113561, -112867, -70652, 100405, -284438, -15672, -150034, -49970, -31334, -37565, -57909, -115044, 240324, 195818, -121851, 165897, -41887, 13546, -6635, -69180, 103164, 13200, -49970, -136796, -93700, -172111, 1282, -125479, -27846, 143666, 125756, -3384, -9131, 197119, 54605, -34373, -149529, 41301, 86961, -66233, 30535, -38123, -19297, -260867, -23255, 101646, -66207, 5508, -79267, 37795, -22704, -98487, 139728, 97406, -63429, 52197, 56352, 67350, -177656, 105550, -59737, -37521, 276602, 31654, -40509, -231242, 145727, -141055, -105218, -34745, 148522, 81080, -16550, 32327, -62955, 14644, 7690, 101583, 101416, 51797, -37995, 77786, -9644, -113447, -42288, 8863, 95443, -19244, -126794, 5950, 11897, 19486, 96456, 106842, -62308, -64607, -109073, 73276, 151920, -33039, -25316, 153803, 53012, 45743, -124877, 71170, -97427, -118911, -36362, -61425, -23236, -151098, 100539, 118246, -204194, 102599, -84990, 89860, -7177, 3017, -19409, 127101, -129980, 63737, 115483, 75114, 243762, -55464, 100381, -11124, 129332, -806, -40672, 136952, -51544, -148135, -54195, 64910, 145966, 11653, 138223, -142415, -46480, -30259, -12012, 8818, 72447, -46641, 14578, -4731, -97087, -11919, -15064, -17310, 3330, 7935, -45329, 133454, -122629, -75599, 291500, -108841, -141951, 77015, -217802, -24670, 225006, -161998, -207824, -157201, 94200, 117941, -53749, 71640, 145779, 187417, -25830, -241327, -86075, -44754, -27152, -19698, 117325, 133634, -18001, 115184, 37504, 6764, 95058, 7576, 215777, -150828, -54020, -13266, 46080, 132955, -2558, -149132, 88344, 79163, -203619, -399, -166738, -69694, -94666, 84858, 12251, -134804, 92282, -150345, 34615, -85355, -38344, 52877, 54678, 140191, -8625, 32134, -45900, 19083, 46083, -10309, -189137, 34757, 38227, -71321, -134678, 154757, 51532, -24021, -119227, -86174, 136587, 14435, -57733, 53445, -85396, 157375, 141851, -48924, -65921, -274531, -155355, -140454, 14176, -34208, -141069, -29482, 52988, 55348, -199195, -13449, -145054, 94553, 82224, -94165, -80326, -48367, -236223, 35229, -28610, 101730, -115177, -64920, -157971, -105307, -123940, 104435, -73218, 13021, -39926, -133113, -17648, 62821, -126643, 84842, -89100, -50645, 55646, -69566, 3940, -32998, 13565, -249639, -191856, 64589, 108756, -95471, -25588, 30904, 72689, -212617, -92908, -34873, 73730, 261979, -23908, -147532, 42181, 138516, 11326, -95069, 100453, 69578, -107592, 39995, 104571, 123930, -6968, -37547, 128689, -126895, 45988, -143658, 111713, -27058, 133021, 51528, -128264, 149383, 162660, 92514, -79858, -32088, 15249, -73789, 177455, 15134, -283467, 35584, -36507, -7857, -38653, 84625, 117408, 29680, -35579, -4335, 2055, -84141, 60705, 48239, 161527, 131633, -71898, 86015, -99715, 72974, -54171, -107296, 29365, -280449, -183603, -18611, 8645, -38726, -165616, -85762, 41021, 61004, -1701, 121303, 41670, -78376, -29413, -147101, -11339, 116612, 71858, 147011, -31760, 141149, -20269, 154307, -2292, 74159, 154677, -20282, 22900, 135147, -13946, -138506, 224711, -49258, 16647, 121216, -63805, -105683, 26606, -188018, -30189, 25694, -28307, -161843, 167162, 10857, 150067, -27267, -92276, 28226, -22627, -123497, 154118, -65250, -192966, 139268, -52879, -63735, -185114, 182551, -135212, 6129, 95695, 44220, -6255, -178433, -84906, 19692, -82541, 21324, 71486, 100926, -128574, 230335, 80476, -180, 114246, 248031, -150861, -23621, -249397, 20201, 38314, -4106, -68633, -214907, 39168, 152613, -61973, 46144, -164432, 47942, -41249, -79945, -79730, -41273, 40101, -137590, -41641, -4349, -115243, 188394, -89495, -70196, -102583, 188584, 57976, -98209, 115997, 21045, 26975, -36121, -78582, 35417, -57157, 190501, -133095, 161078, -11673, 31361, 87363, -66086, 90623, -283907, -75496, -96895, -131440, -22540, 40449, 73679, 25258, -69803, 38694, 13032, 98153, 81468, 3196, -94084, -68467, -57650, -33058, 28107, 74991, -5360, 1691, 15027, -54097, -97034, -184071, -72892, 49613, -73706, -24936, 48909, 54598, -113197, 104549, 118211, -118473, -86386, 124895, -15399, -232761, -146767, -26148, -121954, -43351, 3397, 153329, -30456, 112464, 149816, 150398, 29859, -205866, 48321, 109933, -8501, 182933, 90160, 59588, 113915, 34956, -261390, -52339, 125532, -84682, -23433, -109559, 187058, 176317, -92680, 15445, -71355, 64482, 53444, 85113, 34804, 307800, -107786, -179370, -41218, -164415, -156496, -104995, -96699, -100099, 54339, -53078, -18823, 93767, -80355, -27740, 38353, -203588, -250075, 36293, 51591, 216449, 16577, 85956, -20497, 31167, 174825, -222717, 43371, 223932, 29573, 173075, -65978, -3360, 3515, -232531, -122492, -115016, 86200, 91452, 33978, 86413, -17212, 126032, 922, 6067, -27849, 71770, -44166, 102386, -118714, -115230, 72082, -9285, -47594, 93329, -63676, -20993, 146720, 161391, 164878, -29583, 129049, -99505, -95096, -246463, 175413, -90595, -13268, -95454, 72893, -39388, -136820, 46312, -150337, -87808, -220923, -149313, 18720, -205997, -155309, -248, -57001, 208880, 192298, -91008, 58420, 78568, -62650, -156819, -1290, -18124, -45693, 46380, -78720, -120796, 11438, 40472, -123380, 97317, -185648, -60620, -27054, -66713, -59251, 196196, -89222, 255981, 45836, 9653, 49937, 265282, -104186, -117484, -79153, 3370, -180960, 2342, 177581, 15876, -30690, -64819, 94216, -86595, 193609, 202727, 26922, -1207, 108073, 114798, -84514, -55213, -138658, 42894, 69901, -141550, -47731, -141270, -94246, 57778, -76911, -31544, -170636, 19607, -4642, -76437, -19820, 18905, -85445, -154797, 189328, -66403, -10146, 105994, 370048, -130494, 47168, -74192, -56496, -75520, -118033, -4330, -154613, 99280, 5767, 44296, -48883, -38504, 30153, -122060, -37538, -90137, -93383, -221233, 140439, -71989, 121989, 112071, -134847, -114128, 268488, 183598, -3305, 26988, -66149, 45335, -75202, -213108, -138575, 2212, -118601, -7055, -112686, -82036, 89461, 25950, -1013, 92166, 50395, 151683, -48220, -45050, -136431, -44982, 101163, 136314, 100695, -188135, 113576, -192783, 94174, -38565, 73666, -139717, 122806, -153614, -70093, -104658, -183950, 9912, 189382, 279645, 10188, 117093, 24337, 52312, -35877, 20455, 56359, -60656, -8126, -6127, 86655, -111782, -5405, 200488, 122061, 141472, 2562, 33659, 105092, 163605, -204640, -137934, 137305, -29034, -70435, -131508, -58198, -147049, 219267, -2353, -6077, 61664, 100909, 99184, 112577, -66149, -31234, 80639, -55301, -535, 41813, 82333, -186403, 74947, -24508, 74182, 81467, 168602, 141920, 141198, 151380, 30553, 3375, 91522, 76764, -32408, 42449, -3680, -89541, 135315, 5788, 214823, -170445, -58382, 3422, 119263, 41887, 32555, -118202, -121314, 33817, -143037, -55771, 52525, -103004, 168334, 128339, -164775, -97766, -239681, -82061, 80362, -43400, 48318, -159628, 83674, -58207, 1276, -9739, -133332, -120910, 101481, 41837, 110106, 34043, 14994, -180985, -28350, -2871, 204798, 72033, 161068, 62656, -74586, 12281, 24770, -98478, -40306, -21576, 168361, -218181, 126439, -98230, -143873, 123726, 76745, 131546, 83960, 215990, 58586, -16408, 35958, 130387, -81723, -68355, -32397, -220682, 14479, -197775, 5564, 90732, -50004, 175858, -153145, 124913, 70793, -179939, 284247, -6684, -92011, -147544, -23071, -13360, 10763, -31226, 66398, -40646, -202896, -15662, -248248, 37096, -102687, 17130, 137791, -99484, 111281, -45444, 183836, -38289, -88132, 72062, -45696, -88232, -50105, -4677, 140738, -202804, 2420, 65526, 20285, 137349, -7796, -19352, 62110, 10414, -40937, 54122, -68423, -64087, -55364, 141880, -337748, 41482, 3594, -176252, 32477, 49886, 61828, -278064, 143276, -77357, 71992, 77707, -91928, 69254, -40422, -217200, 122447, -81269, -89600, -42265, 28546, -6005, 57469, -140456, -77845, -12163, 199008, -11934, 113794, 4043, -50715, -25871, -17660, 63297, 144138, 37715, 124474, -101166, -43477, -75949, 32972, -37640, 76522, -97623, 4512, 72022, -216563, 222469, -29691, -212341, 16577, 3507, -8587, 103934, 78375, 31235, 47202, -10943, 186174, -155105, 14644, 6818, 85279, -88484, -182837, 16444, 29489, 156196, -133207, 121078, 248241, -39612, -135365, -42674, 1469, 59117, -62012, 163074, -116867, -182369, 116047, -238511, -21405, 326913, -1263, -117521, -6019, -5327, 16845, 69443, -108959, 176952, 25702, 76210, -65866, 134887, -26954, 29103, -97843, -104536, 72164, -46516, -89530, -67443, 73291, -65959, -12337, 1576, -201049, -154259, 35261, -77283, 110806, 101377, 75410, 190817, -8713, 68040, -61279, 257150, 207999, 1246, 40537, 142533, -15429, -68852, 91644, 8225, 19188, -87480, -180111, 24761, 94892, -23678, 150621, -73811, -110594, -7050, -8660, 80737, -81261, 143455, 206246, -4105, 131042, -110782, 112745, 109815, 90538, -1632, -309775, -67290, -65632, -102577, 12818, -43932, -86467, -111023, -75027, 117598, -69314, -53995, -47888, 35546, 47841, -319255, 107126, 150614, -110120, -101953, -47212, -79273, 23480, -204108, -117223, 161397, -97331, 130383, 37260, -189715, 66619, -12338, -47759, 25686, 49769, 74196, 123549, 42796, -144246, -49665, 308601, 75968, 248438, 146322, 25355, 31605, -3836, -182222, 1892, 126948, -62877, 43196, 89296, -95387, -47323, -106736, -86210, -135015, -94419, 148841, -95995, 13260, -52730, 123613, 137485, 90604, 32101, -24228, -124977, 203794, -79657, 69588, 111104, -58225, 108844, 80134, 181190, -49215, -134833, -53004, 21900, 6104, -41255, -200194, 49334, 206815, 48680, 63872, 60025, 41633, 97692, 41458, -32787, -83465, -26107, 32939, -33144, 32961, 46048, 87365, 134511, 8180, -137130, -36187, 4620, -192494, 145612, 14929, 39988, 143186, -66075, 60193, -11520, -19303, -80970, 174651, -39374, 73344, -196609, 123731, 110332, 10217, -23797, 41943, 239997, -184889, 82002, -95590, -2089, -25992, -44912, -1097, -118926, 107917, -188130, 56598, -34240, -122780, 21221, -163258, 4164, -149199, 48368, -96926, -47290, 30823, -81007, -6078, -158737, 66152, 185065, 292784, 9560, 82649, -186712, 157573, 81393, -50744, 129728, -26684, -48027, 49842, -111501, 107125, -110729, -110106, -95388, 79639, -64674, -141348, -63510, -3360, -123834, -120763, 221385, -90237, -33873, -38508, -44182, 65153, 99420, -32082, -129654, 133635, -9997, 181437, -235467, 20490, 201180, -37042, -23645, 30987, -58594, -32723, -35422, -65790, 128855, 48348, 26280, 84785, -27720, -81181, -63190, 187, -111066, -52456, -54119, 222776, -290856, -18834, 180952, 12776, 79002, 10468, -69975, -235082, 21544, -81328, -83921, -52323, 182962, 252165, 22776, -48734, -123441, 49130, 186951, -25936, -249456, 70260, 103327, -166288, 18506, 47314, -7666, -82918, 106529, -42297, -155733, -214903, 132210, 64662, 9225, -46166, -55470, -112799, -45241, -222307, -77182, -32604, 63951, -4187, 83354, 141467, 110957, 49337, 1244, -102843, 77589, 176134, 35872, 201039, -159968, -121023, 89674, 27713, 137760, -1622, -91014, -22397, -160714, -118341, 101968, 91518, 38064, -180468, -37581, -128451, 123368, -61208, -113849, 3124, -67125, 155582, -77051, -146720, -225749, -3228, -58923, -149832, 124699, 69966, -2959, 143060, 69472, -86283, -108970, 85772, 41562, 17799, -88762, 63748, -79220, -10694, 151723, -69293, -164940, -110368, 104260, 26710, -13514, -53382, 50894, -89035, 32051, -76678, -94126, -66845, -39364, -5120, 24689, -386753, -84688, -41059, 157817, -113246, 17070, 156765, -137675, 41311, -84124, -52915, -84212, -76741, 285413, 88548, 115526, 51589, -168428, 41414, 112505, -89485, 101222, 73855, 194200, -43808, -115093, -37919, 150531, -191722, -216885, 9374, -46409, 810, 99123, -57941, -196399, 214379, -104567, -111048, 115733, -40317, -6647, 50624, 113622, -34966, 159379, -223955, 79669, -88031, 143893, 14894, -70559, 69504, 93658, 67307, -107971, -50753, -427, -4326, 78617, -211278, 35057, -30407, -87923, -77855, -22496, -377601, -73536, -91836, 55866, -84466, -22556, 161719, 104265, 94610, -52415, 56941, -24526, -20562, 42959, -62599, 156553, -16791, 64840, 152631, 108177, -147736, 46651, 89204, 93519, -116737, -68895, 104287, -79876, -31425, 165243, -5012, -76208, -92025, 34888, -139791, -25935, 34942, 136226, 69997, -74875, 123566, -31406, -129573, -18040, 150803, 17327, 1313, 171674, -150088, -134805, -169434, 39075, 17458, 161768, 25530, -42379, 188, 12343, -175297, 284199, 54512, 22021, 64505, 74387, -14738, -66190, 62857, 40445, -84923, 148797, 30760, 76527, 145953, 2295, 33235, 84938, -76007, 5668, 13165, -100250, 243022, -147565, -136116, 137807, 74791, -107580, 63679, 153915, -3173, 272506, -180781, 72753, 122319, 93464, -21428, -30455, 46572, 85538, 63174, 109058, -106836, -23884, -98568, -40487, 106454, 11323, 273349, 20280, 6259, 11134, -66879, -6065, 118257, 11951, -83200, -97002, -47207, 7745, 125157, -140560, -33536, 15132, -192278, -87409, -71291, -83464, 20121, -16836, -58226, 44875, 180677, 171889, -201617, 60510, -18667, 16269, -41763, 12330, 15876, -60707, -93991, -47049, 24564, 62809, 89480, -51820, 29763, 100926, 122221, -6169, -23166, 20041, -120556, -20301, 78076, 67313, -28340, 22829, -86471, 73766, -8160, -28936, -37929, -6595, -46963, 69011, -41448, 167034, 153638, -93485, 7309, -68226, -34251, 209970, -32251, 37772, 56762, -104924, -89663, -126461, -92901, -298847, 57104, 215398, 15500, -148507, -67400, -48117, -106701, 90197, 84962, -121158, 76030, 160098, 199498, 300439, -94581, 296141, -37141, -62125, 34296, -61034, 41843, -138420, -25035, 134803, -5983, 14847, 49834, 122753, -173563, 61292, -28116, 17473, 111144, -125220, -106183, -202945, -57583, 139506, -12644, -140522, -50927, -156014, -117984, 40771, -123090, 116668, -7458, 8975, -29190, 81039, 82120, 35133, 59222, -22239, 56854, -35429, 234, -28798, -47943, -72259, 49041, 137427, 122799, -131760, 135183, -33361, 62991, -95024, 14888, 32896, -155672, 63781, 141132, -18313, 142624, -19891, 89085, -232634, 253627, 156810, -29845, -206789, 30202, -151407, 46646, 43156, -98713, 117542, 84471, 102322, 929, -148428, 102537, -28350, -145729, 141772, 220139, -4325, 226400, 9575, -39894, -66108, 171661, -81804, 77099, -58633, -48267, 108030, -39850, -42446, 118783, 167499, 67601, -68658, -53541, 8380, 33652, -103585, 75816, 8967, -179905, -97405, -52862, -7640, 198105, 24974, -88161, 23135, -36919, 34053, 60877, 126797, -2547, 171857, 95213, -74180, 231720, 34288, -87569, 173320, 217871, -3463, -52812, -18075, 74945, 133993, 59820, 10666, 157078, -32803, 108100, -30206, 45196, -11908, -5857, -39572, 141018, -76853, -77619, 222402, 102535, -250097, -59272, -190001, -99687, -329097, -14364, -119741, 6282, -170406, 8694, -43507, 157491, 147991, 82349, -34248, 208182, -162848, -147174, -8785, 236353, -21217, -19215, -151195, 99188, 99948, 82741, -65979, -74104, -135594, 8795, -113289, -123461, -44427, -51292, -56411, 48910, 8289, -30215, 19190, -103969, 11039, 15792, -157606, 104406, -92425, 9470, 122097, 97064, 3600, -38011, 99354, 70747, -64840, -83351, -217302, 16151, -8671, 119138, 37650, 139904, -73124, 119344, -55461, 81537, -152962, 24656, -208110, -28011, 46174, -54628, -110146, 88722, -10849, -51335, 4393, 276475, 120954, 121905, 45670, 17457, -251247, -71196, -50392, -196597, -121364, -207706, -4019, 85854, 116054, 43493, -101019, -202592, -184221, -133062, -93204, -16751, -106343, 35544, -24356, 1106, 119564, -123756, 43904, -1465, -34969, 92826, 92171, -99247, -19101, 29487, -28627, 61344, 29485, 192158, -160461, -12838, -95263, 63345, -169573, 36314, -66065, -76982, -151676, -48767, 113718, -2641, 65817, 174550, 27657, -58594, 48995, -57074, -52893, -159372, 97125, -40475, 19094, -108628, 45712, -79895, -14859, 92047, 82917, -2310, -185402, 313819, 183067, 75778, -78979, -11911, -56982, 132525, 27525, -82226, -49362, 117565, 167782, 160257, 79381, -26490, -339897, 31159, -192, 14678, 5652, -139069, 58449, 66293, 71548, 99256, 63339, -42995, -7428, 9555, 11293, 104671, 67494, 217825, 231365, 8352, -402302, 129691, -56663, -84042, -41780, -46834, 64201, -163519, -113007, 35983, 65320, 67271, -82527, -102579, -53125, 25152, 155764, -214689, -23145, -139741, -173250, 101393, 57108, 47127, 96577, -50302, -45365, 229190, -25855, 77084, 669, -193804, -214395, -60711, 110740, 82658, 95848, -103499, 169437, -101176, 22316, -1086, -18232, 140362, -73936, -141516, 2097, -41925, 354144, 70937, -42922, -110741, -197163, -107502, 12053, 149666, 117618, 24022, -33887, 28187, -54383, 180184, -19838, -9053, -232346, -20493, 87712, -111959, -78719, 83122, -154839, 110918, -55799, -40744, -117847, 39641, 257936, 81946, -90627, 119078, -33206, 144125, 84586, -308611, -105285, 99026, 15902, -107349, -66437, -199883, -9267, 231808, 84403, 229682, 92526, 107739, 206997, 39559, -19632, 108282, 152446, -50328, -75662, 14560, 87189, 83686, -149335, 200446, -67231, -27794, -94650, 282940, 25383, -89231, 90589, 80650, -19685, 88144, -86538, -51686, -210786, -138826, 189544, 172116, 6898, 174371, -16785, -25523, 5926, -13099, -22565, 119894, 15743, 74709, 108148, 40704, -101740, -141858, 15601, -17958, 9164, -1683, 270907, -139484, -208661, 34852, -39471, 33142, 61225, 134648, -158044, -58376, 44959, 80789, 230000, 100213, -5955, -93369, -59170, -62149, 68706, 26948, -138795, -45708, 92018, 36874, 59627, 40152, 170544, 24751, -40477, -96024, 26173, -255926, -19324, -21584, -143075, -97336, 84899, 24192, 10673, 32123, 9713, 130324, 12942, -152905, 170932, 38833, -61788, -131429, 41515, -12286, 165061, -36271, -87806, 93931, 97023, 17684, 70921, -3952, 24523, 122158, 65569, -17750, 141805, -247973, 215175, -178883, -65755, -4291, -15360, 105530, -110922, 27343, -60630, 30948, -6792, 9745, -57664, -53484, 30123, 98956, -62734, -91097, 64326, -3408, 87084, -94980, -186588, -55890, -80358, -8262, -66778, 77701, -30215, 15778, 16529, 20443, -2530, 53540, -83430, 146740, -24803, -137526, 19721, -89253, 69765, 231694, -82478, 34852, -184078, 47595, -92874, -65519, -115478, 76772, 105624, 2452, -90642, 166674, -78686, -226706, 48066, -115844, 103663, -39965, 63304, 146958, -126758, -59343, -7935, 161224, -69036, -62338, 50137, -60527, 15993, -162690, 232189, -141318, -33738, -3406, 200560, -138920, 208006, 79396, 43736, -103246, 59888, -75863, 132819, -101823, -11866, -58225, -103549, 77733, 56147, 126774, -186633, 111586, 262715, -47358, 198721, -27594, -143908, -32048, 109912, -87889, -62950, 62237, 321, 61302, 24938, 50292, -45330, 24299, -97242, 135102, -66509, 118368, -24495, 21181, -51901, -106535, -182951, -110659, -33964, 22217, 105946, -46741, -92480, -151280, 50338, 145038, 132784, 74442, 66956, 178009, 34821, 67752, -33637, -142821, -71707, -960, 6374, 201986, 8523, 123611, -45621, -32682, -139357, -77839, 55258, 793, 98874, 19006, -36957, 225265, -9847, 121949, -42070, 74407, 97309, 21862, -246885, 1914, 129023, 55310, 46750, -180592, -75545, 43134, 43032, 127367, -15190, 42554, 1717, -103488, -236537, 45195, 18240, -64820, -169783, 66033, -27884, 58393, 195460, -224545, -73358, -21955, 152550, -171589, 202990, 14246, -10066, -20768, -45745, 109903, -112043, 36219, -40284, -79915, 271159, 43941, 64306, 119305, -149039, 183741, -263083, -80611, -48133, 60998, 22934, -17492, -1258, -102553, -156996, 76180, 72740, 166146, -82839, 72647, -29749, 124830, 107161, 22147, -35602, 100761, 67833, -71769, -139230, -30255, 158903, 120218, -116636, -122448, 133660, -119080, 53403, -64600, 169559, -80785, 119890, 19384, 26445, -206602, -230992, -23128, 25890, -117986, -114158, 58875, 59020, -14443, 81810, -123124, -37322, 172792, 7164, 13245, 241796, -146732, 83512, 174482, -34064, 90139, -102972, -72009, 40367, 83736, 117539, 164587, -7072, 125159, -35893, 94591, 21757, 46733, 44408, -168266, -117873, 10752, -176924, 87159, 91389, 34306, -117559, 144718, 213617, 15422, 53534, 21154, 55613, -12537, -3624, 94971, 245957, -146808, -10886, -123780, 166936, -61629, -151331, 66919, 182904, 69583, 21475, 42902, 148357, -91666, -11728, -47468, -122460, -34433, 116153, 59413, 67561, 15359, 54874, -83948, -32454, 20133, 29100, 33574, -14506, -39576, 331116, 95084, 43322, -24454, -47314, -13715, 30705, -197178, -164562, -66782, 21720, -25090, 154992, -155441, -78784, 159393, 13749, 92782, 215089, -72751, -10414, -28566, -204954, -32547, 92386, 56685, 64916, -39375, -68797, 133091, -52147, 30837, 17127, 153272, 101860, -135818, -124524, 60703, -6746, -47728, 106496, 19657, 5501, 81771, -39333, 164471, -82633, 68884, 150348, -144420, -36001, 119769, 121346, -17983, -77036, 100237, 124104, -122124, -126239, 23620, 65993, -31360, 71229, -74463, -221742, -44449, 6630, -28924, -121488, -190385, -53906, 94126, 131722, 124541, -85554, -120975, 52076, 66595, 41961, -211190, -90899, -3113, 51089, 80458, 15126, 34685, 8899, 71892, 32806, 6893, -28141, 8524, 50813, 28047, 39933, 140795, 27804, -68052, 92653, -143256, -113394, 35216, 54148, -130553, -40141, -63552, -51032, 98943, 74082, -2005, -57248, -141521, 148917, 62088, -74100, 75455, -7363, -30106, 45635, -77752, -36045, 12736, -52371, 70159, 195986, -79094, -174601, -209898, -15778, -69538, 21796, 13904, -168109, -190304, 31031, 14201, -44650, -173764, 49429, 133368, 29149, -88864, 4672, -143247, 110935, 8582, -185405, -31528, 48581, -34923, -28930, -128388, 59406, -67997, -226120, -38929, 102881, -40572, 182241, 44981, 35521, -13464, -7160, -27622, -31695, 55665, -98129, -112816, -117776, 214502, 55610, 31928, -110888, 65362, -12223, 22457, -102406, 16805, -44442, -80280, 76977, -161240, 59221, 71774, -92237, -86018, -23386, 29574, -16028, 45462, 184862, -53238, -179850, 86604, 176508, 41185, -114059, -12991, -117286, 67408, -141693, -31471, -105312, 13299, -38414, 18535, 2344, -103459, 65733, -5113, -103655, 234978, 49957, -16071, 148395, 193128, -15241, 36427, -103600, -15434, -20873, 19381, 34892, 58702, 24919, -126956, -98405, -57295, -29595, 110182, -121943, -37478, 99930, -31444, 48278, -14632, 26926, -23957, 69947, -162011, -38096, 31098, 55962, 156547, -41002, 155135, -69104, 139319, 85718, -95783, 32195, -5372, 65597, -23412, -32217, 143560, -10352, 86657, -23630, 174762, -71129, -64398, 159857, -46656, 167885, 93516, -16216, -190138, -2026, 10657, 122392, 166561, -71826, 84010, 80258, 112555, 52291, -203686, -16297, -121185, -21245, 102761, 31997, 120386, 35835, -136139, -264330, 15604, -22432, -102440, -178324, -77043, -20394, 69822, 19779, 168618, -108591, 92386, 4960, 72841, -45772, 112374, 30957, -71245, -1261, -25119, 51294, -123709, -3078, 41451, 3463, 141237, 81162, -784, 22721, 31003, 42289, -191434, -31617, -155655, 134037, -6381, -20273, 94036, 44284, -118346, -7435, -35145, -182928, -72381, -19246, -12053, -155423, 120761, -10706, 3938, 42010, -82636, 47852, -38491, -94014, 60130, 156413, 76004, 96781, -54592, -167523, 156252, 215432, 161775, -35210, -121072, -111745, -176552, -11259, 168368, -14854, 31701, 144242, -42372, 213441, 208886, -13748, -60559, 73111, -36441, -121274, 134348, 127554, 16307, -132421, -128925, 11244, -52415, -35766, 107161, 76879, 144509, -103874, -35986, 79585, 46984, 160682, 44096, 193788, 56625, 111376, -33923, 1498, 95519, 169133, 76466, -8721, 144424, -229846, -149132, 71475, 1479, 63493, 6754, 59868, -85396, 59820, 104272, 127984, 211136, 25596, 28722, -159716, -55723, -20246, 110134, -64068, 83502, -170, -18577, 26098, -41016, -44988, -178760, -26000, -50328, -54105, 43712, 69063, 24347, 104377, 60352, -30939, -48534, 32802, 60164, 146575, 124904, -56778, -10696, 70361, 111988, 98458, -6698, -131494, -104746, 28588, 35885, -115205, 4673, 66189, -120715, 115867, -39587, 131870, -55937, -107649, -48039, -9977, -40735, -22649, 35019, -17949, -6932, -179225, 41073, -9354, 168851, -98521, -189614, 64809, 36336, -105742, -160406, 161208, 148280, -260829, -48048, 174503, -49919, -51444, -29649, -117535, -178759, 110368, -193246, 25928, 92965, -152172, -96917, 127211, 55878, -64727, 126065, 126514, 28212, -94389, -43353, 30030, -19776, 98457, -160408, -156685, 18966, -51542, -65751, -185394, 2050, -5532, 68522, 7225, -13905, 123417, -137622, 56244, -175232, -87909, -127156, 81993, -6859, -1416, -116049, -31425, -80055, 40208, -103923, 139439, -175697, -84570, 175867, -45628, -137875, 22971, -49848, -87647, -114910, 290285, -26377, -201910, 156627, 64075, -80370, -97845, 70619, -25891, -201953, 187406, -45507, 156822, 134054, -104963, 108338, -68309, -195738, -44522, 41695, -48521, -32196, 119912, 11167, -88426, 73613, 20728, -264409, 44916, 41086, 2110, 93502, -70506, 35285, -164308, 42687, 204793, -104318, -79671, -74451, 13631, -111467, 44171, 88798, 56030, -185432, 104351, 98290, 87049, 39095, 23089, 108254, 201695, -99934, 113050, -9041, -13597, -161117, -29862, -104571, -48639, -115153, -47071, -42584, 10145, -169319, -151574, 37949, -83617, 112673, 23621, 63624, 147922, -32476, -60239, 91405, 53426, -19643, 145905, -22255, 3437, 2225, -97999, 8135, 146461, 46658, 3257, -16963, 34694, 78619, 63883, -34799, 34056, 50325, -105612, 17640, -226629, 50597, 69242, 78386, -41424, 32406, 149312, 148244, -3059, 14609, 116487, -157370, -33877, 140045, 102257, 38720, -157898, -5233, -61857, 34712, -84866, -107555, -216517, 128116, -41919, 16478, -235, -111929, -132023, -105415, -75830, 38441, -83437, 183133, 107705, 84763, -12547, 158784, -22860, -3278, 17823, 73591, 66785, -49820, -55888, 67099, 74998, -41246, -166429, -21739, 65381, 189312, -125615, -44729, -40832, 142166, -3664, -95140, 58583, -42429, -128386, -93614, 181827, 40287, 11299, -26203, 30634, 29385, 30636, 12042, 91100, 2423, -102544, -64217, -207515, 212527, 90466, -87039, -29554, -66781, 161748, -148885, 12004, -11380, 86700, -10906, -184362, -26332, -101939, 8345, 150384, -182392, -83909, -57954, -40017, 77608, -18197, 43600, -65617, 24109, 81558, -76787, 81931, 5492, 109624, -21120, 39976, -4258, -10089, 27151, 56288, -131026, 150327, -195000, -71808, -9885, 43239, 165274, -194856, -53236, -223015, 3316, 28488, 166807, 12649, 109474, 61220, -45639, -147740, 28836, -156458, 135812, -16993, 125323, -50354, 28191, 21952, -4723, -45368, 41152, -97115, -126818, 130320, 76249, 6909, 174603, -28077, 138695, 18410, -107453, 193781, 103884, -12690, 76249, -42331, 86943, -250723, -106934, 102683, -26178, 21762, -141221, 193763, 124836, -21043, -42435, 107962, 207877, 100009, 227730, -96716, -85919, -124670, 46322, 18413, -15933, 84857, 129219, -159977, -62597, 85998, -49046, -83698, 106801, -135214, -31623, 34461, -60169, 82120, -59651, 147704, -13185, 70388, 78226, -65802, -215324, 37828, 7580, 58283, -23753, -45134, 210604, -154388, 76960, -60251, -35209, -33251, -84246, 59897, 145820, 49285, 10840, -103436, 54193, 226110, -39919, -39425, -58834, -51319, -287866, 42471, -88663, -168848, 78978, -113458, -35512, 153768, -147767, -160705, 28239, 120532, -165082, 42749, 60922, -215919, 83729, 91919, -32693, 131318, 119166, 10813, -47337, -102008, -3939, 59744, -33992, -230425, 133034, 19946, -39807, 89880, 159870, -293802, 45536, -149595, 52336, 13414, 66661, -52350, -196423, -47225, 42661, 106472, -122875, 107695, -67934, 38006, -53466, 19102, 93520, -128662, -71293, 19395, 251824, -90512, 213924, 210179, -10204, -31264, -72568, -7152, -147505, -7994, 156959, -64077, -25242, -178378, 39223, 27733, 6680, -22736, -30698, 52628, -3022, 33027, 22543, 117800, 70988, 20223, 159218, 44068, 136835, 63643, -193139, 136822, 14174, -5448, 29502, -36174, 23806, -62063, 133617, -11911, -40117, -96986, 28183, 19620, 40729, -107715, -167896, 65598, 155676, -107621, 166665, 29770, -741, -41686, -145177, 103571, -81328, -81769, 104011, -197445, -159761, -1902, 30753, 50828, -31646, 265328, -23896, -24200, -83570, 12993, 64483, 126204, -156163, -25794, 46840, 61557, 687, 56877, -84826, 163358, 104085, -141026, -112733, -109778, 71090, -134713, -34710, 47679, -6938, 27146, -111758, 62375, -64300, -34039, 24928, 10809, 2514, -78709, -31410, 229, -144188, -48500, 40651, -133949, 121276, 133129, -130564, 142357, -15056, 43884, -52078, 96788, 42582, -85370, -122180, -153124, 19707, 60028, 68259, -12371, -121320, -71521, 120833, -50817, 15038, -112790, 35293, -47992, 109756, 81113, -51979, -13282, -57789, -148838, -89909, 20785, 34106, 15576, -31639, 97839, 6663, 73742, -185994, -411293, 29757, -149398, -22277, -31677, 166451, 41943, 17392, 87765, 38640, -47991, 112352, -116366, 33895, -162274, 21385, 20236, 175789, -164099, -63008, 86265, 35161, 18906, -100258, -61952, 130552, -5401, 39359, -12078, -124056, 97917, 52768, 241764, -106491, 86253, -137525, 16499, 102394, -217279, -21489, -59057, -73606, 40392, 117512, -13975, 21547, 11986, 189, -114226, 116229, 30953, 41406, -84569, -48153, -18469, -160865, -177003, -62993, 54790, -68486, -106829, -85426, -47746, -37105, 227071, 110585, 107455, 122535, -104734, -128174, -116064, 139933, -57377, -131214, -45193, -25020, 28145, 26314, -86841, 71896, -67024, -16387, 72013, -67300, -59701, 62041, -89940, -40348, 58274, 215387, 63481, 49560, 55659, -112532, 12121, -3121, 33721, 12217, 39814, -32660, 6146, -128747, -33545, 145839, 33429, -2194, 198823, -142694, -116335, 179591, 4819, -25437, -125746, 46944, 57091, -114766, -14709, -35181, 26841, -117362, 131276, 96031, -38082, -22693, -14305, -81612, -46497, -28340, 169122, 99260, 98006, 38790, -117160, -4351, 101763, -131939, 66747, 243543, 111340, 148272, 22894, 101495, -75272, 83452, 68618, 30399, 137993, -56496, -19614, 10010, -107963, 23796, -180243, 109781, 4890, -54620, -87490, -24597, 72169, 57435, -73981, -88714, 68881, -75744, 6282, 12977, 32722, 89996, -132431, -200400, -59501, 188904, 212040, 192013, -20236, -186868, -245685, -64387, -20770, 136380, 90996, 23845, -93307, -100745, 26647, 73091, 41092, -108485, 68227, 44660, -112268, -82242, 72194, -24590, 166634, 52547, -51027, -1070, 6646, -76377, -95692, 73546, 88633, 63311, 158893, -56809, 175560, -94468, -106188, -184545, -46745, -52819, 55149, 25574, -125092, -41180, -38951, -186225, -102860, -80826, 150326, 20075, 69433, -157143, 125222, 136430, -209542, -73958, 51985, 67569, -71145, -32034, -62640, 11578, 125533, -80850, 104944, -81964, -88880, 85836, 96672, 89277, -137971, -48859, 86297, 4356, -112585, 48058, -74953, 188170, 161988, 63344, 142712, 6794, 80262, 154950, 25742, -26758, -178743, -8717, 86342, 99157, 52887, -56759, -207285, -51927, -31913, -32813, 64860, 208213, 12953, -22726, -27181, 13043, -86853, 12604, 47271, 21987, 47977, 45482, -185797, 66781, -70361, -114907, -115810, 45460, -23339, -176367, 50126, -150954, 14661, 25008, 92859, 186823, -143097, -5502, -28976, 45482, 22615, -36967, -46232, -117068, 103585, 48151, 96235, -32547, -68874, -113070, 37635, -109030, 193846, -137116, 28695, 164297, 62819, 18421, -101553, -144889, 80746, 157931, -46017, -119439, -257758, -102841, -11918, 167680, 70583, 31991, -41956, -61149, 147393, 21049, -220474, -70626, -89990, -57280, 59025, -11266, -8060, 137728, -73029, 195475, -70392, 9353, -29486, 12941, 46619, 45491, -78970, -117746, 262477, -50749, 73318, -168573, -29320, -13338, 49578, -285470, 17421, -120559, 34010, -108667, -89704, -28692, -110345, -49863, -125135, -192222, 106741, -135901, -18736, 78946, -64482, -86525, 23723, 117224, -122612, -15744, -181665, -41230, 3587, -89614, -47919, -147663, 8082, 110698, -115044, -65292, 52696, 127097, -156572, -17698, 29688, -10701, -259710, 52543, 159314, 12233, -108119, -53805, 185589, 95416, 67112, 37373, -69325, -21031, -8171, 57627, 158222, 117266, -148833, 23488, 77255, 64892, -65980, 305566, -133912, -113581, 24494, 221963, -87681, -27874, 112962, -1873, -35086, 59311, 28576, 108049, 135420, 32192, 30590, 22451, 51289, 5785, -64, 125475, 158976, -158078, 1051, -72215, -32608, 42207, 70196, -11757, -200628, -101192, 94005, -287355, 124511, 54655, 138011, -20821, -216154, 45127, 133657, 96964, -69488, 9098, -55872, -85906, 100180, -125570, -93723, -115765, -156264, 15353, 121792, -19386, -157889, 88075, 176759, -67763, -50180, 54071, 170066, -54509, -139717, 66209, 83788, 643, -58525, 104268, 55369, -80576, 5148, -141737, 71921, -27497, -45688, -3447, 4227, 93840, 61980, -16401, 80076, 42020, -44732, -13078, -15542, 52980, -38485, -40937, 206439, 98538, -79755, 59868, 12410, 41057, 14401, 124743, 36241, -6510, 109282, 24462, 12738, 32928, -9816, 968, -61519, -78766, -104708, -145960, -92245, -18273, 10813, -28448, -247013, 165107, 113926, 46741, 200015, -102484, 197932, -101210, 25033, -133572, 1541, 40492, -16220, 74855, 10382, -54779, -59435, 85030, -68550, 95987, 128211, -174977, 118796, 216051, 26425, 62819, 108738, -28886, 19113, -137804, 14537, 52231, 54124, 111718, -81244, -55848, 198758, -15763, 20975, -7027, -86159, 170239, -55334, -118204, -47264, -209894, -68292, -101516, 64742, -70613, 93093, 146642, 81912, -22585, 14797, -159906, -14028, -90224, 72805, 269773, 52410, -208786, -37878, 12844, 9160, -76631, 25721, -130286, -99081, 67717, -106500, 56436, -143599, 185055, -81188, -23453, 34667, -59281, 15037, 60331, 100728, 82995, -18016, -15375, 246322, 99603, -96660, 10485, -35142, -14191, -128922, -43193, 189955, 60721, -261217, 127583, 114256, -37674, 75211, -90115, -49310, 157134, -28493, -196056, -6638, -8241, 125658, 1503, -44206, 109582, 12666, -78646, 121110, 20307, 307, 18655, -112268, -55329, 376, -20412, 133424, 22797, 89643, 985, 110760, 41684, 1407, -1393, -100080, 53154, -4216, -52638, 116021, -131095, -44302, 107764, 33085, -5018, 26320, 18813, -159034, -36623, 169505, -69135, -33376, -56793, -9124, -61145, 51039, 20690, 81112, -110199, -35687, -23669, 47778, -83175, 96013, 124405, -103691, -51472, -55777, 276026, -45078, 175912, -132816, -103772, -71996, -88677, -28091, -74321, -85914, 121475, 128324, 99541, 54945, 9725, -52117, -99946, 38063, -123064, -104220, 120892, 199297, 41240, 116020, -25779, -140265, 64191, 59694, 7515, -25415, 100895, -103362, -81137, -105708, 8910, -114074, -71748, -74004, -27327, -155963, 9144, 130789, 14207, 161619, 139880, 81551, 7831, 2359, 80090, -41070, -197397, 51590, -118601, -100888, 23, -9975, -148067, 17353, 101307, -118315, 133430, -163596, 222018, -43124, 15269, -198394, -6515, 23958, -9035, -59043, -99254, 118544, 3230, 161560, -55206, -45592, 85521, -170181, -127241, 115080, -122886, -190741, 195929, -146152, 19306, 7244, -294716, -28030, 47020, 37152, 94741, -40631, 74712, -72281, -147898, -136077, -153313, 105863, -158815, 28735, -27884, -10763, 142985, -45972, 64131, 3939, -15940, 241169, -151136, 135175, 68829, -50282, 170846, -193788, -54711, -126719, 43210, -116713, 45410, -19549, -50264, 40753, -28167, -114152, 293745, -51083, -232533, -88300, -132884, 86628, 33728, 41808, -38800, -29292, -38895, -8514, 87591, 35240, 52441, 52383, 92741, 30215, 37628, 124655, -69735, -89731, -124353, 19180, -194378, 48460, -11450, 118976, -70456, -21319, 117672, 145032, -71319, 19061, 30872, 39180, -27533, 134363, -198150, -44159, 46969, 47943, 141847, 125643, -29941, 136301, -74873, 97611, 189847, 127396, 11091, -34790, -160284, 32562, -116939, -83166, -124859, -48276, -2933, 28691, -62968, 112123, -21832, -82599, 23728, 205893, 35144, -38048, -160166, -23007, 24634, -40641, -174628, -89188, 152519, 150366, -92971, 70544, -123582, 147253, 25715, 99577, -179841, 71055, -805, 89331, 95931, 6898, -63002, 81757, -6308, -91518, -96485, -154892, -53508, 115626, 18647, -55550, 84395, -87292, 9998, -18836, 81698, -165384, -89150, -171783, -27221, 127027, -53000, -53549, 91407, 112046, -9287, 71798, -112927, 144491, 225308, 54653, -218558, -58535, 64259, -44196, 133400, 61673, -74079, 3383, -93725, -19145, -58153, 123183, 221880, -150071, -201664, -25708, -159217, 4846, 78532, 156672, 21118, -20254, -207449, 2746, 7475, 66999, -74290, -45619, -154980, -240259, -116234, -164661, 35307, -54330, -56438, -103223, -338959, 158158, -104886, -43245, -152557, 101914, 15040, -86651, -41128, 175970, -7651, -19056, -98711, -198661, -16781, 34130, 115300, -235772, -117975, -60895, -365, -15208, -12760, 42792, -94717, 97952, 45451, -33537, 167867, 163202, 97821, -316519, 165564, 83336, 210387, 129758, 165501, 92134, 141421, 209099, 22707, -164860, -32240, 40889, 7853, -130711, -171030, -77717, 84698, 165711, 96109, 110879, -8474, -182671, -47733, -27133, -52120, 5735, 46286, 89445, -29163, -199624, -50633, 4583, 128221, -59539, 53744, 30418, 4603, 97573, -69294, -60313, -1248, -67124, 53269, -74784, 23730, -10504, 22537, -48207, -35556, 10067, 21189, -441, 178820, -103886, -6732, -165007, 39016, -116942, -29183, -39014, 29454, -57964, -62422, 150560, 29839, -58830, -26302, 172528, -24659, -72276, -71827, -57580, -62338, -134181, -117881, -86961, 62031, -39976, -21722, 133178, 135791, -29583, -66151, -90642, 72643, -21465, -40527, -85319, -80705, 33561, -137934, 104320, -55978, -15690, -140192, -1297, -34427, -5251, 154320, 18633, -83326, -74587, 62404, 136178, 29561, 72217, 63936, 148800, -204429, 69963, 103152, -140375, -92869, -89211, -76419, -50512, 25439, 90773, 113384, -87852, -88574, 137974, 67816, 8689, 49633, -3125, 55007, -35239, 28186, -158392, -72119, -70990, -39258, -97152, -55946, -158798, 57535, -8652, -178804, -87538, 35295, -56940, -73080, -7822, 36029, -150612, 57685, -83917, -1880, -3714, -55267, -107339, -29956, 170428, -142782, 177452, -27234, 3709, -113950, -80873, -52734, -109649, -21907, -42679, 194068, -122261, 10768, 25989, -112231, 72019, -41768, -261346, 69190, -117120, -109867, 72132, -36403, 96235, 126895, -67626, 83180, -79216, 234159, -72662, 107593, 88478, 33144, -70312, -15875, -225820, 23532, 36660, 13998, -311774, -132712, -78443, 30583, 30339, -17849, 66610, -107609, 63988, 49780, 39589, -19088, 191967, 51715, -101537, 26037, 78904, -61668, 114218, 40059, -245627, 31423, -42575, 56327, 99008, 20464, 174614, -18739, 65517, 84404, -10207, 81660, -62356, -44310, -137624, 25314, 34105, 123655, 82957, -29863, -123541, 45388, 116471, 79187, 113716, -22218, -48929, -77270, -5861, -8241, 21672, -13558, -14012, -81442, 98736, 8024, -18292, -78374, -139661, 137150, 58158, -170280, 80021, 96729, 13042, 167574, 22725, -148565, 38291, 25679, -63260, 60142, -174867, 103868, -92078, -103279, -11935, 45401, 17189, -77873, -53067, -118808, -23559, 112724, -447, 90116, 152610, -61658, -19564, 227666, 151450, -175364, 40595, 59, 86660, -78117, -88039, -70891, -59971, 85493, -123858, -65286, -187592, 105604, 133277, -34296, -31242, 47524, 154611, 42846, -73143, -169746, -116929, 7678, -68716, 20444, -57978, -110955, -123421, 163825, 93217, 181458, 56618, -45088, 138762, -3467, 23157, -4490, -309005, 168269, 51485, 34584, -6478, 17137, -62629, 64653, -137059, 19511, 58885, -20832, 38888, -103949, -101274, 24822, 71151, -196594, 54738, -56959, -20217, -140459, -89299, 101306, 3446, -40137, -12215, 51298, 46189, -7867, 114605, 101760, 43345, 5726, 68925, 32953, 111233, 94326, -106772, -113871, -73531, 102356, -165288, 41393, 38015, 121912, 18910, -140846, -100596, -123941, -56408, -19179, -122205, 154210, -138966, 141149, 124273, 94194, -72747, 35909, -133942, 95516, -7758, -42920, -128319, -259785, -108899, 116685, -42240, -17755, 68740, 189338, 138937, -101957, -203693, 247423, 237921, 19761, -133220, 101002, -11323, -11847, 93791, 35062, -124342, -34052, 69327, 53504, 27474, 97876, -37929, 18735, -353955, -47149, 80101, -40936, -48887, -109204, 105211, 57511, 86551, -181007, -16824, -29372, -29420, -64595, -36292, 89092, -200577, 186363, 50734, -4439, 95088, -152236, -69699, -12696, 143189, -4876, 47192, -61822, 51049, 175871, 104389, -8541, 70830, 60557, 53120, 116597, 115813, -13334, 67306, -40170, -96791, -28258, -7998, -174229, 90212, -290175, 284669, 157483, -27369, 988, 31769, -61778, 20198, -15099, -9885, 19028, -137733, 4149, 17139, 13511, -22631, 119313, -37083, 23837, 136032, -8323, 22488, -10107, 129748, -27024, 134569, -10862, -90121, 71237, -31947, 65064, -286199, 546, -48193, -111491, -58012, -60157, -5032, -143375, 33164, 143258, 29457, 84829, 114773, 129655, 196098, -52345, -75339, 82152, 74267, 81335, 198106, 1192, 44686, -102801, 223905, -35289, -32319, -36359, -67622, -76487, -54914, -143214, -82347, 204364, 77139, 97088, 123439, 192323, -185747, -128963, -84277, -49255, -31517, -46869, 22996, 3701, -75795, -228123, -104110, -57592, -25908, -118454, -51465, -118593, -13193, -112522, -89014, -137225, -16096, -90854, 95083, 42556, -7324, -83622, 39900, 72425, 14962, 168160, 48196, 95799, 14005, 70849, -83549, -48067, 36633, 35872, 53227, 115385, -149419, -102179, 24072, -75955, 354185, 54077, -8214, -54051, -50349, 3160, 11742, -47888, -28642, 140958, 145176, 26428, -140641, 56466, 162978, 143632, 77010, 149152, 5598, 65861, -71384, 30646, 139412, -61806, -90329, 10222, -23767, 68068, -47528, 180191, -135232, 131464, -80200, -188322, 24943, -26698, -116351, -176305, -877, 102324, 61337, 5946, 50211, -2854, -149917, -148992, -21304, -16846, 89232, 79409, 63453, -29390, -144772, 43209, 55068, -250456, -87487, -72462, 12410, -84238, -3999, -22076, -16688, -75119, -67002, -113274, 39853, 59884, -80805, 159451, -32988, 160452, -67332, -212502, 42173, 26062, 3606, -67343, -3625, -53609, -31704, 88252, 19317, 63958, -24313, -35863, -120951, -38801, -348244, -61889, -8585, 59105, -28173, 36456, -228567, -5960, -176109, -126700, -19626, 133826, 38924, 1912, -2048, -74829, -57041, 44814, -145266, 62186, -40738, 86566, 100778, -175436, -60983, -89709, -190078, -108269, 255984, 63912, 201042, 86937, -77788, -40032, 61702, 45876, -60539, -158334, 344747, -14801, -34156, 11884, -25452, 12869, 134946, -13060, -121919, -16950, -48696, 149307, 122801, 11275, -134085, -128544, 1586, 35266, -39282, -50349, -62160, -2453, -249851, -115482, -65751, 126616, -85335, 18923, 23755, 136096, 132391, -6030, -49858, -69608, -25277, -45512, 58052, 44073, 62055, 132045, 195336, 13072, 115287, -36874, 124257, 111307, 105740, 9864, -70082, -146227, -4198, 160748, -32490, 82326, 88495, -29747, 138029, -304995, -128215, -96011, -85953, 35260, 30413, 41313, 62504, -99626, -127735, 41557, -66085, -164676, 101853, 146287, 163280, 19609, 65634, 143641, -67257, 116463, 28877, 95810, 19513, 135922, 23438, -155606, 152246, -99356, 131393, -9463, 123314, 118989, 45104, 53324, 44316, -211165, 12408, -117028, 17950, -119846, -124251, 168290, 112140, -434, 19374, -25996, 59756, -70889, 104201, -26538, -44024, 2277, -61986, 34465, -56347, 49128, 127508, -75426, -13692, 48374, -45703, 48688, 58238, 113588, -63543, -98857, -32252, -101476, 59192, -121818, 244635, 135888, 1319, 90953, -171631, 264595, -61888, -12635, -194609, 50991, -116009, 10659, -57071, -113010, -84343, 23676, -134374, -78519, 69549, 272890, 50079, -96182, -38495, 3312, -36640, 94693, 22804, 95195, -32972, 138989, -17457, -101837, 228309, -191363, -77462, -65749, 263015, 189463, 156650, -34672, 254403, 38625, 102473, 18842, -5187, -26401, -21982, 63805, 38504, -3300, 158285, -311087, 53466, 75260, 120268, -6802, 21802, 103384, 156360, -31513, 27994, 176011, -222720, -72353, 153704, 114561, 54782, -47039, -92465, -61993, 162320, -65897, 10635, -79032, 88371, -56490, -10233, -176515, -169174, 805, -138953, 220734, -216166, -83904, 1751, -38287, -115778, -100446, -103878, -30065, 204675, 8172, 124036, 53160, 116797, -293598, -31925, 137063, -59951, 184809, 155597, -49192, -52761, -106284, -66018, -129246, 44964, -152678, 63306, 65859, -174190, 162510, 53856, 78612, -79552, 65261, 118111, -10340, 209917, 4621, 119620, 30724, 61396, -175252, 38908, -77068, -88751, 182882, -22415, -105204, -37658, -136362, 150354, -72947, 55501, 142198, -52445, 55787, -108012, 256458, 98187, -20196, -81037, -11953, -35650, 204781, -128507, 14135, -1923, -12311, -11389, -12171, 91548, 63857, 43926, -318137, 31436, -173606, 67772, 154612, -97123, -27450, -62847, 129544, 9964, 181228, 43385, 25423, 7152, 85773, -182210, 8949, -7345, 76066, -19682, -108919, 771, -113544, -201878, 76244, 60719, 48978, 136622, -69734, -150063, -7343, -36438, -88321, -8373, -64131, -192519, -46261, -119158, 24290, -68790, 116563, 168178, 71238, -162637, 157831, 165226, 1970, 138719, -57847, -195690, -79722, 181330, -156351, -50, 3580, -53789, -46507, 7576, -58947, -149114, 22548, 112551, 91181, -84907, -131201, -29799, 164395, 67696, 73816, 93308, 44121, 12647, 69448, -57270, -148317, 75812, 129786, -117255, 86185, 176241, -236, -85774, 12899, -57728, -64669, 45423, -168163, -151407, 2023, -2339, 36024, 196632, 10959, 62723, -102292, 80524, -55196, 7489, -11414, 108315, -137361, -239415, -22380, 49129, 15967, 129206, 45862, -59124, -243838, -24884, 107789, -41109, 2970, 44183, -106461, 65351, 171665, -18121, -118391, -6984, -233244, 35327, 47424, 175703, -20342, 42833, -90313, -37374, -159927, -20425, -32014, 31373, -65389, 8739, -34957, -34760, 8427, 4249, 79815, -12650, -36688, -18959, -74938, -37739, 212982, -95701, -29219, -40631, -25918, -34733, 29280, -179325, 108755, 66331, -130325, -237930, -102453, -25445, 270563, 56965, -189540, -72316, -5580, 26601, -137861, -14155, -75250, -115737, 27221, 81147, 88190, 60229, -52153, 74926, 32407, 14045, -64141, -52101, 7748, 255839, 31588, -64088, -87282, -51565, 228306, -41865, 95092, -39419, 27387, 83021, -59968, -67225, 173945, 103242, 82908, 82552, 48190, 211579, 4604, 60530, -152139, -86503, -125915, 133595, -267653, -42185, -313913, -87167, -51480, 145214, 41589, -87361, 111774, 1870, 3939, -126109, -103810, -86518, 4872, 8167, 161910, 40376, -283909, 27540, -152045, -101289, -85162, -69556, -144195, 21337, -147933, 37399, 234563, -139393, -29833, -264604, -31555, 67394, 75565, 8112, 93246, 266973, 179548, -54790, -152159, -42588, -99298, 47327, -123857, -7636, 87872, -10559, -99228, 123188, -197025, -34372, -4368, 1668, 18926, 64009, -3713, -38594, -42739, -64122, 82580, -67793, 88790, 1992, -54658, 64845, -76279, 66918, 22306, -62529, 55431, 57314, 121375, 101308, 51514, -118236, 256753, -147180, 99537, 45223, -123118, -13034, -8258, 136900, -74796, -27467, -244955, 181903, -112247, 34279, -10633, -10276, 84920, 175245, 26371, 68690, 34487, 106696, -48540, 112763, 116444, 113512, -69222, -17651, 25110, -143743, 167240, -1287, 29772, -60503, -139133, -63337, 22985, 70614, 16965, 36357, -35340, 52035, 155486, 73903, 84887, 30830, -157617, -109541, 47697, -1147, 46121, 175786, 76130, 132004, 9928, -84643, -6068, -84384, 163399, 82879, 54580, 129598, -211818, 61671, -137431, -761, -32685, 69388, 23927, 141046, -63113, 74356, 17010, -171473, -96324, -15716, 116632, 48625, -122421, -14713, 211582, 11663, -34323, 51563, 80048, -47833, 52699, -34487, 75427, 17794, 50538, -79606, -86118, 99143, -8325, 29888, -32128, 94238, -63733, -14219, 82417, 122995, -54920, 205488, 32846, -109359, 38698, -40160, 45515, -4494, 7788, -95587, 103815, -121229, -116262, 38521, 168070, -36972, 73502, 112548, 85426, -32633, -114405, -231478, -27561, 123531, -117877, 73422, -99631, 11123, 74217, -69153, 17877, -43525, 73940, 24675, 5925, 163405, 69448, -72389, -9003, -7959, 8422, 264714, 38887, -213480, -56917, -202624, -34582, -208385, -91393, -159459, 40282, 57, 31768, -10963, -146203, 53847, 201560, 42909, -44661, -149744, -95218, 47505, 112525, 27354, 83874, 74205, 53114, -69046, 18237, -88959, 1828, 34694, 176033, -137335, 50490, 155319, 79571, 87341, 61624, 136140, -114030, -145325, -664, -226614, 129043, 128001, -45440, -38878, -7586, 5455, 13335, 58535, -18101, 98901, 46761, -63645, 139997, -142424, -9664, 101389, -75820, 32459, 56973, -90232, -7600, -16411, -57854, 241348, -80018, 105375, -41188, -113942, 10781, 68062, 96522, 163815, 308831, 26268, -69530, 47487, -27914, 97095, -136018, 248338, 89763, -176581, -74347, 85572, 123349, -133404, 74766, -204193, -9368, 116607, -57831, -158012, 15332, -63409, 66014, -92833, -81017, -211917, 17820, -16872, -124611, 20321, 107696, -22604, 28119, 28659, -126283, 215649, -49372, 68799, 80658, -14638, 63627, 25776, -148650, -34841, -64231, -48417, -136735, 118115, 167981, 102551, 133225, -36138, -66716, -81641, 67535, 23809, -8097, 135806, 42461, -87940, -71398, 71512, 109234, 57848, 198903, 171443, 46246, -87932, -137362, -40620, 78980, 191538, 43772, 122549, -25722, 65302, 86335, -207576, -43352, 99583, 28780, -125464, -254817, -38355, -7506, -92686, 15004, 53098, 70327, -247036, -137813, -31942, 59997, 51300, 49479, -40204, -34355, -76371, 80551, -96520, 89133, 21795, -4723, -68861, -142139, -67911, -34604, -248410, -20694, 96926, 59477, -52031, 4922, -58318, 15599, 161492, 101554, 54609, -51683, 78637, -176882, -26461, 61207, 77639, 70242, 30915, -20523, 56411, -99915, -88571, 6473, 18161, -191430, 47726, 81026, -8104, 248981, -71611, -37863, -41426, -7989, -34469, -147515, -57310, -10236, 128825, 230922, 140035, -81304, -72961, -16707, 187125, -17346, -139199, -52552, 79383, 72345, -20994, 71661, -238359, 10887, 90249, -87332, -87696, -195711, 166713, -75514, 25275, 63325, 158552, -16137, -56563, 18147, 134646, -17844, -100125, -161560, -128062, 90638, -33620, -63703, -75075, 8918, -25109, -28640, 141487, 161273, -168823, 34351, -81460, -26031, 32430, -22305, 24165, 70566, 30889, -67826, -65976, -150964, -89540, 205738, -83048, -125135, 33547, -11573, -20509, 147749, 57580, -55574, -44510, -52700, 91723, -32312, -188026, -5067, -161169, 229033, -101258, -16973, 27075, -30268, -30412, 44232, 160035, 80479, 155033, -109746, 33278, 16279, 36815, 144308, -23151, -42520, 55992, -186458, -24836, -14072, -96507, 110841, -111384, -14247, 30740, 141920, -1107, 98163, 73463, 12945, -114244, -150427, 11168, -56906, 96392, 78209, -19358, -121395, 53555, -106740, -79531, -102699, -14523, 122704, -529, -46475, -159972, 57894, -81831, 12323, -37143, 87889, -16487, -6179, 50934, 220929, 93160, -9291, 335, -55036, -99614, -57960, -80966, 68511, -112323, 139797, 78858, 2150, 33, -58435, 28320, 114095, -73731, -160788, 73738, 34012, -117461, -76902, -90084, -75973, -33941, -27950, -68241, -79499, -23990, 17584, -33166, 121495, 53277, -166812, 54917, 63496, -45585, -156783, 846, -808, -117613, -152171, -9181, -24440, -43753, -8746, -115634, -45594, 55923, -36697, -175319, -49565, -112214, 28011, 33433, -173935, 79588, -116621, 163492, -5115, -130694, -119746, 36500, -41031, -10135, 169112, -73321, 6288, 148881, 28365, -168465, 52994, -121950, 147514, -86284, 311376, 153866, -83531, 2099, 79025, 82173, 46382, 131298, -12894, -38453, -36371, 90007, 38292, 30543, 83386, -215068, 32513, 22919, 174987, -160284, 163283, 7907, 51274, 175733, 58800, 41982, 25406, -50696, -2987, -75027, -4673, -244940, 44988, -12765, -35254, 23043, -150320, 202299, -10776, -15293, -101229, 2511, 145433, 108624, 89594, 57294, -37596, -152061, -21080, -24733, 109974, 32442, 169063, 125566, -47867, -188233, 145288, 142542, -143258, 158255, 40068, 16849, 169322, 141000, 68297, 49620, 64634, -41949, -5778, -94615, -34922, -38444, -66617, 14339, -33972, 52663, -170113, -11886, 13794, -32572, -18077, -166225, 37379, 67906, 51751, 108918, 21132, 50193, 16367, 72095, -165385, -93699, 166398, -257995, -14699, 122922, -9779, -42468, 13571, -37027, 3235, -71658, 116253, 149240, -13987, -145384, -54929, -19293, 53010, -105698, -80653, 53548, 98452, -65179, -139798, 344365, 82135, -27997, 91125, -13050, 90928, 16714, 9571, -11910, -151769, 203224, -98727, -142609, -22320, -100818, -5422, 72117, 104365, 85431, -32048, 5200, 42769, -184317, 59830, -152809, 213946, -42416, -19386, -80710, -66057, 238456, 98605, -162446, 157728, 125121, -29487, 32160, -1567, 206840, -83497, 15310, -44894, -150265, 229810, -123896, 23082, -182526, -41846, 44247, -86480, 61531, -28211, 121643, 142791, -61525, 8046, 19237, 64943, 1508, 19945, -25523, 12084, 136099, 67747, 73532, 75819, -16128, 33431, -113789, 133044, -291815, -9138, 119632, -143012, 41920, -71384, -38672, 99189, 20768, -213318, -102386, 102271, 47075, 183305, 176438, -35887, 262484, 2567, -100943, -66442, -236635, 168508, 167223, -106484, -23895, 10025, -100700, -184036, -22058, -33668, -40728, 23353, 149896, -31782, 17872, 76218, 58106, -64427, 10106, 57414, -118316, 132492, 150113, -75789, 20308, 67348, -57212, 50501, 17119, -153922, 48147, -115358, 98483, -70382, -16912, 143894, 52049, -113191, -106422, -62841, 41381, 37570, -88406, -122391, 29526, -19069, 226200, 3838, 190238, -122724, -164963, -117449, 124689, 184141, -82017, -48294, -122577, -189964, 75331, 23385, 1100, -146807, 171962, -52781, 55955, -152522, -19978, 30553, 34296, 16216, 51854, -118544, 20696, 11928, 24293, 7586, -133506, 