{"input": [520843, -144981, 679151, 1597013, -245528, -245510, 1655925, 804714, -492280, 568915, -485929, -488353, 253716, -2006220, -1808707, -589601, -1062030, 329512, -952132, -1480908, 1536844, -236744, 70808, -1493957, -570827, 116311, -1206904, 393948, -629815, -305863, -630935, 1942254, -14153, -1109090, 862501, -1280147, 219009, -2054863, -1392704, 206424, 774338, 179693, -121266, -315730, -1550343, -754811, -483015, 1108473, 360310, -1848682, 339827, -403788, -709804, 641389, 1081081, 976518, -879983, -324233, 347355, 1022933, -502451, -194678, -1160076, -1254314, 851995, 1422121, -75508, 1052281, 379203, -676457, 378951, 1612748, -37566, 1640648, -2747002, 861827, 91275, -313532, 96218, -2084117, -230343, 374460, 1549684, -543446, -847767, -526130, 959869, 344721, -555494, 538200, 101793, 1015698, -736156, -343579, -411155, -1534607, 310505, 273736, 5362, -245982, -1484124, -441079, -359362, -841249, -169120, 423678, 1977809, 183058, 270061, -78062, -2011977, -27802, 63156, 2582897, -201705, 316195, -36398, -1225448, 1198337, 788459, 829457, -953562, 1470936, -1469947, 615364, 2296859, -1038653, -593806, 104492, -527932, -1625988, 71893, -1113906, 496598, -964086, 1625224, -821301, -337706, 853035, -1290655, 238509, 1370639, -1685568, 193603, 272507, 819801, -1297037, -1384599, 547295, 311411, 262661, 363277, -713058, 243536, 307309, -749052, 1956406, 496850, -1249172, 688446, -1022028, 825318, 1214876, -860548, 1010173, 432832, 861993, 1988932, -257308, -790350, -932723, -855439, -80847, 357724, 290131, 867365, 13633, 1524141, -277513, 2852304, 656060, -898795, -1122912, 505909, -234318, 748684, 496226, -76367, -887928, -1588432, -468205, 897999, 224494, -1306252, 181593, 404035, -926792, 161192, 61036, -1198491, 375167, 588025, 1135662, 1104992, -1444591, -983381, 540054, 538744, 540067, 4039882, 598622, 1190727, 1000343, 683033, -330584, 795837, -810366, -248322, -508941, 85851, 2427095, -1957969, 719596, -1691055, -494856, 1141847, 67402, -1130097, -750050, 712610, -765845, 226973, 47786, -683252, 2248088, 664712, -2123516, 195512, -693933, 893841, -831018, -120310, 529518, 907810, -1258602, -350750, -498016, -685065, 1851213, 424654, -1322133, 962448, 2225242, 1082618, -1593175, -507756], "layers": [{"weight": [127830, -71403, 44781, 78160, -93527, -6006, -327042, -103360, -25484, -125900, 164709, -144300, -44400, 13192, 145423, -144877, 117362, 1033, -99034, 46626, 20085, -60561, 7043, -38878, 11454, 66809, 160028, -124895, 215222, -196964, -15315, 59361, 28352, -62830, -20999, -49743, -59466, 85724, 36023, -69914, 90769, 31006, 82017, 63529, -83645, -56522, 75401, 61586, -2109, 11838, 128915, -59689, 55202, -20401, -21964, 110866, 83284, 82083, 131722, 2119, 68809, -31306, 32708, -13131, 9787, 60051, -82558, 211120, -101506, -122511, 116853, 79878, 62973, 63400, -1236, -90532, 7649, -68325, 98389, -14838, -83292, -32428, 41664, -56879, -82961, 24588, 24717, -51150, -47527, 23414, -146111, -142012, -72490, -21537, 31370, 148862, 86537, -16138, -1919, -101154, -1868, -29125, 32562, -83467, 52402, 154652, -10974, 40532, 69635, -40483, 22611, 1271, 9855, -77996, 2473, 50248, 146419, 96790, 217255, -77425, 88017, 18499, 220950, -81557, -84727, -60478, -214300, -53048, -76596, 15175, 34483, 189304, 95897, -58209, -90649, 49634, -133211, 184793, 119005, -47339, -172854, 136605, -11557, 124895, -160877, -60477, 529, 4740, -45411, 62845, -107722, -14366, 12138, 51907, 71801, -113476, -154791, 128917, 33530, -75522, 156510, 11671, 118990, 6813, 207928, 177113, -25120, 98031, 65118, 138094, -97360, 69222, 106794, -177456, -119390, -205757, -27183, 72399, 151587, 7476, 164326, -139251, -171870, -5605, 38752, -3299, -208603, -8992, -131620, 67569, 36989, -94833, -51849, -106874, -6324, 96373, -99459, 50858, -53503, -80000, -10799, -104455, -55863, -120865, 198239, 3558, -70602, 21590, -11334, -22296, 61969, 76432, -53527, -58100, -27753, -232262, -152882, 137917, 165976, -25128, 58174, 31405, 310657, 112964, -12907, -96413, -162089, 20529, -76315, -143504, -65239, -109127, 170231, 88957, -804, 149325, 7806, -86903, 153682, 54376, -104657, -19205, -88349, -139523, 93451, 192659, -141114, 56803, -65649, -49151, -59772, -87176, 4896, -83842, 27289, -5069, -24110, -91573, -58196, 76218, 50542, -98635, 10023, 75814, -168442, 54825, -66858, 57573, -77012, -182111, -164218, 4852, 26206, -91245, 64434, -167646, -6667, -122191, -65770, 4782, -86815, -38801, 101534, -58208, 84321, -113987, 53457, 145453, -249387, -80406, 58226, -20487, 37448, -60942, 8737, -15708, 117828, 25671, 34064, -41558, -49199, -43645, 39800, -42477, 29238, 209406, 87896, -32896, 121202, -41175, -205645, -101715, -188762, -35467, 1858, 169151, 32987, -22107, 83686, -223102, 23773, 77780, -149188, 115404, 34154, -41902, 63847, 229111, 18350, 25045, -46349, -85749, 83780, -86378, 7221, -48195, 48329, 33666, 104687, -51460, -27230, -98757, -44829, 38069, 76380, -93046, 87743, 136783, 41715, 189367, -78075, -125585, -179472, 150950, 66025, -5608, 28249, -113561, 246775, 13038, 11038, 73229, 48533, 22590, -79758, 47571, 189895, 135752, 160751, -51581, -99850, -12692, 5623, 110403, -170768, 154331, -15943, -43072, -102121, -166974, 83057, 7398, -130156, -130673, -33880, 168403, -26193, -151666, -24795, -27518, -272114, -5478, -23301, 70247, 186558, 113670, -27131, -111648, 259650, 5975, 1405, -2434, 19987, -14566, -57882, -55178, -3305, -54831, -71926, 10739, -25727, 151752, -267481, 110132, 125729, -209204, -34577, -37478, -142017, -78481, -112056, 176803, 94409, 128299, 72816, -113921, -52924, 49378, -123312, 71941, -24249, -37819, 71735, 44826, -36421, 116976, -109079, 62147, 59843, -31233, 32907, -126236, 93234, -18656, -52742, 105844, -71068, -142113, -157063, 61146, -129194, 177057, -210065, 171171, 21292, -9758, -54982, 40273, -3797, 111322, 11525, 15165, -36688, -5746, 31057, -172555, -136031, 74995, 17240, -18564, 1860, 35071, -54461, -78530, 19761, -98717, 41192, -171789, 103841, 47685, 25833, 99153, 168045, 102349, -185743, -129108, -63044, 2633, 52231, -73227, 18845, -76218, -61702, -141931, -93154, -136384, -98465, 106312, -95794, 265605, 49775, 18650, -86608, 70661, -58081, 12311, 258311, -9692, 115961, -70950, -3530, 178672, -63261, 182875, 71412, -56752, 63809, 98130, 62740, -158435, -73368, -24974, -7510, 62625, 17930, -134735, 38362, 61608, 56482, 109050, 84142, 46331, -7080, -167590, 43348, 20956, 27402, -128823, -109078, 106262, -3991, 68763, 2857, 3002, 94672, -52069, 9699, -46643, -43840, -31195, 22413, -48305, 126705, -90265, -18855, -44369, 145999, 19832, 104112, -149892, 26945, 89763, 8302, 107506, -52194, 142202, 231957, -36610, -44951, 146645, 159378, -52756, -42397, -28432, -135654, -92691, -101317, -77470, -3500, 23632, 156444, -100733, 99317, -21591, -4991, 68089, -113282, 38585, 16795, 49688, 29177, 247738, -64348, -53577, -62874, -56047, -64312, 119971, 143328, -57588, -83984, 47565, -55719, 63862, 20475, -152937, 156142, 181203, -61830, -39119, 28844, 33746, 66447, 202828, -17854, -80548, -139172, -73750, -3342, 181070, -52227, 22580, -1657, 119908, 254966, -53564, -49384, 105355, 68802, 186331, 58918, -36252, 59597, 111867, 82786, 51184, 107627, 117981, 139459, 65454, -16862, 14803, 121736, -82428, 37199, -39688, 2900, 128995, 19282, 4685, -137208, 75296, 65129, 218271, -31055, 22112, 25163, 159164, -9615, 28153, 61336, 18829, -45045, 19584, 108329, -103575, 13417, -70642, 120579, -153688, -56395, 38060, 157960, -6634, -56019, 189807, -146104, -221858, 44397, -50657, -103042, 71473, 24599, -56915, -129182, 88030, 65605, -10007, 186324, -107971, -153924, -69813, -4600, 24553, -24341, 35522, -126279, 145675, -8289, 112734, 34581, 46086, 57489, 45173, 64850, 134111, 19829, 71538, -9054, 145307, -68247, 181714, -4052, -144364, 12926, -68718, 84820, -65849, -45020, -190653, -45637, -244568, -159815, 76725, 79287, 42928, -97567, -4814, -363, -116878, 151692, 88525, -22295, 2713, 21026, -206010, -24940, -68812, -101063, -28363, 181385, 64661, -57632, 57773, 141194, 93295, 6017, -65275, 70450, 39702, 90324, 64088, 105899, -54005, 132924, 19938, 209392, -69539, 175157, 19969, -65728, -48824, -32323, 42798, 52754, -57886, -2457, 216154, 174308, 44025, 3835, 12111, 61904, -103199, -25969, -168359, 40281, 65302, -48753, 158814, -123679, -147754, 22647, 105651, 169907, -46301, 108838, -3885, -17418, 89161, 65819, -159057, 148982, 139250, -63119, 39936, 49847, 26302, -55525, -67766, -2578, 118328, 54849, -37395, 77864, -287416, 115910, -175536, -36570, -112974, -130632, 117127, -47191, 34962, -4734, 48133, 7751, -129453, 100523, -49820, -157058, -43197, 151426, 85787, -35179, -35240, -32453, 209542, 38537, 43391, 103955, 24094, -26137, -19812, -7225, -3756, 73417, 5241, 73923, -8144, 7934, -201617, 92457, 34960, 100698, -292230, 210715, -14084, 111815, -104926, 61828, -106289, -62938, 193124, -19240, 21939, 87789, 50014, 15177, 36824, 242503, -5814, 20291, 106010, 111547, 119770, 64447, -115328, 164812, -115665, 30536, -76106, -6472, 33172, 32425, 42571, 162822, 45761, -24635, 97276, 120017, -123865, 60277, 70748, -30024, 138808, -15140, 12671, -17463, 1572, -110613, -145300, 160884, -85458, -100031, -217275, -64471, -133499, 165678, 101890, -69434, 227269, 99059, -32775, -252188, 231154, -140207, -166020, 103177, 246169, 139672, 56898, 60010, 86109, 76575, 28372, 10514, -6316, -76074, -28320, -170818, -9922, -99748, -111351, 18151, 140452, 92657, -158462, -99853, 94923, -99132, -22665, 55500, -97705, 10632, -134602, -60678, 32266, -160732, 44444, -1981, 55746, 22593, 137641, 12635, -43327, 12340, 54818, 4930, 4096, -70830, -66886, -141522, 176531, -125505, -69914, -72487, 90297, -29760, 125896, -67955, 28150, -84286, 216444, -119828, 31261, 63948, 41752, -18695, -13099, 4421, -14832, 97255, 223040, -56251, -138212, -8908, 260291, -81090, 165386, 169279, -55857, 57410, 164304, -38254, -20541, -58691, -102388, -65512, -123495, 3439, -77690, 23589, -156989, 33386, 84102, -201166, 37742, 123871, -122052, 168761, 42279, -71135, -5627, 56335, 7669, 54360, -92895, 17088, -142643, -11223, -91204, -74214, 124721, 110112, 61462, -110214, -31925, 122401, 14299, 234019, 39685, 19378, -31190, 13474, -15384, 71448, 96531, -79306, -134320, -185272, 51256, -111329, -217225, 39207, 251542, -613, 84603, 8257, -9978, 92734, -29288, 26980, 32459, -67410, 100096, -17653, -76254, 54133, -90655, 2843, -920, 109566, 47897, -2525, 82512, 140271, 56283, 1045, -132363, -107469, -30797, -61499, -18865, 5716, 53446, -7113, 49088, 6505, -199323, -94778, -14538, -122057, 60532, 154452, 122972, -21536, 150413, 15000, -34012, -61892, -30519, -39167, 17195, 16202, 307, 44087, 120135, 95809, -149825, -257689, 94272, -137917, -22679, -118064, -181819, 54633, 76598, -58169, -261434, -55116, 39533, -149221, 18501, -1545, 58450, 12066, -98182, 120733, -15996, -2755, -94166, -44727, -89276, -17450, 172710, -138424, -162807, 148440, -21121, -67509, 104926, -61106, 184243, 68402, -49230, 217671, -61116, 74877, 30198, 131345, 157555, 3229, -76019, 46411, -68381, 203149, 13776, -36861, 18634, -135924, -98035, 121121, -66280, -105633, 54148, 119637, 72542, 100500, -76360, -143460, 151483, -32558, -25309, 134014, 56123, 45999, 218447, -64931, 93618, 5753, 27101, 154221, 51240, 54314, 108215, -36823, -84676, -105420, -198404, 207470, -111313, -22324, -27930, 31017, 82307, 86821, -58832, -16862, 28512, -25093, 162180, 49539, 74149, 66884, 118403, 18265, -130849, 40328, -65721, -53337, 59164, 124942, 2146, 31161, 171752, 24292, 262508, 57060, -177660, 76012, 38459, 130135, 67924, -13970, -123531, -21090, -85817, -58574, 59387, 168492, 39822, -120664, 44860, 120739, -61527, -13522, 1482, -79196, 65411, -12204, 42331, -89547, -44139, 72888, -37619, 174249, -40323, 22671, 94098, -143112, -177664, -153938, 127394, -55682, 258120, -56932, 18621, 155598, 202413, 208004, 121923, 103327, 59786, 78536, -55614, -82556, -340, -17172, -45730, 70265, 96390, 8920, 149082, -115196, -19540, -72327, -188332, -8342, -12284, 152706, 63648, -103340, 187077, 123201, 58733, -22852, -96807, -37555, 109854, 190153, 155712, -49325, -112969, 14215, -178434, 32607, -14893, -47023, -160904, 51822, -53749, -118044, -289809, -2776, 178819, 167620, -46121, -60763, 47299, -100736, 30451, 77297, 123797, -10105, -20551, -88588, -83432, -22852, 37067, 92180, -81040, 150611, -27356, -2156, -75393, -244604, 89200, 74347, -28386, 6759, 52058, -157660, -53381, 80141, -126557, 29620, -136878, 47062, -3596, -162966, 117521, -74120, -81754, 20237, 115897, -102496, 6223, 43267, 69934, 17803, -37033, -83503, 8692, -108178, -294762, 44049, 91206, -238418, -101881, 62472, 207600, 2098, -73455, -18454, 138724, -65177, -80638, -48708, -96190, 12377, 163929, 32598, -25462, -29444, -157725, 89105, -7854, -18210, 322182, 30144, -75855, -43019, 115877, 11429, -145121, 92750, -67415, 189014, 108976, -45134, 129254, 6847, 86044, 48909, -85397, -64934, 103922, -33779, -40728, -96371, 42741, 208107, -107713, 2444, 142492, -8036, 45644, -107195, 43216, -18883, 99459, 119806, 261285, 58485, 32873, 19613, -35634, 34153, -29806, 16998, 132945, -101559, 115013, 132896, -11913, -214094, -61329, 130866, -2307, -100829, -50931, 84818, 55165, -24108, -37012, -39528, -93071, 162990, -32522, 122810, 153500, 100729, -43550, 40736, -2441, -91183, 32728, -118964, 119836, -46880, 20297, 28584, -26123, 59197, -47917, 87913, -135808, 12752, 195637, -100933, -68384, 51853, 18120, 35378, 49359, 64043, 111968, 41350, -24343, 67862, 191697, -13383, -98329, 111704, -12146, -219221, 85504, -54014, -9135, 33497, 19221, 71583, -43940, 51772, -26188, 74545, 62090, -94385, 109575, -54078, 81532, 37059, 185471, -22548, -35246, -1959, -30591, 80714, -163085, -106316, -107741, 95885, 172600, -10539, -17034, 7068, 117233, -93569, 24051, 98397, 50560, 19129, 101005, -272754, 68397, -65996, -184710, 51580, 138601, -13868, 96144, 162678, 132674, 165471, 74880, 7611, -161637, -24828, -85083, 219047, -17747, 12431, 55644, 4399, 171029, -62825, 19636, -74915, -133189, -61727, -3737, -43316, -69865, -141896, -8385, -151825, 76689, 8318, -147066, -31199, -75892, 32204, 135250, -189204, 11606, -16157, 67738, 21511, -75873, -32192, -80318, 108568, 2150, 191829, -6121, -71478, -152733, -181935, -159838, 26953, 51330, -159541, 90309, -48741, 14811, 162672, 90490, -27095, -89921, -217117, -72562, -21303, -99606, -13244, 7754, -22688, -65585, 17017, 44591, -110020, 142362, -9947, 1902, 71458, 23531, 96171, 28971, -61794, 36475, -115401, 10954, -3353, -20999, -12969, -189877, -55366, 9368, 16129, -103692, 127709, -87396, 97818, 43104, -65204, 179128, -120437, 92742, 100958, -67665, 140499, -25230, 29129, 26266, -13552, 81810, 80062, -176426, 131607, -167744, 104183, 113684, -110078, -41451, -111565, -21685, -31080, 78667, 132209, 140823, -56722, -21110, -169858, -81312, 97353, 163011, -124545, -59779, -2664, 28268, -81688, 42787, -47810, -1458, 55120, 648, -44031, -11060, -8916, -37334, -26112, 161302, 56596, -29814, 70322, -33682, 118367, 37297, -10827, 45174, -158500, -113690, -120466, 14423, 174810, 225137, 64379, 50535, -181725, -54755, -79487, -62643, -16966, -47634, -199710, 75464, -108239, 24140, 209273, -92765, -255304, -28858, 111086, 197596, -124061, 50117, -46949, -10690, 266812, -151649, 25602, 47190, 109555, 9886, 31082, -39517, 27155, -34628, 62716, -37293, 38049, -2953, 113618, -5186, -178898, 127327, -91388, -65965, -60102, 138680, -215488, 316597, 106555, 22525, -5539, 28812, 52581, 65102, 56060, 9039, -19911, -15263, -19666, 114397, 59889, -296683, 66180, 19649, -1888, -39201, 113422, 95605, -77983, 41071, -98039, -139202, -63235, 87015, 96170, 51770, 73162, 52082, -64725, 43581, 80761, 76107, 119960, 71467, 35461, 107977, -2676, -88981, -16453, -75160, -68125, -14582, -79955, -31073, -191064, 21521, 122, -82444, 66517, 94600, -162202, -76958, -77606, -94836, 83693, -19557, -26689, -202188, 64113, -125040, 6047, 27987, 137289, -132059, -304667, 18550, 181670, 125009, 21154, -49606, 81438, -98230, 48064, 51002, 106974, 278448, 39594, -51354, -2580, -178498, -70096, -41296, -52880, 15372, -82982, 113111, 21, -938, -33084, 15659, 83252, -87493, -66403, -30646, -135797, -82663, -48050, 88225, 26492, 19533, 85855, -13861, 39398, -10415, 26775, -58800, -246075, -13549, 143554, 93454, 97408, 124725, 8945, 19909, -62321, -31892, 62131, 121471, -14070, -45424, 53, 60661, -145684, -231683, -55549, -123169, -51271, -14911, -45732, 146553, 32968, 30318, 62780, -114907, 104846, -7645, 67651, -108150, -156773, 82524, 37979, -91016, -87748, 113556, -120011, 165745, -90872, 64413, -33157, 60861, -54901, -16426, 4129, -101120, 74749, -51783, -23066, -100329, -258538, -19275, 243431, 79166, -1943, -26525, 2267, 55204, -119143, 112434, 72181, 72464, 44242, 1979, 67891, 59714, -35722, -57876, 10277, 156295, -125025, -148072, 16624, 5135, 17490, 24615, -22521, 150326, -161530, -83595, -10418, -165797, -17744, 167641, 2107, 23278, -127150, -62190, -37857, -32057, 129317, 56271, -112145, 24872, 50270, 115040, 159475, -102422, -81815, -126889, -23612, 47055, 99621, -7663, -32272, 15312, -84265, 210833, -162212, 18640, 204180, 686, -19175, -36066, -18201, 138519, -223175, 154722, -143676, -26905, -43310, 59385, -161250, 46633, 204251, -137543, 19141, -66794, 42972, 1932, -64726, 49226, 182057, -19262, 72623, -130490, -96504, 47665, 149746, 35881, -31587, -71, -126165, 60995, 89027, -45616, -47427, 26827, -44065, -6673, 211860, -24925, -36156, -65336, 75088, -18285, -65521, 133319, 143237, -60582, -188333, 101657, -69079, 79774, -198782, 90062, -122206, 73734, 1440, -96252, -41070, 69249, 10685, 58967, 199421, -157831, 163176, 10529, -90687, -134228, -19082, 92994, -12870, 152474, -146423, -1220, -126366, 36690, 89486, -42455, -262763, 20074, 44067, 40793, 124690, -108069, 68633, 120323, -179458, 32253, -50871, -8226, 35080, -49161, -68178, 3446, -109702, -109559, 68548, -115912, 67230, 46675, -174133, -68366, 120485, -98999, -46858, 46622, 79044, -25380, -60288, 143516, 175454, 98766, 8609, -81553, -83791, 52721, 42216, 141420, 65630, -151660, 106141, -100704, -38742, 25245, 201361, 313789, 61218, -18484, 53931, 89564, -32355, 181136, 23214, 50222, 67191, 42538, 84648, -62280, -56332, -111005, 44345, 78594, 46189, 168955, -565, 67476, -110152, -39058, 70179, 85674, -29661, -7224, -153152, -36024, 89839, 58038, 50517, 5022, 713, -66626, 70511, 42476, 49644, -53077, -217271, 110702, -48314, -87053, 69972, -39554, 106947, 62255, 68972, -137824, 122284, 26360, -37260, 14468, -179221, 41233, -103863, -136483, -153605, 112269, -63492, 154752, -54062, -172271, -112657, 124692, -15730, -55322, 16146, 50630, 112745, 146153, -36300, -133797, -41718, 26262, -97243, -96576, 34688, -4909, 3309, -76532, -23247, -93254, 89820, 104456, -186279, -93787, -150999, -65587, -8419, -146268, -93015, -101299, 20913, 6997, -72823, 17841, -55160, -27410, 168850, 135252, -131127, 83719, 81869, -115859, 82614, 155176, -113264, -92575, 102681, 27394, 55644, 34365, 39421, -133840, 105674, 118011, -23145, -4387, -154488, 51888, 57720, -6275, 113446, -33708, 56968, -102883, -2376, -17592, 22733, -37285, -13265, 83348, -44069, -162102, 176532, 139388, -130388, 69591, -50750, 26586, 29687, -23652, -79081, -69675, -92443, -83930, -6778, -72220, 68819, 150062, -58527, 24156, 50418, 47625, 7664, 74936, 48659, -124879, 87697, 89527, -77015, 3828, 68947, -21120, 108263, 238513, -79305, -139346, 30655, 72805, -23294, 146633, -135064, 69915, -61131, 173484, 201043, -77355, -55450, 86732, -39061, -4582, 2562, -193694, -1396, -69593, -49756, 145661, -126781, 82052, -28147, -28228, 79748, 34311, 57574, 97689, -33429, -61774, -109491, -83283, 297561, 125587, -136322, -133435, 48620, 55219, 55382, -25725, -12658, 33083, 8667, -223926, -23187, -85906, 17679, 301210, 37079, -31635, 93009, 48703, 42387, 61231, 207504, -114106, 47789, -93471, 56051, -92695, -42112, -29774, 98459, 92671, -125692, 5543, -71596, -126982, -21897, -31126, 244854, 43685, -139001, -56985, 103057, 210722, -160025, -189683, 188779, 39312, -87610, 53944, -265945, 341, 33077, 93258, -102301, 8646, -93375, 25768, -90340, -41177, -100477, 65699, 86617, -23673, 3858, -146162, -30237, -5066, 264436, -112197, 147734, 100582, 28316, 177444, 37545, 39266, -5360, 123457, 110633, -63130, -133111, -20481, -80723, -6410, 124857, -46141, -4321, 5854, 85606, -226709, -61216, 21318, 121087, -49633, -189343, 62528, -64108, -120037, -62996, -18618, -61018, -222540, 90513, 128634, 65738, -114792, -20330, -658, 60418, 67435, -74078, 8273, 46139, 146891, 71084, 79615, 8458, 142314, 41345, -86883, 141599, 70418, -44703, -48380, 29924, 46735, 19907, 31411, 171524, 108118, 19235, 94978, -104181, 40151, 182558, -22001, -85526, -65795, -109943, -79182, -37384, -141821, 1576, 91039, -91592, 153295, 51539, 103985, -66375, 86221, -110175, 89825, 17338, 55823, -118617, -90312, 60260, -95688, 46737, -137943, 85580, -124361, 55727, 63126, -70304, 58726, 26278, -54369, -101762, -198028, 35279, -157887, 9620, -26582, 68525, -30476, -33241, 73845, 33807, 31900, 47349, -154938, 76359, 61798, -102583, -24628, -3966, -13571, 33686, 144424, 109149, -132402, 62766, 134088, 39029, 110079, 203037, 103292, 25155, 105449, 14619, 2412, -35457, 157747, -82579, 154615, 50436, -141189, 37096, -211891, 63113, 89319, -59768, 12466, 197173, -51029, -106843, 149499, 198024, 373, 102056, 135354, -74916, -48967, 124194, 170017, 56794, -88773, 200493, -53575, -33815, 34542, 156814, 86166, 41860, 46745, 4391, 56316, -255231, -29927, 24349, -116136, 38980, -20631, 177126, 158717, -46999, -15219, -7461, -45572, 19678, -76510, -114078, 62831, 63519, -81155, 90341, -63726, 25544, 82772, -3391, 45883, -52107, -19823, -20771, -75329, -17836, -156254, -49557, -28744, -25848, -24367, -6232, 48375, 88238, -65561, -121402, -105142, -49158, -35509, -77692, -130777, -46022, 18306, 60038, -56244, -41671, -93503, -3172, -85606, 57828, -180193, -36286, 30382, 18549, 271725, 35295, -101308, -9632, -179222, -8132, -84055, 92362, -55448, -11782, -64127, 175449, -32413, 184904, 82147, 48640, 37205, 39734, -194501, -28139, 85276, -4934, -141783, -5288, 171943, 125810, -6256, 96001, -36980, -171919, -93278, 157694, -27646, -24557, -30253, 192126, 164058, 223873, -16048, 29828, -153028, 149022, -117828, 21872, -110717, -59416, -84479, -61334, -54397, -55320, 84083, -111480, 22252, 122891, -51781, -72437, -23260, 119033, 19585, -53599, 48823, -111220, 68749, 41228, -31058, -84613, -89465, 53963, 124003, -64304, 46251, -210580, -58988, -3134, -91786, -94493, -67378, 29482, -18901, -225836, -213977, -61232, 46180, -277221, -50422, -53098, 140082, -38848, 38643, 14253, -214973, 77512, 21733, 51284, 396155, -210285, 174021, -29003, 28991, -4592, -42805, -57496, 33247, -153082, 75733, -41994, -114023, -45406, 126845, -54015, 36168, -73753, 76474, 69167, 186523, -17714, 67467, 9895, 130753, -72530, 75170, -19645, -6477, 9258, 25451, -11727, 21664, 159231, 99431, 87697, -45964, -89724, 96389, 88392, 148591, -60941, -23161, -165423, -39600, 100553, -47069, 64624, -19222, 32697, -115801, 8598, -301803, -18858, -164514, 121684, 78440, 47087, 153468, -95745, 176308, 94057, -23868, 114583, -111624, -83193, -61406, -53373, -106606, 123408, -26118, 35567, -57548, -183698, 27249, -192945, -6925, -138062, 200515, 91956, 10670, 127507, -85393, 54837, 20161, 26639, 128380, 73908, 29132, -166977, -96868, -12381, 9421, -114037, 243336, 153003, 60753, 7268, -21412, -96048, 7818, 26007, -125293, 33718, -15666, -192496, -86812, -41732, 190466, 56156, -134749, 49041, -156122, 109243, -47536, -9448, 133772, -129874, -140968, -58885, 104772, -153301, -285762, -45522, 55670, 121106, -46733, -41513, 116428, -188656, -39201, 19214, 45326, -51439, 3475, -251070, -66417, 45759, -99113, 5951, 45089, -34563, 17200, -97139, -20847, 61570, 15838, -59181, 22623, 72104, -206838, 116950, -33928, 42932, 120801, -138401, -71582, -29114, -79080, 175054, -86448, -56054, 20623, -121296, -39924, 32031, -33585, -9423, -53409, -152809, 32449, 177071, 1857, 22729, 69895, -128075, 171782, 20415, 164653, -73962, 183441, 78213, 55801, 23613, -25076, 121133, 14162, -198476, -112723, -18752, 31279, -5710, 122993, -196865, 14488, -183433, 76654, -9531, 42338, -87165, 129097, 105109, 58879, -13068, 58507, -71325, 86325, 166431, 108024, -73616, 36467, -130477, 57754, 45466, -188663, -117223, -28569, -30357, -122035, 39248, 25374, -19602, -76259, 105814, 167029, -48791, -61767, 49562, -36125, -14065, 74630, -192653, 133016, 7333, -41519, -9004, -3791, -174677, 150838, 4170, 44699, 96011, -103035, 47773, -27005, 85439, -214636, -9999, -60824, 43615, 47427, -71399, -71858, -11166, -90471, 84956, -37253, -293313, -37819, -104788, -164595, -124855, 11039, 134059, 31600, -61196, 46000, -46322, -70085, -116474, -176758, -39343, 15947, -9749, -41971, -95425, 61372, -132898, 78301, -101123, -75920, -147998, -50591, 98408, 52026, 98722, 52684, -111359, -33376, -78722, 134254, -120755, 90173, 90098, 184607, -41337, 71873, 230217, -62320, -154884, -189692, 71912, -190008, -37567, 44125, 18684, 42927, 22429, 129037, -96088, -68308, -77961, 83766, 90850, 45528, 119414, -118863, 168222, 153694, 74224, 179782, -167152, -52916, -74192, 72797, -105958, 76431, 138286, 70145, 28630, -99676, -85447, 126086, 78636, -3937, -42167, -204403, -108048, 192861, -129197, 19118, 101650, -126621, 18637, 94635, 1261, 289420, -168360, 106825, -17436, 77886, 44528, -73975, 23106, -187461, 60867, 30084, 64440, 106763, 37093, 14942, -88899, -71863, 119741, 144925, -24025, 4642, -91275, 118330, 67140, 195867, -88622, -38141, 23353, 65230, -21761, -88081, 88933, 72762, -92451, 136763, 118072, 13550, 8031, 55904, -86945, 3030, -217174, 88434, -157554, 151694, -33309, -21357, -63338, -29063, 143129, -251018, 128845, 34106, -121788, -108498, 169147, -95401, -116372, 114754, 34160, -94636, 21857, -103498, 111072, 107092, 53679, 36491, 177703, -32, -119250, 45352, 210481, -102388, -36471, 42019, -5439, -99114, 113195, 234090, 19790, -91220, -156289, 26030, 111380, 47944, -243, -59457, -110199, 84226, 92199, -155963, 160414, 57923, 141218, -135420, -137811, -15031, 50731, 181252, 71243, -24486, -103560, 124106, -97338, 164311, -28694, 160489, 68504, -13823, -52407, -34397, 43217, 7785, -59915, -16712, 7928, -214788, 46229, -98853, -116370, -170252, -181002, -136764, -71540, 197082, -53061, 17935, 40408, 13224, -7814, -120604, 146398, 182345, -169779, -103324, -28233, -97321, 51052, -73482, 218453, 120125, 21449, 103622, 111585, -56902, -82356, 7885, 86938, 14031, -159118, -81004, -7464, -7635, 199028, -139845, 51014, 150250, 229188, -40803, 49585, 57488, 19724, -9973, 43990, -255502, 68820, 12731, -22448, 206527, -68100, -40670, 200946, -83954, -55506, -14835, 84829, 20967, -130425, -53695, -61282, -7792, 42967, 42197, -179198, 107351, 25484, 139698, 44819, 111123, 47074, 135833, 52695, -9880, 229287, 89703, 57890, -128778, -129989, 29535, 14683, -61965, 14225, 160291, 70166, -115127, -11251, -81221, -39119, -41734, -48194, -126642, -12880, -56565, -295579, 207143, 109856, -37968, 1899, -118219, 171097, 191435, 15810, 103273, 17686, -134875, -41553, 13311, -45864, -22062, -9222, -8161, 5273, -107014, -72346, -129614, 98661, -212458, 116396, 139882, -30490, -262655, -36456, -6476, -101969, -51985, 154396, 67091, -93288, -161197, -32996, -21538, 50066, -54013, 51610, 195256, 82283, -4852, -18480, -35988, 119126, -63295, 4563, 5166, -50630, -138481, 32588, -6155, 50474, -53840, 123180, -88466, 172744, -176335, 43868, 47971, -80271, 42821, 129103, -223675, 50727, -251569, -97435, 164382, -58701, -118444, -19972, 208650, -184815, -106076, 151090, 187441, -10436, -125020, 211469, 160878, 68505, -81971, -4947, -16180, 33383, 146405, 88733, -108706, 138887, 31595, 69324, 147973, -112158, -3615, -53623, -158196, 34983, 253414, -185663, -3257, 64630, 12419, -11415, -131090, 23488, -76357, -220962, 120533, 96700, 5213, 23113, 108398, 22636, 91215, -30016, 132378, 32367, 19580, -128148, 28954, -83944, -64402, -82271, -107582, 214388, 134331, 193764, -123389, 7189, -130514, -70195, -92638, 125073, -39979, 107799, 60955, 232435, -149275, 127056, 115675, -98213, 101619, 33917, -22952, -83134, -72558, 206825, 69, 78916, -79801, -78687, 109171, -136171, -41895, 3433, 11237, -18070, 39938, 69909, 74124, -99467, -28671, 120551, 90269, -138521, 35464, -199601, 4736, 191483, -95642, -84183, 77090, -155668, -63845, 60180, -63999, -23809, 75088, 42534, 26922, -34217, 37339, -12485, 46192, -50140, -18421, -99886, -3532, -81829, -112406, 26099, 21465, 78991, -43500, 41172, 55575, 44877, -83308, 15071, 36741, 724, -210524, 16193, 223243, -36328, -73462, 37671, 31519, 120346, -126918, 73796, 59573, -14342, 34173, 103872, 88016, -115330, 82753, -6527, 7353, 7386, -15159, 120242, -8447, -112961, -39707, 18030, 124027, 60852, -85818, 250754, 26716, 128686, -15308, 53816, 84702, 122915, 106688, 88004, -31792, -57689, 33560, 94152, -22472, 107475, 146568, -92456, -84445, -14164, 31038, -52928, 136436, 42788, 3980, -144882, -132765, 28354, -215177, 102174, -15958, 327226, 232867, -18308, -10729, 100453, 171849, -165276, -180244, -62763, 58798, 50134, 107939, -121049, -233697, 86573, -83564, -203664, 14637, 80031, -12315, -46197, -16080, -37392, -136017, -72111, 52597, 32457, 16957, -100410, -18314, -219664, 18008, 144171, -148739, -59120, 33207, 126411, -45226, -69848, -198663, 10437, 206044, 27985, -2248, 32498, -1119, -82033, 83068, 22779, 1777, -98414, 131523, 67068, -55789, 101083, -50205, -78904, -76653, -178700, 47578, -184761, -123949, -209425, -8684, -15167, -32963, -105195, -118278, 46855, -55550, 31920, -89321, 18269, 131500, 59144, -41612, 25951, -24283, 795, -32854, -16581, 21400, -100229, -102501, -140103, -161466, -122823, 16090, -90082, 51823, 3503, -198621, 66087, 81809, -100280, 42397, -86420, 9855, -127587, -180923, -38626, -12484, -40126, -119468, -40350, 27172, -4530, 18414, -67614, 118225, -118675, 49194, 119252, 48523, -20435, -53305, 104540, -143577, -97885, -40113, 124878, 38318, -97675, -31310, -61985, -71617, 98769, -138408, 162325, 83568, 110067, -46710, -15129, -144604, -52938, 49809, 130772, -111711, -36879, -15266, -140834, 59667, -73050, -19715, -45601, -79644, -711, -21755, -37520, -73501, 32240, 166849, 14115, 100508, -140272, 15918, -110724, -149021, -74602, 120262, 95856, 24519, -154648, -19805, 30441, 17711, -186037, -89832, -6465, 54111, -221588, -16358, 14434, 85725, 69909, 58781, -80713, -192516, -39659, 101064, 140599, 71694, 43320, 38305, -56112, -13123, 168408, -95103, 162930, -32492, 133735, -141947, 59117, -74340, -142799, 22050, 101855, -85254, -151250, -9267, -8822, 55325, 95813, -5995, 187219, 22625, -34954, -162606, -26502, -33941, 96894, 46664, -118997, 17380, 67757, 154177, 89549, 76769, 6063, 39180, 126074, -134476, -35258, -77952, 38256, 124129, -60234, -241180, -41593, 92169, 54246, 43204, -28251, -129053, 51993, -84178, 220374, 57564, -58587, -61688, -9378, -24166, 112688, 18809, -73821, 190744, 4975, 77575, -61370, 36638, 31391, -190664, 203340, 130225, -40077, -111218, 35069, 8748, 35887, 19330, 51079, 146032, 57321, -105909, 137482, 165537, 318040, -113360, 24507, -210082, 55812, -55313, 194074, -78158, -170437, -47550, -199325, 75785, -208365, 2871, -209650, -32318, 165816, 36389, -87126, -3148, 1818, 47688, -137915, 59790, -272871, -63555, -49266, 63902, 2283, -141820, -99385, 20047, -7978, -58433, -48516, 70243, -52235, -8888, 218945, -143649, -186850, 79064, -68475, -32110, -78818, -26214, 161291, 80934, 86998, -142896, -116151, -286461, -81666, 96531, 52160, -22351, -2250, -69508, 20660, 77277, -163042, 30234, 94082, -41883, 70700, 283997, -10528, 39684, -74469, 18288, 46441, 19659, -102887, 20822, 147535, 45267, 97064, -23914, 75664, 28178, -95946, 32139, -100061, -63857, 19103, 29992, -119993, 106346, 57715, -71107, -155141, -14621, -44995, 11416, -36638, -202551, -39184, -30837, 63936, -70448, 169377, -192883, 132296, -22634, 86731, 8052, 114980, -39085, -110850, 143328, -11450, 22355, 124586, -104124, 60085, -59520, -13336, 7293, -151371, -78584, 136322, 89416, -6320, 24531, -29689, 136878, -20215, 23393, 115634, -78436, 157281, -154422, 164430, -37603, -24488, -190701, -45888, -104916, -61311, -13855, 96640, 20947, 31044, -110537, -88867, 181490, -74181, 167110, -24525, 231, 107999, 128333, -11181, -39173, -5642, 34100, 89932, 427, 62445, 165309, 38474, 31446, -153257, -265439, 39187, -9568, -51941, 24572, -6095, 113792, 8689, -75364, 99907, -21908, 53127, -48170, -65567, 8493, 1294, 48414, -27106, -185287, -43667, 80096, -30005, -24860, 99525, -71838, -155668, -16208, -48853, -97494, -17696, 49593, -937, 30974, 182972, -34596, 28085, -51379, -85397, -59017, -48306, 36271, 237020, -72248, -42037, -6369, 39936, 26592, 129564, -244821, -240839, -50034, 110717, -157973, -303468, 57632, 24585, -110001, -99440, -97846, 11153, -63195, 49851, -288030, -86456, -113618, -25865, -54289, 80502, -187606, 4590, 56336, 187334, -48610, 32738, -182008, -241347, 85237, -561, 118911, -138575, 52458, 188562, 42348, 27907, 863, -158501, 136776, -61635, 50902, -157709, -119007, 144799, -35043, 146634, -7893, -185846, 90009, -59520, 70497, 2544, -155700, 16577, 221597, 49742, -5803, 108501, 21256, 21142, -110144, 23595, 104475, -84358, 143731, -9253, -89575, 100660, -28937, 76634, -29438, -6036, 49800, 29351, -201348, -113133, 93777, -13332, -52844, -137079, -108945, -203998, -10219, -60382, -97528, -6874, 36724, 211202, -152548, 116981, 98185, -78610, 20506, -46175, 18736, 152270, 61105, 51318, -43418, -149740, -21034, 121746, -154090, -106458, 12740, -99351, -79965, -42741, -137790, -98288, 70975, -131913, -161224, -63569, 73854, -19869, -46876, 4476, -176141, 49915, 38688, -41299, 101497, -113764, 113805, 15588, -33958, -2005, -10823, 123126, -108636, -76938, 104562, -60089, 90863, 171472, -40541, 68749, -116407, 76152, 20122, 47729, -65138, -167602, 50778, -208196, -32020, 94965, 19362, 196586, 103433, -65978, 2756, -4780, -159640, -94886, -56580, -205453, 4792, -25131, -168794, 40785, 72231, 22908, -32698, 59676, 68634, 31017, -83203, 27909, 120623, -60199, 211681, -53036, 3270, -67853, 22528, -175789, -55095, -110194, 13656, 100339, 65182, -239299, 206043, 29794, -78348, 15854, 17777, -67285, 19970, -61294, -40800, -69245, -144555, 14715, 59056, 51951, 82730, 32726, -53752, 84721, -136973, -90877, -97287, 108977, 95127, 49169, 108157, -88719, 35173, -12630, 85450, -11626, -38840, 54577, 88405, -67436, -6162, -106796, -252053, 20226, 61438, 26442, -196709, -35400, -223830, 138202, -109582, 126669, 95438, -90869, -114297, 35352, -85192, 10341, -48717, -179718, -225053, 22872, -56661, -55806, 70212, 118399, -27500, -34366, 50464, -136914, 22516, 55685, 68635, -195417, -76820, -88616, 10079, 48507, 151017, -49942, -50205, 116001, 29924, 127905, 29132, -116752, -134512, -156546, 66801, 119929, 186599, 85069, 117330, -58523, -116682, 85772, 42144, 10841, 39086, 32609, 129536, 130663, 54911, 85341, 51869, -46532, 76337, -140704, 106337, -120526, 28837, -85275, 55837, -3423, -160910, 42448, -58312, 88907, 134, 39898, -96618, -59463, -46276, 86441, 169246, -81241, 108653, -218919, -120493, -96740, -136467, -159783, 41671, -21599, 38282, 69668, 26801, 66368, -7016, -119767, 106733, -59441, -94401, -17952, -92102, -42118, 34715, 35147, -90590, -49209, 108399, 50086, 209373, 119074, 115458, -140035, 77073, -5358, -55594, 16953, 95371, 50534, -88637, 74914, -64332, 21863, -30608, -22083, 77313, -104955, 196269, -183746, -60304, 37354, 58957, -10138, -5791, 41424, -23315, 140571, 84690, 88067, -97485, -8010, -30317, -101464, 36340, -54248, 66130, -107982, 173450, -90439, 22127, 79898, -57577, 86013, -124024, 146518, 1428, -60177, -30187, 81619, -58971, -75610, -22353, -118755, 183692, -57149, 83910, 21135, -99339, -601, 79105, -18995, 120384, 103070, 92718, -46379, -108955, -61911, 19801, 55069, -219110, -819, 15951, -28004, 130289, 42557, 132197, -21790, 94591, 164977, 132349, -110196, -25596, -34827, 49365, 69253, -84644, 6845, -203809, 145491, -51698, 5637, -31243, 115633, -286302, -1676, -10677, -45772, 174175, -89531, 77874, 35946, 127286, -67319, -73956, 110593, 42915, -155883, -54415, 38986, 84530, -68534, -294046, 52793, -123129, -203548, -285780, 82130, 12977, -22769, 140152, 64306, 163083, -140526, -3486, -163125, -23145, -25085, 63225, 4597, 62901, 70977, 217431, -31813, -94949, 24830, -80949, 149529, -28576, -57066, -47555, 72488, -15917, -64744, 168033, -86387, 3589, 65817, -164601, 48458, -106460, 83018, -97131, 69900, 111578, 86918, 25358, -23338, -58160, 148426, -70579, -104639, 67135, -80330, -95861, -145659, -48725, -8346, 24528, 95986, 53164, -19259, -19998, 51475, 128401, 12745, -47335, -100179, -145820, 67226, 58318, 58256, -12982, 141959, -48847, 96386, -3909, -61382, 59786, 41332, 36018, 8201, -3823, 240985, 119491, 72933, 11280, 101621, 52265, 2644, -30629, -8165, -319894, 21249, -49287, 160699, 1952, -119966, -5033, -105553, 47766, 29356, 96645, -79799, 3431, -137730, 70780, 52354, 50026, 163, 41850, 161877, -28766, 13989, -109589, -87607, 9869, 111386, -25859, -23804, -41054, -53957, 29762, -151072, 129246, -67141, 72840, -128142, 67485, 67799, 38766, -100337, 25179, -119370, -25504, 103867, 80387, 1532, -98357, 65139, 1956, -234118, 78967, -2445, 121326, -110512, -320527, 28159, 29419, -170588, -98730, 277999, -30836, 73753, -65651, -210910, -17179, -26799, -40347, -11567, 26664, -15147, -127537, 49056, -196690, -206880, 74583, 51158, -5791, -140800, -71428, -26511, -161025, -74567, 65820, 144014, -42321, 76329, -193127, 66538, -81118, 31011, -24998, 133229, -88230, 63325, -28202, -15973, -18551, -85328, -1423, -6321, 24341, 8527, 80517, 93181, -106007, 87659, -119700, 59314, 62531, -192850, 9382, -47271, -76559, 136300, -65956, -81363, 7638, 69176, -14292, 117686, 53575, -219780, -53423, -56689, 48367, -264842, 257193, 53580, 15022, 119219, 236473, 87858, 95735, 13187, -14280, -48007, -83354, -69319, -136270, -7655, -169982, 19263, -3666, 14826, -52683, 310453, 137235, -125573, 23496, -61347, -102360, -135212, 43610, -68751, 97653, 100272, 138627, -86005, 47964, 63814, -47844, -77871, 162399, 22954, 64169, -82947, -123025, -57457, -12514, -107379, -993, -170369, -113012, 67694, 60922, -39540, -102692, -103664, -37662, 65031, 93659, -50100, -116387, 27025, -83094, -52291, 133719, 83455, 15939, -128336, 21330, 107221, -37901, 136326, 130437, 167869, 30799, 59267, 142690, 45142, -50574, -45258, 24070, -130217, -14455, 110641, -221096, 154828, 113247, -46390, 54828, 318, 124105, 99152, -141266, 59254, -20748, 8358, -73472, 176386, 104941, -74642, -134661, -38914, 43841, 24237, 126440, 79702, 97829, 32979, -140179, -19746, 106962, -5199, 50761, -32161, -103907, -12445, 31183, -66158, -23783, -94791, 112931, -29710, 146582, 154250, -8177, -101752, -210466, -148527, -138619, 139087, 11687, 39311, -224039, -120874, 89506, 28935, -14853, 56992, 165051, -22303, 6999, 19433, 241362, -211824, 68937, -11583, 57187, -66328, -4941, 71781, 314090, 81530, -85569, -42757, -45749, -181179, -33306, 73942, -128569, 105791, 49216, -74084, -14280, 161270, 74014, 886, -23982, 7730, -51637, -212368, 206054, 15672, 40173, -5843, -74173, -18760, -161378, 229756, -124561, -104125, -44422, 129966, 1464, -124725, 126562, 73757, 54328, 72217, 241589, 220474, -69289, 163849, 38661, 50358, -170749, -17192, -82013, 83551, 108071, -209314, -2223, 113195, -18836, 73562, 35432, 34473, -27375, -122752, -113162, 71573, 1963, -13976, -42770, -30793, 105633, -33826, -135312, 75034, -20672, 3168, 162203, -2075, 29178, -118953, -22164, 61501, -156936, 20265, 10170, 4166, 104649, 33745, 149136, -100252, 13715, 8523, -107887, 96489, 234558, -1716, 50956, 8528, -72000, -183713, -71212, -140448, 171943, -11614, -34903, 89715, -113184, -77376, 6868, 103802, 50620, 25056, 7882, 40384, 20347, -103923, 4649, -108334, 8181, -48497, 256222, -4025, -141687, -13539, 52403, 168841, -59475, -159666, 82418, -139301, -44008, -25994, -7026, 69536, -68978, -27619, -1440, 15094, 9871, 43993, 85143, 39616, 45766, -159645, 5068, 48382, 73550, -69858, -66497, -57926, 54124, 104318, -41112, 91613, 12459, -12540, -21329, 75333, 32851, 229629, -85989, 52276, -53396, -87710, -1096, 13859, 294442, -18580, -114034, 27547, -209330, -9278, 1617, 80175, 98238, -50810, -15197, -77301, -113821, 31268, -128504, -41836, -100412, 55463, 181763, -131329, -186968, -12601, 1584, 22063, -45033, -20244, 37082, 104979, -197263, -37226, 21573, -92623, 174674, -64112, -4166, 56102, -59660, -186318, -43251, 103870, -33992, -85405, 93400, -33375, -51475, 15080, 77768, 240313, 83468, 117027, -51052, -103509, 6289, 10813, -108821, -17687, 40291, 36363, 50882, 29358, -51157, -51852, -120973, 180083, 1357, -22688, -93714, 296206, -108298, -43270, 41958, 60561, 96655, 182386, 51071, -106553, -25926, 31060, 208683, -141038, 121339, 18153, 84536, -10291, -85001, 75763, 66032, 98080, -1342, -60522, -157280, 82674, 42770, -97447, -54342, -47096, -149632, -82504, -114403, -41619, -74534, -164164, 204078, 126380, -78602, 27487, 42122, 120180, -82597, 110193, -55283, -134788, 73065, 130237, 261118, -121051, 70520, -41349, 79040, -148371, -127413, -78285, 7967, -64685, 66498, 103613, 60497, 163334, 41957, -122784, 137564, -61060, 91861, 158789, 46079, -150961, -92647, 133464, -17064, 8029, 76565, 70258, 28131, -21054, -31548, 86561, 55855, -25961, 109184, -13019, -85932, -76580, -98754, -27486, 124482, -81234, 19017, -66259, -26265, -152362, -22252, -19545, 54515, 22529, -120917, 109395, 21219, 20018, -926, -52241, 21976, 47987, -176261, -54361, -25724, 25847, 120404, -77868, -50244, -51714, -80874, -35031, 77773, -106331, 43166, -171721, -56639, -33245, 168992, -27727, -222104, -201686, 3434, 61929, 37883, 16908, 117271, -54444, 90296, -164669, -91309, -182329, -27732, -4668, 11513, 6244, -93589, -19195, -151091, 137549, -30636, -49328, 160323, -125342, -113571, -110608, -6848, 43551, 74633, 259512, -226966, 61421, -56214, -59169, -62535, -91694, 169967, 84987, 2340, 136317, -152613, -134267, -219755, -70570, 16315, 10378, 15068, -142375, 81038, 24178, 73965, -190978, 31429, -119845, -40090, 53917, 9191, -85920, 633, -154531, 116061, -20713, 112861, -53127, -52828, -77106, 88405, -71581, 65039, -38589, -199373, -57544, -118971, 3421, -120111, 93430, -9189, -17919, 66179, 97258, -2028, -77814, -178992, -69222, -62276, 10802, -34825, 69412, -61850, -5755, 119463, 34490, -6058, -60736, -63893, -85826, -54587, 76246, -22388, -136191, 178407, 32284, -141960, -44582, 11188, 171992, -111808, 98482, 141207, -63431, -28001, -104563, -20529, -3692, 66558, 109999, -75482, -198502, -2144, 29618, 25166, -32961, 12587, 152907, 38517, -37673, -50470, -17138, 165146, -18495, -1997, -48665, 110887, 197746, 45467, 8352, 3711, -240575, 75185, 13537, 43219, -71786, -38791, -41472, 103081, -38217, 210139, 43474, -128715, -12970, -65754, -221412, 161385, 70947, 53800, 16689, -139445, -48797, 84935, -106067, -255454, -22915, -14303, 13678, 73507, 64334, 26110, 120628, -153263, 50912, 63217, -125071, -151639, -75265, -66749, 76019, -62007, -86405, -61713, 112869, 1316, -18086, -11099, 130368, -75591, 132734, 21239, -16186, 252339, -106513, -35687, -124351, 96103, 170438, 168494, 123496, -19940, -36853, -168620, 205418, 47320, -49638, 134000, -98151, 41028, -17418, 64442, -6415, -146398, 7626, 105830, -2948, 78209, -105493, -2650, -63013, 75370, 3177, 69628, 109749, 69784, 27557, -100719, -281, -53788, -34716, -37790, -98874, -197494, -67415, 19512, -136030, 1582, 191736, 103226, 165832, 39465, 117801, -73048, -65013, -276377, 119681, 155418, -55815, -25624, -76064, 38609, 113505, -175844, 41312, -27916, 11441, 46312, -18989, -10452, -21580, 97904, 42253, 22257, -128238, -38198, 90675, 3804, 66546, 178240, 104795, 9400, -51558, -257651, -16990, -32894, 39388, -15529, -32327, -179540, -94842, 48094, 173134, -9840, 33076, 96104, -81819, 37011, -74715, 87260, 15276, 30114, -78964, 71339, 210346, -101698, -34281, 23369, 79348, -56458, -285851, 137141, 76735, -175862, -61303, 158228, 146082, 94708, -17770, 8373, -13210, 113839, -88372, -81305, 101936, -4476, 139086, -67755, -5527, -93071, 743, -149184, -49202, -144917, 70016, 72303, -174582, 134588, 251987, 4642, -64688, 284973, -133083, 2029, 18124, 135724, 36297, -50312, -95974, -34490, -101598, 4826, -56927, -150747, 126643, -50215, -127954, -16977, 6899, -176217, 33463, -105657, 172642, 52867, -40350, -75187, -10591, 61830, -2572, -21911, 5890, -60929, -34629, -210455, 98248, 30148, -78041, 191581, 8780, -104546, 86444, 40163, 39813, -42958, 45455, -26411, 56094, -192208, -43778, 173764, -77397, -60927, -45199, -122573, -222814, -23266, 13708, -5298, -14618, 4343, 103204, -19216, -57925, -28365, 58456, 142472, -63379, 9982, 34140, -100150, 2060, -147885, -178496, 37004, -38733, 20410, -1806, -98518, -4566, -124419, 140348, -136816, -19755, -105164, 57555, -33441, -52333, 86087, 2970, 52129, -99015, -141745, 10817, -32171, 63207, -8063, 20692, -163798, 190542, -16572, 70386, -84361, 31078, -131456, 45613, -35918, 2945, 70425, -124362, -69065, 46144, 211709, -13932, 59645, -10793, 195971, -176293, 9547, -164016, -252911, 30014, 14075, -28740, -10715, 312616, -26050, 51471, -65520, 29789, -24038, -41421, 183526, 118777, 13798, -232493, -36426, 272734, -23274, 111314, 145491, 22093, -84939, -245721, 69032, -82208, 17773, -126106, -26762, 3402, 27101, -112485, 120767, -60226, -168953, -11000, 3468, 16203, 137438, -23858, -12070, -111311, 82793, 18597, -42380, -192180, 145740, -123872, -59660, 36157, -120732, -150694, -214305, 72748, -55009, 295359, -100330, -92974, -57048, 24532, -47443, 61784, -98739, -139402, -181439, -224357, -52273, -30369, -63712, 125459, 123907, -33781, -181005, -57180, -60522, -66304, -70399, -65934, -39002, -64126, 21020, 36361, -91883, 128250, -98888, -163235, 38420, -82476, 32418, -242528, 140498, 67834, -151397, -149208, 168730, -74401, -84169, -228643, -35393, -22977, 72193, -141166, -153396, 45502, 101578, -158528, 109124, 3788, 110162, -7085, -254496, -15333, 106968, -90178, -39145, -17772, -292559, 168638, -90948, 51028, -8748, 126893, 40971, -23704, -90155, 80503, -189029, 65170, -110893, 126355, 16275, 64992, 8273, -176814, -86847, 67844, 16815, 119161, 40690, -97540, -80322, 10384, -233485, 168849, 44572, 123807, -159482, 125576, 225157, -133276, 77834, 112, -155832, 49732, 84110, -60653, 117640, -168175, -150820, 13783, 2561, -72302, 81687, 53567, 86586, -12424, 60800, -44966, 207229, -81985, 212423, 3520, -138788, 138038, 12703, 85878, 123486, 34099, -59757, 98449, 76, 69203, -217310, 45100, -64433, 166818, 62869, 24201, 49068, -100742, 163785, 200928, 39645, 160471, -57427, -80428, 4129, 43885, -39753, 54260, 30914, -100728, 52346, 87129, 17301, 116301, -122835, 47216, -118080, -112410, -63660, -95053, -55292, -21608, 84468, -32405, -159988, 115032, -84462, -5925, 45055, 20141, 110402, 48331, -86906, 219815, 19608, -14867, 97259, 25169, 40282, 251460, -27760, -32062, 11763, 108115, -152008, -198323, -59240, -164862, -42865, 50702, -89876, -143966, 6996, 87030, -171022, 82761, 82466, 96266, 122944, 222182, -35929, 11056, -42018, 199, 154666, -135711, -86879, 138957, 102921, -36640, 86209, 34428, 151377, 7518, 103486, 266577, 60348, 4977, 72894, -36857, 240944, 18169, -27539, -84320, 110709, 87499, -50183, 58164, -152212, 18663, 45683, 172268, -77775, -128985, -90348, -134859, 134868, 156257, 32310, 123228, 13516, -9597, -33603, -31318, -156172, 26663, -4070, 75206, 9436, -16417, -87903, 7280, 74488, -115362, 8826, 23514, -72452, -59314, 23268, -114361, 35307, -90341, 107241, 235885, -86850, 53901, -73328, 105032, -127664, 48491, -88084, -20885, -104030, 82975, -84451, 55693, -34719, -11550, 14908, -76868, 21226, 154410, -78509, 118235, 151157, -82349, -146814, 30468, -55233, 188541, 3512, -80941, -115748, 109971, -57632, 4422, 96440, -48861, -4634, -1672, 68947, 59606, -22209, 6422, -37512, -149090, 25992, 190921, -89167, -77998, -87856, 73111, 45252, -15996, -92627, 9321, -157869, 14472, 87936, -126245, -154630, 159364, -61726, 114616, -15538, -16341, 44236, -89195, 13369, -38492, -133237, 34052, -26568, -15844, -122104, 160571, 88460, 97283, -30819, -174473, 197048, -6165, -75553, 42055, 117762, -2326, 129007, 109274, -108606, -67985, 96615, -273701, -15080, -144370, -48084, -30151, -36147, -55723, -110701, 231252, 188426, -117252, 159634, -40306, 13035, -6384, -66568, 99270, 12702, -48084, -131632, -90163, -165614, 1233, -120743, -26795, 138242, 121008, -3257, -8787, 189678, 52544, -33075, -143884, 39742, 83678, -63733, 29382, -36684, -18569, -251019, -22378, 97809, -63708, 5300, -76275, 36368, -21847, -94769, 134453, 93729, -61035, 50226, 54224, 64808, -170949, 101566, -57482, -36105, 266160, 30459, -38980, -222513, 140226, -135731, -101246, -33433, 142915, 78019, -15926, 31106, -60578, 14091, 7400, 97748, 97588, 49842, -36561, 74849, -9280, -109164, -40691, 8529, 91840, -18518, -122007, 5725, 11448, 18751, 92814, 102809, -59955, -62168, -104955, 70510, 146185, -31792, -24360, 147997, 51010, 44016, -120163, 68483, -93749, -114422, -34989, -59106, -22359, -145394, 96744, 113783, -196485, 98726, -81782, 86468, -6906, 2903, -18676, 122303, -125074, 61331, 111123, 72278, 234560, -53370, 96591, -10704, 124450, -776, -39136, 131782, -49598, -142543, -52149, 62460, 140456, 11213, 133005, -137039, -44725, -29117, -11559, 8485, 69712, -44881, 14028, -4553, -93422, -11469, -14495, -16657, 3205, 7635, -43618, 128416, -118000, -72745, 280496, -104733, -136593, 74108, -209580, -23739, 216512, -155883, -199979, -151266, 90644, 113489, -51720, 68936, 140276, 180342, -24855, -232217, -82826, -43064, -26127, -18955, 112896, 128589, -17322, 110836, 36088, 6509, 91470, 7290, 207632, -145135, -51980, -12766, 44340, 127936, -2462, -143502, 85009, 76175, -195932, -384, -160444, -67063, -91093, 81654, 11788, -129715, 88798, -144670, 33308, -82133, -36897, 50881, 52614, 134899, -8299, 30921, -44167, 18363, 44344, -9919, -181997, 33445, 36784, -68629, -129594, 148915, 49586, -23114, -114726, -82921, 131430, 13890, -55554, 51427, -82172, 151434, 136497, -47077, -63432, -264168, -149490, -135152, 13641, -32917, -135743, -28369, 50988, 53259, -191675, -12942, -139578, 90984, 79120, -90610, -77293, -46542, -227305, 33899, -27530, 97890, -110829, -62469, -152007, -101332, -119261, 100493, -70454, 12529, -38419, -128088, -16981, 60449, -121862, 81639, -85736, -48733, 53546, -66940, 3791, -31752, 13053, -240215, -184614, 62151, 104651, -91867, -24622, 29737, 69945, -204591, -89401, -33557, 70946, 252090, -23006, -141963, 40589, 133288, 10899, -91480, 96661, 66951, -103531, 38486, 100623, 119252, -6705, -36130, 123831, -122104, 44252, -138235, 107496, -26037, 127999, 49583, -123422, 143744, 156520, 89022, -76844, -30877, 14674, -71004, 170757, 14562, -272766, 34241, -35129, -7560, -37193, 81430, 112976, 28560, -34236, -4171, 1978, -80965, 58413, 46418, 155429, 126664, -69184, 82768, -95951, 70219, -52126, -103246, 28256, -269862, -176672, -17909, 8318, -37264, -159364, -82525, 39473, 58701, -1637, 116724, 40097, -75418, -28302, -141548, -10911, 112210, 69145, 141462, -30561, 135820, -19504, 148482, -2205, 71359, 148838, -19517, 22035, 130045, -13420, -133277, 216228, -47399, 16018, 116640, -61397, -101693, 25602, -180920, -29050, 24724, -27238, -155733, 160851, 10447, 144402, -26237, -88793, 27160, -21773, -118835, 148300, -62787, -185682, 134011, -50883, -61329, -178126, 175660, -130108, 5898, 92083, 42551, -6019, -171697, -81701, 18949, -79425, 20519, 68787, 97116, -123721, 221640, 77438, -173, 109933, 238668, -145166, -22729, -239982, 19438, 36868, -3951, -66042, -206795, 37689, 146852, -59633, 44402, -158225, 46132, -39692, -76927, -76720, -39715, 38587, -132396, -40069, -4184, -110892, 181282, -86117, -67546, -98711, 181465, 55788, -94501, 111618, 20250, 25957, -34757, -75616, 34080, -54999, 183309, -128071, 154997, -11232, 30178, 84065, -63592, 87202, -273189, -72646, -93237, -126478, -21689, 38922, 70898, 24304, -67168, 37233, 12540, 94447, 78392, 3075, -90532, -65882, -55473, -31810, 27046, 72161, -5158, 1627, 14460, -52054, -93371, -177122, -70140, 47740, -70923, -23995, 47063, 52537, -108924, 100603, 113749, -114001, -83125, 120180, -14817, -223974, -141227, -25161, -117350, -41714, 3269, 147540, -29307, 108219, 144161, 144721, 28732, -198094, 46497, 105783, -8180, 176027, 86757, 57338, 109615, 33637, -251523, -50363, 120793, -81485, -22548, -105423, 179996, 169661, -89182, 14862, -68661, 62047, 51427, 81901, 33490, 296180, -103717, -172599, -39663, -158209, -150588, -101032, -93048, -96320, 52288, -51074, -18113, 90227, -77321, -26692, 36905, -195903, -240635, 34923, 49644, 208278, 15952, 82711, -19723, 29990, 168225, -214309, 41734, 215479, 28457, 166542, -63487, -3234, 3383, -223753, -117868, -110674, 82946, 88000, 32695, 83151, -16563, 121274, 887, 5838, -26798, 69061, -42499, 98521, -114233, -110880, 69361, -8934, -45797, 89806, -61272, -20200, 141181, 155298, 158654, -28466, 124177, -95749, -91506, -237159, 168791, -87175, -12767, -91851, 70142, -37901, -131655, 44563, -144662, -84494, -212584, -143676, 18013, -198220, -149447, -239, -54850, 200995, 185039, -87573, 56215, 75602, -60285, -150899, -1241, -17440, -43968, 44629, -75748, -116236, 11006, 38944, -118723, 93644, -178640, -58331, -26033, -64195, -57014, 188790, -85854, 246317, 44106, 9288, 48052, 255268, -100253, -113049, -76165, 3243, -174129, 2254, 170878, 15277, -29532, -62372, 90659, -83326, 186300, 195075, 25906, -1162, 103993, 110464, -81324, -53129, -133424, 41274, 67262, -136207, -45929, -135937, -90688, 55597, -74008, -30353, -164195, 18867, -4467, -73551, -19071, 18192, -82220, -148954, 182181, -63897, -9763, 101993, 356079, -125568, 45387, -71392, -54364, -72669, -113578, -4166, -148776, 95532, 5550, 42623, -47038, -37051, 29015, -117452, -36121, -86734, -89858, -212881, 135137, -69271, 117384, 107840, -129756, -109820, 258353, 176667, -3180, 25969, -63652, 43624, -72363, -205063, -133344, 2128, -114124, -6788, -108433, -78939, 86084, 24971, -975, 88687, 48493, 145957, -46399, -43350, -131281, -43284, 97345, 131168, 96894, -181033, 109289, -185505, 90619, -37109, 70885, -134443, 118170, -147815, -67447, -100707, -177006, 9538, 182233, 269089, 9803, 112672, 23418, 50337, -34523, 19683, 54231, -58366, -7819, -5896, 83383, -107562, -5201, 192920, 117453, 136131, 2465, 32388, 101125, 157429, -196915, -132727, 132122, -27938, -67776, -126544, -56001, -141498, 210990, -2264, -5847, 59337, 97100, 95439, 108328, -63652, -30055, 77595, -53213, -515, 40235, 79225, -179367, 72117, -23583, 71382, 78392, 162237, 136562, 135868, 145665, 29400, 3247, 88067, 73866, -31185, 40846, -3541, -86161, 130207, 5570, 206713, -164011, -56179, 3293, 114761, 40306, 31326, -113740, -116735, 32540, -137637, -53666, 50542, -99116, 161979, 123494, -158555, -94076, -230633, -78963, 77328, -41762, 46494, -153602, 80515, -56010, 1228, -9371, -128298, -116345, 97650, 40258, 105949, 32758, 14428, -174153, -27280, -2763, 197067, 69313, 154987, 60291, -71770, 11818, 23835, -94760, -38784, -20762, 162006, -209945, 121666, -94522, -138442, 119055, 73848, 126580, 80790, 207837, 56375, -15788, 34601, 125465, -78638, -65775, -31174, -212351, 13932, -190309, 5354, 87307, -48116, 169220, -147363, 120197, 68121, -173147, 273517, -6432, -88537, -141974, -22200, -12855, 10357, -30047, 63892, -39112, -195236, -15070, -238877, 35695, -98811, 16483, 132589, -95728, 107080, -43729, 176896, -36844, -84805, 69342, -43971, -84902, -48214, -4501, 135425, -195148, 2329, 63052, 19519, 132164, -7501, -18621, 59766, 10021, -39392, 52079, -65840, -61667, -53274, 136524, -324998, 39916, 3458, -169599, 31251, 48003, 59494, -267568, 137868, -74437, 69274, 74774, -88458, 66640, -38896, -209000, 117824, -78201, -86218, -40669, 27468, -5779, 55300, -135154, -74906, -11704, 191495, -11484, 109498, 3890, -48801, -24894, -16993, 60907, 138697, 36292, 119775, -97347, -41836, -73082, 31727, -36219, 73634, -93937, 4342, 69303, -208388, 214071, -28570, -204325, 15952, 3374, -8263, 100010, 75417, 30055, 45420, -10530, 179146, -149250, 14091, 6561, 82059, -85144, -175935, 15823, 28376, 150299, -128179, 116508, 238870, -38116, -130255, -41063, 1413, 56886, -59671, 156918, -112455, -175485, 111666, -229508, -20597, 314572, -1215, -113085, -5791, -5126, 16209, 66822, -104846, 170272, 24732, 73333, -63380, 129795, -25936, 28005, -94150, -100590, 69439, -44760, -86150, -64897, 70524, -63469, -11871, 1516, -193459, -148436, 33930, -74366, 106623, 97550, 72564, 183614, -8384, 65472, -58966, 247442, 200147, 1199, 39006, 137152, -14846, -66253, 88185, 7914, 18464, -84177, -173312, 23827, 91310, -22784, 144935, -71025, -106419, -6783, -8334, 77689, -78193, 138040, 198460, -3950, 126095, -106600, 108489, 105669, 87120, -1570, -298082, -64750, -63154, -98705, 12334, -42273, -83203, -106832, -72195, 113158, -66697, -51957, -46080, 34204, 46035, -307204, 103082, 144928, -105963, -98104, -45430, -76280, 22594, -196403, -112798, 155304, -93657, 125461, 35853, -182554, 64104, -11873, -45956, 24716, 47890, 71396, 118885, 41181, -138800, -47790, 296951, 73101, 239059, 140798, 24398, 30412, -3691, -175343, 1821, 122156, -60503, 41566, 85925, -91786, -45536, -102707, -82956, -129918, -90855, 143222, -92371, 12760, -50739, 118947, 132295, 87184, 30889, -23314, -120259, 196101, -76650, 66961, 106909, -56027, 104735, 77109, 174350, -47357, -129743, -51004, 21073, 5874, -39698, -192637, 47471, 199008, 46843, 61461, 57759, 40062, 94004, 39893, -31549, -80315, -25121, 31695, -31893, 31717, 44310, 84067, 129433, 7871, -131954, -34821, 4446, -185228, 140115, 14366, 38478, 137781, -63581, 57920, -11085, -18574, -77914, 168058, -37888, 70575, -189187, 119060, 106167, 9831, -22898, 40360, 230937, -177909, 78906, -91982, -2010, -25011, -43217, -1056, -114437, 103844, -181028, 54462, -32947, -118145, 20420, -157095, 4007, -143567, 46542, -93267, -45505, 29659, -77949, -5849, -152744, 63655, 178079, 281732, 9199, 79529, -179664, 151625, 78321, -48829, 124831, -25676, -46214, 47961, -107292, 103081, -106549, -105950, -91787, 76633, -62232, -136012, -61113, -3233, -119159, -116204, 213028, -86830, -32595, -37054, -42515, 62693, 95667, -30871, -124760, 128590, -9620, 174588, -226578, 19716, 193586, -35644, -22752, 29817, -56382, -31488, -34085, -63306, 123991, 46522, 25288, 81584, -26673, -78117, -60804, 180, -106874, -50476, -52076, 214366, -279876, -18123, 174121, 12294, 76019, 10072, -67333, -226208, 20730, -78258, -80753, -50347, 176055, 242646, 21916, -46895, -118781, 47275, 179894, -24956, -240039, 67608, 99426, -160011, 17807, 45528, -7376, -79788, 102507, -40701, -149854, -206790, 127219, 62221, 8876, -44423, -53376, -108541, -43534, -213915, -74268, -31373, 61536, -4029, 80207, 136127, 106769, 47474, 1197, -98961, 74660, 169485, 34518, 193450, -153929, -116454, 86289, 26667, 132560, -1561, -87578, -21551, -154647, -113874, 98119, 88064, 36627, -173655, -36163, -123602, 118711, -58897, -109551, 3006, -64591, 149709, -74142, -141181, -217227, -3106, -56698, -144175, 119992, 67325, -2847, 137660, 66849, -83026, -104857, 82534, 39993, 17127, -85411, 61341, -76229, -10290, 145996, -66678, -158713, -106201, 100324, 25702, -13004, -51367, 48972, -85674, 30841, -73783, -90573, -64322, -37878, -4927, 23757, -372153, -81491, -39509, 151860, -108971, 16426, 150847, -132478, 39752, -80949, -50917, -81033, -73844, 274639, 85205, 111165, 49642, -162070, 39851, 108258, -86107, 97401, 71067, 186869, -42154, -110748, -36488, 144848, -184485, -208698, 9020, -44657, 780, 95381, -55754, -188985, 206287, -100620, -106856, 111365, -38795, -6396, 48713, 109333, -33646, 153362, -215501, 76662, -84708, 138461, 14332, -67896, 66880, 90122, 64767, -103896, -48837, -411, -4163, 75649, -203302, 33733, -29259, -84604, -74916, -21647, -363347, -70760, -88369, 53757, -81277, -21705, 155615, 100329, 91039, -50437, 54792, -23600, -19786, 41337, -60236, 150643, -16157, 62392, 146869, 104093, -142159, 44890, 85837, 89988, -112331, -66294, 100350, -76861, -30239, 159005, -4823, -73331, -88551, 33571, -134514, -24956, 33623, 131083, 67355, -72049, 118902, -30221, -124682, -17359, 145110, 16673, 1263, 165193, -144423, -129716, -163038, 37600, 16799, 155661, 24566, -40779, 181, 11877, -168679, 273470, 52455, 21190, 62070, 71579, -14182, -63692, 60484, 38918, -81717, 143180, 29599, 73638, 140444, 2209, 31980, 81731, -73138, 5454, 12668, -96466, 233848, -141995, -130978, 132605, 71968, -103519, 61275, 148105, -3054, 262219, -173957, 70006, 117702, 89936, -20619, -29305, 44814, 82309, 60789, 104941, -102803, -22982, -94847, -38958, 102435, 10895, 263030, 19515, 6023, 10714, -64354, -5836, 113793, 11500, -80060, -93340, -45425, 7453, 120432, -135254, -32270, 14561, -185020, -84109, -68600, -80313, 19362, -16200, -56028, 43181, 173857, 165400, -194006, 58226, -17962, 15655, -40186, 11865, 15277, -58416, -90443, -45273, 23637, 60438, 86102, -49863, 28640, 97116, 117608, -5936, -22292, 19284, -116005, -19535, 75128, 64772, -27270, 21968, -83207, 70982, -7852, -27843, -36498, -6346, -45191, 66406, -39884, 160729, 147839, -89956, 7033, -65651, -32959, 202043, -31034, 36347, 54619, -100963, -86279, -121687, -89394, -287566, 54948, 207267, 14915, -142900, -64856, -46300, -102674, 86792, 81755, -116584, 73160, 154054, 191967, 289098, -91010, 284962, -35739, -59779, 33001, -58730, 40263, -133195, -24090, 129714, -5757, 14287, 47953, 118119, -167011, 58978, -27055, 16814, 106948, -120493, -102175, -195283, -55410, 134240, -12167, -135218, -49005, -150124, -113530, 39232, -118443, 112264, -7176, 8636, -28088, 77980, 79020, 33807, 56987, -21400, 54708, -34092, 225, -27711, -46133, -69531, 47190, 132239, 118163, -126787, 130080, -32102, 60614, -91436, 14326, 31654, -149796, 61374, 135804, -17622, 137240, -19140, 85722, -223852, 244053, 150891, -28719, -198982, 29062, -145691, 44885, 41527, -94987, 113105, 81282, 98460, 894, -142825, 98667, -27280, -140228, 136420, 211829, -4162, 217854, 9214, -38388, -63613, 165180, -78716, 74188, -56419, -46445, 103951, -38345, -40844, 114299, 161176, 65049, -66066, -51520, 8063, 32382, -99675, 72954, 8628, -173114, -93728, -50866, -7351, 190627, 24031, -84833, 22261, -35525, 32768, 58579, 122010, -2450, 165370, 91619, -71380, 222973, 32994, -84263, 166778, 209646, -3332, -50818, -17393, 72116, 128935, 57562, 10264, 151148, -31565, 104019, -29065, 43490, -11458, -5635, -38078, 135695, -73952, -74689, 214007, 98664, -240656, -57034, -182828, -95924, -316674, -13822, -115221, 6044, -163974, 8366, -41865, 151546, 142405, 79241, -32955, 200323, -156700, -141618, -8454, 227431, -20416, -18489, -145488, 95444, 96175, 79617, -63488, -71306, -130475, 8463, -109012, -118800, -42750, -49356, -54282, 47064, 7976, -29075, 18466, -100044, 10623, 15196, -151656, 100465, -88936, 9112, 117488, 93400, 3464, -36576, 95603, 68076, -62393, -80204, -209099, 15542, -8344, 114641, 36228, 134623, -70364, 114839, -53367, 78459, -147188, 23725, -200254, -26954, 44431, -52565, -105988, 85373, -10439, -49397, 4227, 266038, 116388, 117303, 43946, 16798, -241763, -68509, -48490, -189175, -116782, -199865, -3867, 82613, 111673, 41851, -97206, -194944, -177267, -128039, -89685, -16119, -102328, 34202, -23436, 1064, 115050, -119085, 42247, -1410, -33649, 89322, 88692, -95500, -18380, 28374, -27546, 59028, 28372, 184904, -154404, -12354, -91667, 60954, -163171, 34943, -63571, -74076, -145951, -46926, 109425, -2542, 63332, 167961, 26613, -56382, 47145, -54919, -50896, -153356, 93459, -38947, 18374, -104528, 43987, -76879, -14298, 88572, 79787, -2223, -178403, 301972, 176156, 72917, -75998, -11461, -54831, 127522, 26486, -79122, -47499, 113127, 161449, 154208, 76384, -25490, -327066, 29983, -185, 14124, 5438, -133819, 56242, 63790, 68847, 95509, 60948, -41372, -7147, 9194, 10867, 100719, 64946, 209602, 222631, 8037, -387116, 124795, -54524, -80869, -40203, -45066, 61778, -157346, -108741, 34624, 62855, 64731, -79411, -98706, -51119, 24203, 149884, -206585, -22271, -134466, -166710, 97565, 54952, 45348, 92931, -48403, -43653, 220539, -24879, 74174, 644, -186488, -206302, -58419, 106560, 79538, 92230, -99592, 163040, -97357, 21474, -1045, -17544, 135063, -71145, -136174, 2018, -40342, 340775, 68259, -41302, -106561, -189720, -103444, 11598, 144016, 113178, 23116, -32607, 27123, -52330, 173382, -19089, -8711, -223575, -19719, 84401, -107732, -75747, 79984, -148994, 106731, -53693, -39206, -113399, 38145, 248199, 78853, -87206, 114583, -31953, 138685, 81393, -296961, -101311, 95288, 15302, -103296, -63929, -192338, -8917, 223057, 81217, 221011, 89033, 103672, 199183, 38066, -18891, 104194, 146691, -48428, -72806, 14010, 83898, 80527, -143697, 192880, -64693, -26745, -91077, 272259, 24425, -85863, 87169, 77605, -18942, 84817, -83271, -49735, -202829, -133586, 182389, 165619, 6638, 167789, -16151, -24560, 5702, -12604, -21713, 115368, 15149, 71889, 104066, 39168, -97900, -136503, 15012, -17280, 8818, -1620, 260681, -134219, -200784, 33537, -37981, 31891, 58913, 129565, -152078, -56172, 43262, 77739, 221317, 96430, -5730, -89844, -56936, -59803, 66113, 25931, -133555, -43982, 88544, 35482, 57376, 38637, 164106, 23817, -38949, -92399, 25185, -246265, -18595, -20769, -137674, -93661, 81694, 23279, 10270, 30910, 9346, 125404, 12454, -147133, 164479, 37367, -59455, -126467, 39947, -11823, 158830, -34902, -84491, 90385, 93360, 17017, 68244, -3803, 23597, 117547, 63094, -17080, 136452, -238612, 207053, -172130, -63273, -4129, -14780, 101546, -106735, 26311, -58341, 29780, -6535, 9377, -55487, -51465, 28986, 95220, -60366, -87658, 61898, -3280, 83797, -91394, -179544, -53780, -77324, -7950, -64257, 74768, -29074, 15183, 15905, 19671, -2435, 51519, -80281, 141200, -23866, -132334, 18976, -85883, 67132, 222948, -79365, 33536, -177129, 45799, -89368, -63045, -111119, 73874, 101636, 2360, -87220, 160382, -75716, -218147, 46251, -111471, 99750, -38457, 60914, 141410, -121973, -57103, -7635, 155138, -66430, -59985, 48244, -58242, 15390, -156549, 223424, -135983, -32465, -3277, 192989, -133676, 200154, 76399, 42085, -99349, 57628, -72999, 127805, -97979, -11418, -56027, -99640, 74799, 54027, 121988, -179588, 107374, 252798, -45570, 191219, -26553, -138475, -30838, 105763, -84571, -60574, 59888, 309, 58988, 23997, 48394, -43619, 23381, -93571, 130002, -63998, 113900, -23571, 20382, -49942, -102513, -176045, -106481, -32682, 21378, 101947, -44977, -88989, -145569, 48438, 139563, 127772, 71632, 64429, 171289, 33507, 65194, -32367, -137429, -69000, -924, 6133, 194361, 8201, 118944, -43899, -31448, -134096, -74900, 53172, 763, 95142, 18288, -35562, 216762, -9475, 117346, -40482, 71598, 93636, 21037, -237566, 1842, 124153, 53222, 44985, -173774, -72693, 41506, 41407, 122559, -14617, 40947, 1652, -99582, -227608, 43489, 17551, -62373, -163373, 63540, -26831, 56188, 188081, -216069, -70589, -21126, 146791, -165112, 195327, 13708, -9686, -19984, -44019, 105754, -107813, 34852, -38764, -76899, 260923, 42282, 61878, 114801, -143413, 176805, -253152, -77568, -46316, 58695, 22069, -16831, -1211, -98682, -151070, 73304, 69994, 159874, -79712, 69905, -28626, 120118, 103115, 21311, -34258, 96957, 65272, -69060, -133974, -29113, 152904, 115680, -112233, -117826, 128615, -114585, 51388, -62161, 163159, -77735, 115364, 18652, 25446, -198803, -222272, -22255, 24913, -113532, -109848, 56652, 56792, -13898, 78722, -118476, -35914, 166270, 6894, 12745, 232668, -141193, 80359, 167895, -32778, 86736, -99085, -69291, 38843, 80575, 113102, 158374, -6805, 120435, -34538, 91020, 20935, 44969, 42732, -161914, -113423, 10346, -170245, 83869, 87939, 33011, -113122, 139255, 205553, 14840, 51513, 20355, 53514, -12063, -3488, 91386, 236672, -141266, -10475, -119108, 160634, -59302, -145618, 64393, 176000, 66957, 20664, 41282, 142756, -88206, -11285, -45676, -117837, -33133, 111768, 57170, 65010, 14779, 52803, -80779, -31229, 19373, 28001, 32307, -13958, -38082, 318617, 91494, 41686, -23531, -45528, -13198, 29546, -189735, -158350, -64261, 20900, -24142, 149141, -149573, -75810, 153376, 13230, 89280, 206969, -70004, -10021, -27488, -197217, -31319, 88899, 54545, 62465, -37889, -66200, 128067, -50179, 29673, 16480, 147486, 98015, -130691, -119823, 58412, -6492, -45927, 102476, 18915, 5293, 78684, -37848, 158262, -79513, 66284, 144673, -138968, -34642, 115248, 116765, -17304, -74128, 96453, 119419, -117514, -121474, 22728, 63502, -30176, 68540, -71652, -213371, -42771, 6380, -27832, -116902, -183198, -51871, 90573, 126749, 119839, -82325, -116408, 50110, 64081, 40377, -203218, -87468, -2996, 49160, 77421, 14555, 33376, 8563, 69178, 31568, 6633, -27078, 8202, 48895, 26988, 38425, 135480, 26755, -65483, 89155, -137848, -109114, 33887, 52104, -125625, -38626, -61153, -49105, 95208, 71286, -1929, -55087, -136179, 143296, 59744, -71302, 72607, -7086, -28969, 43913, -74817, -34685, 12255, -50394, 67510, 188587, -76108, -168010, -201974, -15182, -66913, 20973, 13379, -161763, -183120, 29859, 13665, -42965, -167205, 47563, 128334, 28048, -85509, 4495, -137840, 106747, 8258, -178406, -30338, 46747, -33604, -27838, -123541, 57164, -65430, -217584, -37460, 98997, -39041, 175361, 43283, 34180, -12955, -6890, -26579, -30499, 53564, -94425, -108557, -113330, 206405, 53511, 30723, -106702, 62895, -11762, 21609, -98540, 16171, -42764, -77250, 74071, -155154, 56986, 69064, -88755, -82771, -22503, 28457, -15423, 43746, 177883, -51228, -173060, 83335, 169845, 39630, -109753, -12501, -112858, 64864, -136344, -30283, -101337, 12797, -36964, 17835, 2255, -99553, 63251, -4920, -99742, 226108, 48071, -15464, 142793, 185838, -14666, 35052, -99689, -14852, -20085, 18649, 33575, 56486, 23978, -122163, -94691, -55132, -28478, 106022, -117340, -36063, 96158, -30257, 46456, -14080, 25909, -23053, 67306, -155895, -36658, 29924, 53849, 150638, -39454, 149279, -66495, 134059, 82482, -92167, 30980, -5170, 63121, -22528, -31001, 138141, -9961, 83385, -22738, 168165, -68443, -61967, 153823, -44895, 161547, 89986, -15604, -182960, -1949, 10254, 117771, 160273, -69115, 80839, 77229, 108307, 50317, -195997, -15682, -116610, -20443, 98882, 30789, 115842, 34483, -131000, -254352, 15015, -21585, -98573, -171592, -74135, -19624, 67187, 19033, 162253, -104492, 88898, 4772, 70092, -44044, 108132, 29788, -68556, -1213, -24171, 49358, -119039, -2962, 39886, 3332, 135905, 78098, -755, 21864, 29832, 40693, -184208, -30424, -149779, 128978, -6140, -19508, 90486, 42612, -113878, -7154, -33818, -176022, -69648, -18519, -11598, -149556, 116202, -10302, 3789, 40424, -79516, 46046, -37038, -90465, 57860, 150509, 73135, 93128, -52531, -161199, 150354, 207299, 155668, -33881, -116502, -107527, -169887, -10834, 162012, -14294, 30504, 138797, -40773, 205384, 201001, -13229, -58273, 70351, -35065, -116696, 129276, 122739, 15691, -127422, -124058, 10819, -50437, -34416, 103115, 73977, 139054, -99953, -34628, 76581, 45211, 154616, 42432, 186473, 54487, 107172, -32642, 1442, 91914, 162748, 73579, -8392, 138972, -221169, -143502, 68776, 1424, 61096, 6499, 57608, -82173, 57562, 100336, 123153, 203166, 24629, 27637, -153687, -53619, -19482, 105976, -61650, 80350, -164, -17876, 25113, -39467, -43290, -172012, -25018, -48428, -52062, 42062, 66455, 23428, 100437, 58074, -29771, -46702, 31564, 57893, 141041, 120188, -54634, -10292, 67705, 107760, 94741, -6445, -126530, -100792, 27509, 34530, -110856, 4497, 63690, -116158, 111493, -38093, 126892, -53825, -103586, -46226, -9600, -39197, -21794, 33697, -17272, -6671, -172460, 39522, -9001, 162477, -94801, -182456, 62363, 34964, -101750, -154351, 155122, 142683, -250983, -46234, 167916, -48034, -49502, -28530, -113098, -172011, 106201, -185951, 24950, 89455, -146428, -93258, 122409, 53768, -62284, 121306, 121739, 27147, -90826, -41717, 28896, -19029, 94740, -154353, -150770, 18250, -49596, -63269, -178396, 1972, -5323, 65936, 6953, -13380, 118759, -132427, 54121, -168618, -84590, -122356, 78897, -6600, -1362, -111669, -30239, -77033, 38690, -100000, 134175, -169065, -81377, 169228, -43905, -132670, 22104, -47967, -84339, -110573, 279327, -25381, -194288, 150714, 61657, -77336, -94151, 67953, -24914, -194330, 180331, -43789, 150902, 128993, -101001, 104248, -65730, -188349, -42842, 40121, -46690, -30981, 115385, 10745, -85088, 70834, 19945, -254428, 43220, 39535, 2030, 89972, -67844, 33953, -158105, 41075, 197062, -100380, -76663, -71640, 13117, -107260, 42504, 85446, 53915, -178432, 100412, 94580, 83763, 37620, 22217, 104167, 194081, -96161, 108782, -8699, -13084, -155035, -28735, -100623, -46803, -110806, -45295, -40976, 9763, -162927, -145852, 36517, -80461, 108419, 22730, 61222, 142338, -31250, -57965, 87954, 51410, -18901, 140397, -21415, 3307, 2141, -94300, 7828, 140932, 44897, 3134, -16322, 33384, 75651, 61472, -33485, 32770, 48426, -101625, 16974, -218074, 48687, 66628, 75427, -39860, 31183, 143676, 142648, -2944, 14057, 112090, -151430, -32598, 134758, 98397, 37258, -151937, -5036, -59522, 33402, -81662, -103495, -208343, 123279, -40337, 15856, -226, -107703, -127039, -101436, -72967, 36990, -80287, 176220, 103639, 81563, -12073, 152790, -21997, -3154, 17150, 70813, 64264, -47940, -53779, 64566, 72167, -39689, -160146, -20918, 62913, 182165, -120873, -43041, -39291, 136800, -3526, -91549, 56372, -40828, -123540, -90080, 174964, 38766, 10873, -25214, 29478, 28276, 29480, 11588, 87661, 2331, -98673, -61793, -199682, 204504, 87051, -83754, -28438, -64260, 155642, -143265, 11551, -10950, 83427, -10494, -177402, -25338, -98090, 8030, 144707, -175507, -80742, -55766, -38506, 74678, -17511, 41954, -63140, 23199, 78479, -73888, 78838, 5284, 105486, -20323, 38467, -4097, -9708, 26126, 54163, -126080, 144653, -187639, -69097, -9512, 41606, 159035, -187500, -51226, -214596, 3191, 27413, 160510, 12172, 105341, 58909, -43916, -142163, 27748, -150552, 130685, -16352, 120593, -48453, 27127, 21123, -4545, -43655, 39599, -93449, -122031, 125400, 73371, 6648, 168012, -27017, 133460, 17715, -103397, 186466, 99962, -12211, 73371, -40733, 83661, -241258, -102897, 98807, -25190, 20941, -135890, 186448, 120124, -20249, -40834, 103886, 200030, 96234, 219133, -93065, -82676, -119963, 44573, 17718, -15332, 81654, 124341, -153938, -60234, 82752, -47194, -80538, 102770, -130110, -30429, 33160, -57898, 79020, -57399, 142129, -12688, 67731, 75273, -63318, -207195, 36400, 7294, 56082, -22856, -43430, 202653, -148559, 74055, -57977, -33880, -31995, -81066, 57636, 140315, 47424, 10431, -99531, 52147, 217574, -38412, -37936, -56613, -49382, -276999, 40868, -85316, -162474, 75996, -109175, -34171, 147963, -142189, -154638, 27173, 115982, -158850, 41136, 58622, -207768, 80568, 88449, -31459, 126361, 114668, 10405, -45551, -98158, -3790, 57488, -32709, -221726, 128012, 19193, -38304, 86487, 153835, -282711, 43817, -143948, 50360, 12908, 64144, -50374, -189009, -45442, 41051, 102452, -118237, 103630, -65370, 36571, -51448, 18381, 89990, -123805, -68602, 18663, 242318, -87095, 205848, 202245, -9819, -30083, -69829, -6882, -141937, -7692, 151034, -61658, -24289, -171644, 37743, 26686, 6428, -21878, -29539, 50641, -2908, 31780, 21692, 113353, 68308, 19460, 153208, 42405, 131670, 61240, -185848, 131657, 13639, -5242, 28388, -34809, 22907, -59720, 128573, -11461, -38602, -93324, 27119, 18879, 39192, -103649, -161558, 63122, 149799, -103558, 160373, 28646, -713, -40112, -139697, 99661, -78258, -78682, 100085, -189992, -153730, -1830, 29592, 48909, -30451, 255312, -22994, -23286, -80415, 12502, 62049, 121440, -150268, -24821, 45072, 59234, 661, 54730, -81624, 157192, 100155, -135702, -108477, -105634, 68407, -129628, -33400, 45879, -6676, 26122, -107539, 60020, -61873, -32754, 23987, 10401, 2420, -75738, -30224, 220, -138745, -46669, 39117, -128892, 116698, 128103, -125635, 136983, -14487, 42228, -50112, 93135, 40975, -82147, -117568, -147343, 18963, 57762, 65682, -11904, -116740, -68821, 116271, -48899, 14471, -108532, 33961, -46180, 105613, 78051, -50016, -12780, -55607, -143220, -86515, 20000, 32818, 14988, -30445, 94146, 6411, 70958, -178973, -395767, 28634, -143758, -21436, -30481, 160168, 40359, 16735, 84452, 37181, -46179, 108111, -111973, 32615, -156149, 20578, 19473, 169153, -157905, -60629, 83008, 33833, 18193, -96473, -59613, 125624, -5197, 37874, -11622, -119372, 94221, 50776, 232637, -102471, 82997, -132334, 15876, 98529, -209077, -20678, -56827, -70827, 38868, 113076, -13448, 20733, 11534, 182, -109914, 111841, 29785, 39843, -81376, -46335, -17772, -154792, -170321, -60615, 52722, -65901, -102797, -82201, -45944, -35704, 218500, 106410, 103399, 117909, -100780, -123336, -111682, 134651, -55211, -126261, -43487, -24075, 27083, 25321, -83563, 69182, -64494, -15768, 69295, -64759, -57447, 59699, -86545, -38825, 56074, 207256, 61085, 47689, 53557, -108284, 11664, -3003, 32448, 11756, 38311, -31427, 5914, -123887, -32278, 140334, 32168, -2111, 191317, -137307, -111943, 172811, 4637, -24476, -120999, 45172, 54936, -110434, -14154, -33853, 25828, -112932, 126321, 92406, -36644, -21836, -13765, -78531, -44742, -27270, 162737, 95513, 94306, 37325, -112737, -4186, 97922, -126958, 64228, 234350, 107137, 142675, 22030, 97664, -72431, 80302, 66027, 29252, 132784, -54363, -18874, 9632, -103887, 22897, -173439, 105637, 4706, -52558, -84188, -23669, 69445, 55266, -71188, -85365, 66281, -72884, 6045, 12487, 31487, 86599, -127432, -192835, -57255, 181773, 204036, 184764, -19472, -179814, -236411, -61956, -19985, 131232, 87561, 22945, -89785, -96942, 25641, 70332, 39541, -104390, 65652, 42974, -108029, -79137, 69469, -23662, 160344, 50564, -49101, -1030, 6395, -73494, -92079, 70770, 85287, 60921, 152894, -54665, 168933, -90902, -102179, -177579, -44980, -50825, 53067, 24608, -120370, -39626, -37480, -179195, -98977, -77775, 144652, 19317, 66812, -151211, 120495, 131280, -201632, -71166, 50022, 65018, -68460, -30825, -60275, 11141, 120794, -77798, 100982, -78870, -85525, 82596, 93023, 85907, -132763, -47014, 83039, 4192, -108335, 46244, -72124, 181066, 155873, 60953, 137325, 6537, 77232, 149101, 24771, -25748, -171995, -8388, 83083, 95414, 50890, -54617, -199460, -49967, -30708, -31574, 62412, 200353, 12464, -21868, -26155, 12550, -83574, 12128, 45487, 21157, 46166, 43765, -178783, 64260, -67705, -110569, -111438, 43744, -22458, -169709, 48234, -145255, 14108, 24064, 89354, 179771, -137695, -5295, -27882, 43765, 21761, -35572, -44487, -112649, 99675, 46333, 92602, -31319, -66274, -108801, 36215, -104914, 186529, -131940, 27612, 158095, 60448, 17725, -97719, -139420, 77697, 151969, -44280, -114930, -248028, -98958, -11468, 161350, 67919, 30783, -40372, -58841, 141829, 20254, -212151, -67960, -86593, -55118, 56797, -10841, -7756, 132528, -70272, 188096, -67734, 9000, -28373, 12453, 44859, 43774, -75989, -113301, 252568, -48834, 70550, -162210, -28213, -12834, 47707, -274694, 16763, -116008, 32726, -104565, -86318, -27609, -106179, -47981, -120411, -184966, 102711, -130770, -18029, 75966, -62047, -83259, 22827, 112799, -117983, -15150, -174807, -39674, 3451, -86231, -46110, -142089, 7777, 106519, -110701, -62827, 50707, 122299, -150662, -17030, 28568, -10297, -249907, 50560, 153300, 11771, -104038, -51774, 178583, 91815, 64578, 35962, -66708, -20237, -7862, 55452, 152249, 112840, -143215, 22601, 74339, 62443, -63489, 294032, -128857, -109293, 23570, 213584, -84371, -26822, 108698, -1802, -33761, 57072, 27497, 103971, 130308, 30976, 29436, 21604, 49353, 5567, -61, 120739, 152975, -152111, 1011, -69489, -31377, 40614, 67546, -11313, -193055, -97372, 90456, -276507, 119811, 52592, 132801, -20035, -207994, 43423, 128612, 93304, -66865, 8754, -53763, -82663, 96398, -120830, -90185, -111395, -150365, 14773, 117195, -18654, -151929, 84750, 170086, -65205, -48286, 52030, 163646, -52451, -134443, 63710, 80625, 619, -56315, 100332, 53278, -77535, 4954, -136386, 69206, -26459, -43963, -3317, 4067, 90298, 59641, -15782, 77054, 40434, -43044, -12584, -14956, 50981, -37032, -39392, 198646, 94819, -76744, 57608, 11941, 39507, 13858, 120034, 34873, -6265, 105156, 23538, 12257, 31685, -9445, 931, -59197, -75792, -100755, -140450, -88763, -17583, 10404, -27374, -237689, 158875, 109625, 44977, 192464, -98615, 190460, -97389, 24088, -128529, 1483, 38964, -15608, 72030, 9990, -52711, -57191, 81821, -65962, 92363, 123371, -168372, 114311, 207895, 25427, 60447, 104633, -27796, 18392, -132602, 13988, 50259, 52080, 107501, -78177, -53740, 191255, -15168, 20183, -6761, -82907, 163813, -53245, -113742, -45479, -201971, -65714, -97683, 62298, -67947, 89579, 141106, 78820, -21733, 14238, -153870, -13498, -86818, 70057, 259589, 50432, -200905, -36448, 12359, 8814, -73739, 24750, -125367, -95341, 65161, -102480, 54305, -138178, 178070, -78123, -22568, 33359, -57043, 14470, 58053, 96925, 79862, -17336, -14795, 237023, 95843, -93011, 10089, -33816, -13655, -124055, -41563, 182785, 58428, -251356, 122767, 109943, -36252, 72371, -86713, -47448, 151202, -27417, -188655, -6387, -7930, 120915, 1447, -42537, 105445, 12188, -75677, 116538, 19540, 295, 17951, -108030, -53240, 361, -19641, 128387, 21936, 86259, 948, 106579, 40110, 1354, -1340, -96302, 51147, -4057, -50651, 111641, -126146, -42630, 103696, 31836, -4829, 25326, 18103, -153030, -35240, 163106, -66525, -32116, -54649, -8780, -58837, 49112, 19909, 78050, -106039, -34340, -22775, 45974, -80035, 92389, 119708, -99777, -49529, -53672, 265606, -43377, 169271, -127802, -99855, -69278, -85329, -27031, -71515, -82671, 116889, 123480, 95783, 52871, 9358, -50150, -96173, 36626, -118418, -100286, 116328, 191774, 39683, 111641, -24806, -134970, 61768, 57441, 7231, -24456, 97086, -99460, -78074, -101717, 8574, -109768, -69040, -71210, -26295, -150075, 8799, 125852, 13671, 155518, 134599, 78473, 7536, 2270, 77067, -39519, -189945, 49643, -114124, -97079, 23, -9598, -142477, 16698, 97483, -113849, 128393, -157420, 213636, -41496, 14693, -190905, -6269, 23054, -8694, -56814, -95508, 114069, 3108, 155461, -53122, -43870, 82293, -163757, -122438, 110735, -118247, -183541, 188533, -140635, 18578, 6971, -283590, -26972, 45245, 35750, 91165, -39098, 71891, -69553, -142315, -130940, -147526, 101866, -152819, 27650, -26832, -10357, 137587, -44237, 61710, 3790, -15339, 232065, -145430, 130072, 66231, -48384, 164397, -186473, -52646, -121935, 41579, -112307, 43696, -18811, -48366, 39214, -27104, -109842, 282656, -49155, -223755, -84967, -127867, 83357, 32455, 40230, -37335, -28186, -37427, -8192, 84285, 33910, 50461, 50405, 89240, 29074, 36208, 119950, -67103, -86344, -119659, 18456, -187040, 46631, -11018, 114484, -67796, -20515, 113230, 139557, -68627, 18342, 29707, 37701, -26494, 129291, -190670, -42492, 45196, 46134, 136492, 120900, -28811, 131156, -72046, 93926, 182680, 122587, 10672, -33476, -154234, 31333, -112525, -80027, -120145, -46453, -2822, 27608, -60591, 107890, -21008, -79481, 22833, 198121, 33817, -36612, -154120, -22139, 23704, -39107, -168036, -85821, 146762, 144690, -89461, 67881, -118917, 141694, 24744, 95818, -173052, 68373, -774, 85959, 92309, 6638, -60623, 78671, -6070, -88063, -92843, -149045, -51488, 111261, 17943, -53453, 81209, -83996, 9621, -18125, 78614, -159141, -85784, -165298, -26193, 122232, -50999, -51528, 87956, 107816, -8937, 69087, -108664, 139037, 216803, 52590, -210308, -56325, 61834, -42527, 128364, 59345, -71283, 3255, -90187, -18423, -55958, 118533, 213504, -144406, -194051, -24738, -153207, 4663, 75567, 150758, 20321, -19489, -199618, 2642, 7193, 64470, -71486, -43896, -149129, -231190, -111847, -158445, 33974, -52279, -54308, -99327, -326164, 152187, -100927, -41613, -146798, 98067, 14472, -83380, -39576, 169327, -7363, -18337, -94985, -191162, -16148, 32841, 110947, -226872, -113521, -58596, -351, -14634, -12278, 41177, -91142, 94254, 43735, -32271, 161530, 157041, 94128, -304570, 159314, 80191, 202445, 124859, 159254, 88656, 136082, 201206, 21850, -158637, -31023, 39345, 7556, -125777, -164574, -74783, 81500, 159455, 92481, 106694, -8154, -175775, -45931, -26109, -50152, 5519, 44539, 86069, -28062, -192088, -48722, 4410, 123380, -57291, 51715, 29270, 4430, 93890, -66678, -58036, -1201, -64590, 51258, -71961, 22834, -10107, 21686, -46388, -34214, 9687, 20389, -424, 172070, -99965, -6478, -158778, 37543, -112528, -28081, -37541, 28342, -55776, -60066, 144877, 28713, -56610, -25309, 166015, -23728, -69548, -69116, -55406, -59984, -129116, -113431, -83678, 59689, -38467, -20902, 128151, 130665, -28466, -63654, -87220, 69901, -20655, -38997, -82098, -77659, 32294, -132727, 100382, -53865, -15098, -134900, -1248, -33127, -5053, 148494, 17930, -80181, -71772, 60048, 131037, 28445, 69491, 61522, 143183, -196712, 67322, 99258, -135076, -89363, -85843, -73534, -48605, 24478, 87346, 109104, -84536, -85230, 132765, 65256, 8361, 47759, -3007, 52930, -33909, 27122, -152413, -69397, -68310, -37776, -93485, -53834, -152803, 55363, -8326, -172054, -84234, 33963, -54791, -70321, -7526, 34669, -144927, 55508, -80749, -1809, -3574, -53181, -103287, -28826, 163995, -137392, 170753, -26206, 3569, -109648, -77821, -50743, -105510, -21080, -41068, 186742, -117646, 10361, 25008, -107995, 69300, -40191, -251480, 66578, -112699, -105720, 69409, -35028, 92603, 122105, -65073, 80040, -76225, 225320, -69919, 103531, 85138, 31893, -67657, -15276, -217295, 22644, 35276, 13470, -300004, -127702, -75482, 29428, 29194, -17175, 64096, -103547, 61572, 47901, 38095, -18368, 184721, 49763, -97704, 25054, 75925, -59340, 109907, 38547, -236354, 30237, -40968, 54201, 95271, 19692, 168023, -18031, 63044, 81218, -9822, 78578, -60002, -42637, -132429, 24358, 32818, 118987, 79825, -28736, -118877, 43674, 112074, 76198, 109423, -21379, -47082, -74353, -5640, -7930, 20854, -13046, -13483, -78368, 95009, 7721, -17601, -75415, -134389, 131973, 55963, -163852, 77001, 93078, 12549, 161248, 21867, -142956, 36845, 24710, -60872, 57872, -168266, 99947, -88602, -99380, -11485, 43687, 16540, -74934, -51064, -114323, -22670, 108469, -430, 86714, 146849, -59331, -18825, 219072, 145733, -168744, 39063, 57, 83389, -75168, -84716, -68215, -57707, 82266, -119182, -62821, -180510, 101617, 128246, -33001, -30063, 45730, 148774, 41229, -70381, -163338, -112515, 7388, -66122, 19672, -55790, -106766, -118762, 157640, 89698, 174608, 54481, -43386, 133524, -3337, 22283, -4321, -297340, 161917, 49542, 33279, -6233, 16490, -60265, 62212, -131885, 18774, 56662, -20046, 37420, -100025, -97451, 23885, 68465, -189173, 52672, -54809, -19454, -135156, -85928, 97481, 3316, -38622, -11754, 49361, 44446, -7570, 110279, 97919, 41709, 5510, 66323, 31709, 107034, 90765, -102741, -109573, -70756, 98492, -159048, 39831, 36580, 117310, 18196, -135529, -96798, -119262, -54278, -18455, -117592, 148389, -133720, 135821, 119582, 90638, -70001, 34553, -128886, 91910, -7465, -41300, -123475, -249979, -104788, 112281, -40646, -17085, 66145, 182191, 133692, -98108, -196004, 238083, 228940, 19015, -128191, 97189, -10895, -11400, 90250, 33738, -119648, -32766, 66710, 51484, 26437, 94182, -36497, 18028, -340593, -45369, 77077, -39391, -47042, -105082, 101239, 55340, 83284, -174174, -16189, -28263, -28309, -62157, -34922, 85729, -193005, 179328, 48819, -4271, 91499, -146489, -67068, -12216, 137784, -4691, 45410, -59488, 49122, 169232, 100448, -8219, 68157, 58271, 51114, 112195, 111441, -12830, 64765, -38654, -93137, -27192, -7696, -167652, 86807, -279221, 273923, 151539, -26336, 951, 30570, -59446, 19435, -14529, -9512, 18309, -132534, 3993, 16492, 13001, -21777, 114809, -35683, 22937, 130896, -8009, 21639, -9725, 124850, -26004, 129490, -10452, -86719, 68548, -30741, 62608, -275395, 525, -46374, -107282, -55822, -57886, -4842, -137962, 31912, 137850, 28345, 81626, 110441, 124761, 188696, -50369, -72495, 79051, 71464, 78265, 190627, 1147, 42999, -98920, 215452, -33957, -31099, -34987, -65070, -73600, -52841, -137808, -79238, 196649, 74227, 93423, 118780, 185063, -178735, -124094, -81095, -47395, -30327, -45100, 22128, 3561, -72934, -219511, -100180, -55418, -24930, -113983, -49522, -114116, -12695, -108274, -85654, -132045, -15488, -87424, 91494, 40950, -7048, -80466, 38394, 69691, 14397, 161812, 46377, 92182, 13477, 68174, -80395, -46252, 35251, 34518, 51218, 111029, -143779, -98322, 23164, -73088, 340814, 52036, -7904, -52010, -48448, 3041, 11299, -46081, -27561, 135637, 139696, 25430, -135332, 54335, 156826, 138210, 74103, 143521, 5386, 63375, -68690, 29489, 134149, -59472, -86919, 9837, -22870, 65499, -45734, 173389, -130127, 126501, -77173, -181213, 24001, -25690, -111959, -169650, -844, 98461, 59021, 5722, 48315, -2746, -144258, -143367, -20500, -16210, 85864, 76411, 61057, -28280, -139307, 41578, 52989, -241001, -84184, -69727, 11941, -81058, -3848, -21243, -16058, -72284, -64473, -108998, 38349, 57624, -77755, 153431, -31743, 154395, -64790, -204480, 40581, 25078, 3470, -64801, -3488, -51586, -30507, 84920, 18587, 61544, -23395, -34509, -116386, -37336, -335098, -59553, -8261, 56874, -27109, 35080, -219939, -5735, -169461, -121917, -18885, 128774, 37454, 1839, -1971, -72005, -54888, 43122, -139782, 59839, -39200, 83298, 96974, -168813, -58681, -86322, -182903, -104182, 246321, 61499, 193453, 83655, -74851, -38520, 59373, 44144, -58253, -152357, 331733, -14242, -32867, 11435, -24491, 12383, 129852, -12567, -117317, -16310, -46858, 143670, 118165, 10849, -129024, -123692, 1526, 33935, -37799, -48449, -59813, -2360, -240419, -111123, -63269, 121836, -82113, 18209, 22858, 130959, 127393, -5802, -47976, -66980, -24323, -43794, 55861, 42409, 59712, 127061, 187962, 12578, 110935, -35482, 119566, 107106, 101748, 9492, -67437, -140707, -4040, 154680, -31263, 79219, 85154, -28624, 132818, -293482, -123375, -92387, -82709, 33929, 29265, 39753, 60144, -95865, -122913, 39988, -63590, -158460, 98008, 140765, 157116, 18869, 63156, 138219, -64718, 112067, 27787, 92193, 18777, 130791, 22553, -149732, 146498, -95605, 126433, -9105, 118659, 114497, 43401, 51311, 42643, -203193, 11939, -112610, 17273, -115322, -119561, 161937, 107906, -418, 18643, -25015, 57500, -68213, 100268, -25536, -42362, 2191, -59646, 33164, -54219, 47274, 122694, -72579, -13175, 46548, -43978, 46850, 56039, 109300, -61144, -95125, -31034, -97646, 56957, -117220, 235400, 130758, 1269, 87519, -165152, 254607, -59552, -12158, -187262, 49066, -111629, 10257, -54917, -108744, -81159, 22782, -129302, -75555, 66924, 262588, 48188, -92551, -37042, 3187, -35257, 91118, 21943, 91602, -31727, 133742, -16798, -97992, 219690, -184139, -74538, -63267, 253086, 182311, 150736, -33363, 244800, 37166, 98605, 18131, -4991, -25404, -21153, 61396, 37050, -3175, 152310, -299343, 51447, 72419, 115728, -6545, 20979, 99481, 150458, -30324, 26938, 169367, -214313, -69622, 147902, 110236, 52714, -45263, -88975, -59653, 156193, -63409, 10234, -76049, 85035, -54357, -9847, -169852, -162788, 774, -133707, 212402, -208006, -80737, 1685, -36842, -111407, -96654, -99956, -28930, 196948, 7864, 119354, 51154, 112388, -282514, -30720, 131889, -57688, 177832, 149723, -47335, -50769, -102272, -63526, -124367, 43267, -146914, 60916, 63373, -167614, 156376, 51823, 75644, -76549, 62798, 113652, -9950, 201993, 4446, 115104, 29564, 59079, -168636, 37439, -74158, -85401, 175979, -21569, -101232, -36236, -131214, 144678, -70194, 53406, 136830, -50465, 53681, -103935, 246776, 94480, -19434, -77978, -11502, -34304, 197051, -123656, 13601, -1850, -11847, -10959, -11711, 88092, 61446, 42268, -306127, 30249, -167053, 65213, 148776, -93457, -26413, -60475, 124654, 9588, 174387, 41747, 24463, 6882, 82535, -175331, 8611, -7068, 73194, -18939, -104808, 742, -109258, -194258, 73366, 58427, 47129, 131465, -67101, -144398, -7066, -35063, -84987, -8057, -61711, -185252, -44514, -114659, 23373, -66193, 112163, 161829, 68549, -156497, 151873, 158989, 1896, 133482, -55664, -188303, -76712, 174485, -150449, -48, 3445, -51759, -44751, 7290, -56722, -143485, 21697, 108302, 87739, -81702, -126248, -28674, 158189, 65140, 71030, 89786, 42455, 12169, 66826, -55108, -142718, 72950, 124887, -112829, 82931, 169588, -227, -82536, 12412, -55548, -62228, 43708, -161815, -145691, 1946, -2251, 34664, 189209, 10545, 60355, -98431, 77484, -53112, 7206, -10983, 104226, -132176, -230377, -21535, 47274, 15364, 124329, 44131, -56892, -234633, -23945, 103720, -39557, 2857, 42515, -102442, 62884, 165184, -17437, -113922, -6720, -224439, 33993, 45634, 169070, -19574, 41216, -86903, -35963, -153890, -19654, -30805, 30189, -62920, 8409, -33638, -33448, 8109, 4089, 76802, -12173, -35303, -18243, -72109, -36315, 204942, -92089, -28116, -39097, -24939, -33422, 28175, -172555, 104650, 63827, -125405, -228948, -98586, -24485, 260350, 54814, -182384, -69586, -5369, 25596, -132657, -13620, -72409, -111368, 26193, 78084, 84860, 57955, -50184, 72098, 31183, 13515, -61719, -50134, 7455, 246182, 30395, -61668, -83987, -49619, 219687, -40285, 91503, -37931, 26353, 79887, -57705, -64688, 167379, 99345, 79778, 79436, 46371, 203592, 4430, 58245, -146396, -83238, -121162, 128552, -257549, -40593, -302063, -83876, -49536, 139732, 40019, -84063, 107555, 1799, 3790, -121349, -99892, -83252, 4688, 7859, 155798, 38852, -273191, 26500, -146306, -97466, -81947, -66930, -138752, 20531, -142349, 35988, 225709, -134131, -28707, -254615, -30364, 64850, 72712, 7806, 89726, 256895, 172770, -52722, -146415, -40980, -95550, 45541, -119182, -7348, 84555, -10160, -95482, 118538, -189588, -33074, -4203, 1605, 18212, 61593, -3573, -37137, -41125, -61701, 79463, -65234, 85439, 1917, -52594, 62397, -73400, 64392, 21464, -60169, 53339, 55151, 116793, 97484, 49569, -113773, 247061, -141624, 95780, 43516, -118470, -12542, -7946, 131732, -71973, -26430, -235708, 175036, -108009, 32985, -10232, -9888, 81714, 168629, 25376, 66097, 33185, 102668, -46708, 108506, 112049, 109227, -66608, -16985, 24162, -138317, 160926, -1239, 28648, -58219, -133881, -60946, 22118, 67948, 16325, 34984, -34006, 50071, 149617, 71113, 81682, 29666, -151667, -105406, 45897, -1104, 44380, 169150, 73257, 127021, 9553, -81447, -5839, -81199, 157231, 79750, 52519, 124706, -203822, 59343, -132243, -732, -31451, 66769, 23024, 135721, -60731, 71549, 16368, -165000, -92688, -15123, 112229, 46789, -117800, -14158, 203595, 11222, -33027, 49616, 77026, -46027, 50709, -33185, 72580, 17122, 48630, -76601, -82867, 95400, -8011, 28760, -30915, 90681, -61328, -13682, 79306, 118352, -52847, 197731, 31606, -105231, 37237, -38644, 43797, -4324, 7494, -91979, 99896, -116652, -111874, 37066, 161726, -35576, 70728, 108299, 82201, -31401, -110086, -222740, -26520, 118868, -113428, 70651, -95870, 10703, 71416, -66543, 17202, -41882, 71149, 23743, 5702, 157236, 66826, -69656, -8664, -7658, 8104, 254721, 37419, -205421, -54768, -194975, -33276, -200518, -87943, -153440, 38761, 54, 30569, -10549, -140684, 51814, 193951, 41289, -42975, -144091, -91623, 45711, 108277, 26321, 80708, 71404, 51109, -66440, 17549, -85601, 1759, 33384, 169388, -132151, 48584, 149456, 76567, 84044, 59298, 131001, -109726, -139839, -639, -218060, 124171, 123169, -43725, -37410, -7300, 5249, 12832, 56325, -17418, 95168, 44996, -61242, 134712, -137047, -9299, 97561, -72958, 31234, 54823, -86826, -7313, -15791, -55670, 232237, -76997, 101397, -39633, -109641, 10374, 65493, 92879, 157631, 297173, 25277, -66906, 45695, -26861, 93429, -130883, 238963, 86375, -169915, -71541, 82342, 118692, -128368, 71944, -196485, -9014, 112205, -55648, -152047, 14753, -61016, 63522, -89329, -77959, -203918, 17147, -16235, -119907, 19554, 103631, -21751, 27058, 27577, -121516, 207508, -47508, 66202, 77613, -14085, 61225, 24803, -143039, -33526, -61806, -46590, -131573, 113656, 161640, 98680, 128195, -34773, -64198, -78559, 64986, 22910, -7792, 130680, 40858, -84620, -68703, 68813, 105110, 55664, 191395, 164971, 44500, -84612, -132177, -39087, 75999, 184307, 42120, 117923, -24751, 62837, 83076, -199740, -41716, 95824, 27694, -120727, -245198, -36907, -7223, -89187, 14437, 51094, 67672, -237711, -132610, -30736, 57732, 49363, 47611, -38687, -33058, -73488, 77510, -92877, 85768, 20972, -4545, -66262, -136773, -65348, -33297, -239033, -19913, 93267, 57232, -50067, 4736, -56117, 15010, 155396, 97721, 52548, -49732, 75668, -170205, -25462, 58896, 74708, 67591, 29748, -19749, 54281, -96143, -85227, 6229, 17476, -184203, 45924, 77968, -7798, 239582, -68908, -36433, -39862, -7687, -33168, -141946, -55146, -9850, 123962, 222205, 134748, -78235, -70207, -16076, 180061, -16691, -133945, -50568, 76386, 69614, -20202, 68956, -229361, 10476, 86843, -84035, -84386, -188323, 160419, -72663, 24321, 60935, 152567, -15528, -54428, 17462, 129563, -17170, -96346, -155461, -123228, 87216, -32351, -61298, -72241, 8581, -24161, -27559, 136146, 155185, -162450, 33054, -78385, -25048, 31206, -21463, 23253, 67902, 29723, -65265, -63486, -145265, -86160, 197971, -79913, -120411, 32280, -11136, -19735, 142172, 55406, -53476, -42829, -50711, 88261, -31092, -180928, -4875, -155085, 220387, -97435, -16332, 26052, -29125, -29264, 42562, 153994, 77441, 149181, -105603, 32022, 15664, 35425, 138861, -22277, -40915, 53878, -179419, -23898, -13540, -92864, 106656, -107179, -13709, 29579, 136562, -1065, 94457, 70690, 12457, -109931, -144748, 10746, -54758, 92753, 75256, -18627, -116812, 51533, -102710, -76528, -98822, -13975, 118072, -509, -44720, -153933, 55709, -78742, 11857, -35740, 84571, -15865, -5946, 49012, 212589, 89644, -8940, 323, -52958, -95854, -55772, -77909, 65924, -108083, 134520, 75881, 2069, 32, -56229, 27251, 109788, -70948, -154718, 70954, 32728, -113027, -73999, -86683, -73105, -32659, -26894, -65665, -76498, -23084, 16920, -31914, 116909, 51266, -160515, 52844, 61099, -43864, -150864, 814, -778, -113173, -146427, -8834, -23517, -42102, -8416, -111269, -43873, 53812, -35312, -168701, -47694, -107978, 26954, 32170, -167369, 76584, -112219, 157320, -4921, -125760, -115226, 35123, -39482, -9752, 162728, -70553, 6050, 143261, 27295, -162105, 50993, -117346, 141946, -83027, 299621, 148057, -80378, 2019, 76042, 79071, 44631, 126342, -12407, -37002, -34998, 86609, 36847, 29390, 80239, -206950, 31286, 22053, 168382, -154233, 157119, 7609, 49339, 169099, 56580, 40397, 24447, -48783, -2875, -72195, -4497, -235694, 43290, -12283, -33923, 22173, -144646, 194662, -10369, -14716, -97408, 2416, 139943, 104523, 86212, 55131, -36177, -146320, -20285, -23799, 105823, 31217, 162681, 120826, -46060, -181127, 139804, 137161, -137850, 152281, 38555, 16213, 162930, 135678, 65719, 47747, 62194, -40366, -5560, -91043, -33603, -36993, -64102, 13798, -32689, 50675, -163691, -11437, 13273, -31342, -17394, -159950, 35968, 65343, 49798, 104807, 20334, 48299, 15749, 69373, -159141, -90162, 160117, -248256, -14144, 118282, -9410, -40865, 13059, -35630, 3113, -68953, 111864, 143606, -13459, -139896, -52855, -18564, 51009, -101708, -77608, 51527, 94735, -62718, -134521, 331365, 79035, -26940, 87685, -12558, 87495, 16083, 9209, -11460, -146040, 195552, -95000, -137225, -21477, -97012, -5218, 69395, 100425, 82206, -30838, 5004, 41155, -177359, 57572, -147040, 205869, -40815, -18654, -77663, -63564, 229454, 94883, -156313, 151774, 120397, -28374, 30945, -1508, 199032, -80345, 14732, -43200, -144593, 221135, -119219, 22211, -175635, -40266, 42576, -83215, 59208, -27146, 117051, 137401, -59202, 7742, 18510, 62492, 1451, 19192, -24560, 11628, 130961, 65189, 70756, 72957, -15519, 32169, -109493, 128022, -280799, -8793, 115116, -137613, 40338, -68689, -37212, 95445, 19984, -205265, -98521, 98411, 45298, 176386, 169778, -34532, 252575, 2470, -97133, -63934, -227702, 162147, 160910, -102464, -22993, 9647, -96899, -177089, -21225, -32397, -39190, 22472, 144237, -30582, 17198, 73341, 55913, -61995, 9724, 55246, -113850, 127490, 144446, -72928, 19541, 64805, -55052, 48594, 16472, -148112, 46329, -111004, 94765, -67725, -16274, 138462, 50085, -108918, -102404, -60469, 39819, 36152, -85068, -117771, 28412, -18350, 217662, 3693, 183057, -118091, -158736, -113016, 119982, 177189, -78921, -46471, -117949, -182793, 72487, 22503, 1058, -141265, 165470, -50788, 53843, -146764, -19224, 29399, 33002, 15604, 49897, -114069, 19915, 11478, 23376, 7300, -128466, -132965, -223418, 82489, 83510, 85114, 30955, -215230, -103594, 17195, 13674, -22475, 37223, 1176, 12186, -64481, 99084, -43465, -134262, -77793, 