{"input": [520843, -144981, 679151, 1597013, -245528, -245510, 1655925, 804714, -492280, 568915, -485929, -488353, 253716, -2006220, -1808707, -589601, -1062030, 329512, -952132, -1480908, 1536844, -236744, 70808, -1493957, -570827, 116311, -1206904, 393948, -629815, -305863, -630935, 1942254, -14153, -1109090, 862501, -1280147], "layers": [{"weight": [38716, -363252, -246198, 36491, 136885, 31765, -21437, -55814, -274064, -133433, -85386, 195952, 63694, -326804, 60073, -71380, -125477, 113383, 191110, 172626, -155561, -57317, 61404, 180831, -88822, -34414, -205074, -221733, 150613, 251398, -13348, 186019, 67034, -119582, 66990, 285096, -6641, 290028, -485606, 152351, 16135, -55425, 17009, -368423, -40719, 66196, 273948, -96069, -149865, -93008, 169682, 60939, -98198, 95141, 17995, 179552, -130135, -60737, -72683, -271283, 54890, 48390, 948, -43484, -262358, -77972, -63527, -148713, -29897, 74896, 349631, 32360, 47741, -13800, -355671, -4915, 11165, 456596, -35657, 55896, -6434, -216631, 211838, 139381, 146629, -168568, 260027, -259852, 108782, 406031, -183610, -104971, 18472, -93326, -287437, 12709, -196913, 87787, -170428, 287302, -145187, -59699, 150797, -228158, 42163, 242297, -297969, 34224, 48173, 144922, -229286, -244765, 96749, 55050, 46432, 64219, -126052, 43051, 54325, -132415, 345847, 87831, -220825, 121701, -180671, 145897, 214762, -152125, 178575, 76515, 152380, 351597, -45486, -139715, -164884, -151222, -14292, 63237, 51288, 153330, 2410, 269433, -49058, 504221, 115976, -158886, -198505, 89433, -41422, 132350, 87721, -13500, -156965, -280798, -82768, 158745, 39685, -230915, 32101, 71424, -163835, 28495, 10790, -211865, 66321, 103949, 200758, 195337, -255370, -173839, 95469, 95237, 95471, 714157, 105822, 210493, 176837, 120744, -58440, 140685, -143254, -43898, -89969, 15177, 429054, -346123, 127208, -298939, -87479, 201852, 11915, -199775, -132591, 125973, -135384, 40124, 8447, -120783, 397410, 117506, -375388, 34562, -122671, 158010, -146905, -21268, 93606, 160480, -222492, -62004, -88038, -121104, 327251, 75069, -233722, 170138, 393371, 191382, -281636, -89759, 234839, -131176, 82268, 143589, -171819, -11034, -600814, -189884, -46817, -231294, 302590, -265096, -81568, 24235, 267160, -266157, 215608, 1897, -181936, 85657, 36898, -111258, 12939, -71423, 21042, 122735, 293990, -229446, 395387, -361846, -28135, 109053, 52086, -115426, -38578, -91385, -109247, 157485, 66178, -128440, 166753, 56962, 150675, 116710, -153666, -103837, 138521, 113141, -3874, 21748, 236833, -109656, 101412, -37479, -40350, 203673, 153002, 150795, 241989, 3893, 126409, -57512, 60089, -24124, 17980, 110321, -151668, 387853, -186479, -225067, 214672, 146746, 115689, 116473, -2270, -166318, 14051, -125521, 180752, -27259, -153017, -59573, 76543, -104494, -152410, 45171, 45408, -93969, -87313, 43014, -268422, -260893, -133174, -39565, 57631, 273478, 158979, -29647, -3525, -185833, -3432, -53507, 59820, -153339, 96268, 284114, -20160, 74463, 127928, -74372, 41539, 2334, 18106, -143288, 4543, 92311, 268989, 177814, 399122, -142238, 161697, 33985, 405910, -149829, -155654, -111106, -393693, -97456, -140716, 27878, 63349, 347774, 176174, -106937, -166534, 91184, -244723, 339486, 218626, -86968, -317553, 250959, -21232, 229446, -295549, -111102, 972, 8709, -83426, 115454, -197898, -26392, 22298, 95358, 131908, -208468, -284369, 236835, 61599, -138742, 287527, 21442, 218599, 12515, 381988, 325377, -46149, 180094, 119629, 253695, -178862, 127169, 196194, -326007, -219333, -378000, -49938, 133006, 278483, 13734, 301886, -255821, -315745, -10297, 71192, -6060, -383229, -16520, -241801, 124133, 67954, -174220, -95252, -196340, -11618, 177049, -182718, 93432, -98291, -146970, -19840, -191896, -102627, -222043, 364189, 6537, -129704, 39664, -20822, -40960, 113844, 140415, -98336, -106736, -50985, -426693, -280862, 253369, 304917, -46162, 106873, 57695, 570713, 207529, -23711, -177123, -297777, 37715, -140200, -263634, -119851, -200480, 312735, 163424, -1478, 274328, 14341, -159651, 282332, 99894, -192268, -35282, -162308, -256321, 171680, 353937, -259244, 104354, -120606, -90295, -109808, -160153, 8994, -154028, 50133, -9312, -44292, -168229, -106913, 140022, 92852, -181203, 18413, 139280, -309447, 100719, -122826, 105768, -141481, -334560, -301687, 8913, 48143, -167628, 118372, -307986, -12249, -224479, -120827, 8786, -159489, -71283, 186530, -106935, 154907, -209407, 98207, 267215, -458153, -147716, 106968, -37637, 68797, -111957, 16051, -28857, 216465, 47160, 62579, -76347, -90385, -80181, 73117, -78035, 53714, 384704, 161475, -60433, 222662, -75642, -377795, -186863, -346777, -65158, 3414, 310751, 60601, -40613, 153742, -409864, 43674, 142891, -274076, 212011, 62745, -76979, 117295, 420904, 33711, 46011, -85149, -157530, 153914, -158687, 13266, -88540, 88786, 61849, 192322, -94539, -50025, -181427, -82356, 69938, 140318, -170936, 161193, 251286, 76636, 347890, -143433, -230714, -329710, 277312, 121296, -10303, 51896, -208625, 453354, 23953, 20278, 134531, 89162, 41500, -146525, 87393, 348859, 249392, 295319, -94761, -183437, -23316, 10329, 202823, -313722, 283523, -29289, -79128, -187608, -306751, 152586, 13590, -239112, -240061, -62242, 309376, -48119, -278628, -45552, -50553, -499905, -10064, -42807, 129051, 342730, 208824, -49842, -205110, 477008, 10977, 2582, -4472, 36718, -26759, -106336, -101368, -6071, -100731, -132136, 19728, -47264, 278786, -491394, 202326, 230979, -384331, -63522, -68852, -260902, -144179, -205861, 324808, 173441, 235700, 133772, -209285, -97227, 90712, -226538, 132164, -44548, -69478, 131786, 82350, -66910, 214898, -200390, 114172, 109940, -57379, 60453, -231911, 171281, -34274, -96894, 194448, -130560, -261078, -288543, 112332, -237345, 325275, -385914, 314462, 39115, -17927, -101008, 73985, -6976, 204512, 21174, 27861, -67401, -10556, 57055, -317003, -249905, 137774, 31672, -34104, 3417, 64429, -100052, -144270, 36303, -181355, 75675, -315597, 190768, 87602, 47459, 182155, 308719, 188027, -341231, -237187, -115819, 4836, 95955, -134527, 34620, -140021, -113353, -260744, -171134, -250553, -180892, 195307, -175984, 487948, 91443, 34262, -159108, 129812, -106702, 22616, 474547, -17806, 213034, -130343, -6486, 328242, -116217, 335962, 131192, -104261, 117226, 180276, 115261, -291063, -134785, -45881, -13797, 115050, 32939, -247525, 70475, 113180, 103765, 200338, 154579, 85115, -13006, -307882, 79636, 38498, 50341, -236663, -200389, 195216, -7332, 126326, 5249, 5516, 173924, -95656, 17817, -85689, -80540, -57309, 41176, -88743, 232772, -165828, -34639, -81510, 268217, 36434, 191267, -275369, 49501, 164905, 15252, 197501, -95887, 261242, 426132, -67257, -82580, 269405, 292795, -96919, -77887, -52233, -249212, -170285, -186131, -142322, -6429, 43415, 287407, -185059, 182458, -39666, -9169, 125087, -208112, 70885, 30854, 91283, 53601, 455124, -118214, -98428, -115508, -102965, -118149, 220401, 263310, -105796, -154289, 87383, -102362, 117323, 37615, -280964, 286851, 332891, -113589, -71866, 52989, 61996, 122070, 372619, -32800, -147975, -255676, -135488, -6141, 332646, -95946, 41482, -3044, 220285, 468402, -98404, -90724, 193550, 126398, 342313, 108239, -66600, 109486, 205514, 152088, 94030, 197723, 216745, 256202, 120247, -30978, 27195, 223643, -151430, 68339, -72911, 5328, 236979, 35423, 8608, -252068, 138328, 119649, 400989, -57051, 40623, 46227, 292403, -17664, 51720, 112682, 34591, -82753, 35977, 199012, -190279, 24648, -129777, 221518, -282344, -103604, 69921, 290191, -12188, -102914, 348698, -268409, -407579, 81563, -93063, -189300, 131304, 45192, -104560, -237322, 161722, 120524, -18384, 342300, -198355, -282777, -128255, -8450, 45106, -44716, 65258, -231990, 267622, -15228, 207106, 63529, 84666, 105614, 82989, 119138, 246377, 36428, 131424, -16634, 266946, -125379, 333829, -7444, -265214, 23746, -126242, 155825, -120973, -82706, -350252, -83841, -449299, -293598, 140953, 145659, 78864, -179242, -8844, -668, -214719, 278676, 162631, -40959, 4984, 38627, -378464, -45818, -126415, -185664, -52106, 333226, 118789, -105876, 106136, 259390, 171394, 11053, -119919, 129425, 72938, 165936, 117738, 194549, -99213, 244197, 36628, 384678, -127750, 321785, 36685, -120749, -89695, -59381, 78625, 96915, -106343, -4514, 397099, 320224, 80879, 7044, 22249, 113724, -189589, -47708, -309295, 74002, 119967, -89565, 291760, -227213, -271442, 41605, 194094, 312139, -85061, 199948, -7138, -31999, 163799, 120917, -292206, 273697, 255819, -115957, 73368, 91575, 48319, -102007, -124495, -4737, 217382, 100764, -68698, 143045, -528017, 212940, -322480, -67183, -207546, -239987, 215175, -86695, 64229, -8697, 88426, 14240, -237820, 184672, -91525, -288534, -79357, 278187, 157600, -64627, -64740, -59619, 384954, 70797, 79714, 190977, 44263, -48017, -36396, -13272, -6900, 134876, 9629, 135805, -14962, 14576, -370394, 169854, 64226, 184995, -536861, 387109, -25875, 205417, -192761, 113586, -195265, -115624, 354792, -35346, 40304, 161279, 91881, 27882, 67651, 445506, -10680, 37276, 194753, 204924, 220032, 118397, -211872, 302779, -212491, 56098, -139815, -11889, 60941, 59568, 78209, 299124, 84069, -45258, 178707, 220485, -227554, 110736, 129972, -55158, 255006, -27815, 23277, -32081, 2888, -203210, -266933, 295564, -156996, -183768, -399161, -118440, -245253, 304370, 187184, -127558, 417520, 181984, -60212, -463299, 424658, -257576, -304997, 189548, 452242, 256594, 104528, 110246, 158192, 140678, 52123, 19315, -11603, -139758, -52027, -313813, -18229, -183249, -204566, 33346, 258027, 170223, -291114, -183441, 174385, -182118, -41639, 101960, -179496, 19533, -247280, -111472, 59276, -295283, 81648, -3640, 102412, 41506, 252862, 23212, -79596, 22670, 100708, 9057, 7524, -130124, -122878, -259992, 324308, -230567, -128440, -133167, 165887, -54673, 231286, -124841, 51715, -154843, 397633, -220138, 57430, 117479, 76703, -34346, -24064, 8121, -27249, 178668, 409751, -103339, -253912, -16364, 478185, -148972, 303833, 310985, -102615, 105469, 301846, -70277, -37736, -107823, -188099, -120353, -226874, 6318, -142725, 43335, -288407, 61333, 154506, -369566, 69337, 227565, -224224, 310034, 77671, -130684, -10338, 103494, 14089, 99866, -170660, 31393, -262051, -20617, -167552, -136341, 229127, 202289, 112912, -202475, -58651, 224864, 26269, 429920, 72907, 35599, -57299, 24754, -28262, 131258, 177338, -145694, -246762, -340366, 94163, -204524, -399068, 72028, 462112, -1125, 155426, 15168, -18331, 170364, -53806, 49565, 59631, -123840, 183889, -32431, -140088, 99450, -166543, 5224, -1690, 201286, 87992, -4639, 151584, 257694, 103398, 1919, -243167, -197434, -56578, -112981, -34658, 10501, 98186, -13068, 90180, 11951, -366180, -174119, -26709, -224234, 111205, 283746, 225914, -39565, 276327, 27558, -62484, -113703, -56067, -71954, 31589, 29765, 565, 80993, 220703, 176013, -275246, -473405, 173189, -253370, -41663, -216897, -334022, 100368, 140720, -106864, -480285, -101254, 72626, -274137, 33988, -2838, 107380, 22166, -180372, 221801, -29386, -5061, -172994, -82168, -164010, -32058, 317289, -254301, -299096, 272702, -38801, -124022, 192761, -112259, 338476, 125663, -90441, 399887, -112278, 137558, 55478, 241296, 289448, 5932, -139656, 85262, -125624, 373209, 25309, -67717, 34233, -249708, -180102, 222513, -121764, -194059, 99476, 219787, 133268, 184631, -140282, -263552, 278293, -59813, -46495, 246199, 103105, 84505, 401313, -119285, 171988, 10568, 49787, 283323, 94134, 99781, 198804, -67649, -155559, -193670, -364491, 381146, -204495, -41012, -51311, 56982, 151208, 159501, -108081, -30978, 52380, -46098, 297944, 91009, 136220, 122874, 217520, 33555, -240386, 74088, -120738, -97986, 108691, 229533, 3943, 57246, 315529, 44627, 482258, 104825, -326382, 139642, 70653, 239073, 124783, -25665, -226941, -38745, -157656, -107608, 109101, 309540, 73158, -221673, 82413, 221812, -113032, -24842, 2723, -145492, 120168, -22419, 77766, -164509, -81089, 133903, -69110, 320117, -74078, 41648, 172869, -262914, -326390, -282801, 234037, -102295, 474198, -104591, 34209, 285851, 371857, 382128, 223987, 189824, 109833, 144280, -102170, -151664, -626, -31546, -84012, 129085, 177079, 16387, 273881, -211628, -35897, -132873, -345988, -15326, -22568, 280539, 116930, -189847, 343682, 226335, 107900, -41982, -177845, -68994, 201815, 349334, 286061, -90615, -207537, 26115, -327805, 59904, -27360, -86386, -295600, 95203, -98743, -216860, -532413, -5100, 328511, 307937, -84729, -111628, 86894, -185065, 55941, 142004, 227429, -18565, -37754, -162746, -153274, -41981, 68096, 169346, -148880, 276690, -50257, -3961, -138506, -449366, 163870, 136584, -52148, 12418, 95636, -289639, -98067, 147228, -232500, 54415, -251461, 86459, -6607, -299387, 215901, -136167, -150191, 37178, 212916, -188297, 11433, 79487, 128477, 32706, -68034, -153405, 15968, -198736, -541513, 80922, 167557, -438002, -187168, 114769, 381385, 3854, -134945, -33902, 254852, -119738, -148141, -89483, -176713, 22739, 301157, 59887, -46777, -54091, -289759, 163697, -14428, -33454, 591887, 55378, -139355, -79031, 212880, 20996, -266605, 170392, -123850, 347242, 200202, -82917, 237454, 12578, 158073, 89852, -156884, -119291, 190917, -62055, -74822, -177045, 78520, 382317, -197882, 4489, 261775, -14763, 83853, -196929, 79393, -34690, 182719, 220098, 480011, 107443, 60391, 36032, -65464, 62743, -54757, 31227, 244235, -186577, 211292, 244145, -21886, -393315, -112668, 240416, -4239, -185234, -93567, 155821, 101345, -44289, -67996, -72618, -170981, 299432, -59747, 225617, 281997, 185051, -80007, 74837, -4485, -167514, 60124, -218551, 220153, -86123, 37288, 52511, -47992, 108752, -88030, 161507, -249496, 23426, 359407, -185425, -125629, 95260, 33288, 64994, 90678, 117654, 205698, 75966, -44720, 124671, 352169, -24585, -180642, 205213, -22314, -402734, 157081, -99230, -16782, 61537, 35312, 131507, -80723, 95111, -48111, 136949, 114067, -173396, 201302, -99348, 149785, 68082, 340733, -41423, -64751, -3600, -56199, 148280, -299605, -195315, -197932, 176153, 317086, -19361, -31293, 12985, 215370, -171898, 44185, 180766, 92885, 35142, 185558, -501081, 125654, -121242, -339333, 94758, 254627, -25478, 176628, 298858, 243738, 303990, 137564, 13983, -296946, -45611, -156307, 402414, -32603, 22838, 102225, 8082, 314201, -115417, 36073, -137627, -244684, -113400, -6865, -79577, -128350, -260680, -15405, -278921, 140887, 15281, -270177, -57316, -139423, 59163, 248471, -347589, 21322, -29683, 124442, 39519, -139388, -59141, -147554, 199453, 3950, 352412, -11244, -131313, -280588, -334237, -293641, 49516, 94299, -293096, 165908, -89542, 27210, 298847, 166242, -49776, -165195, -398869, -133305, -39136, -182987, -24330, 14246, -41680, -120487, 31262, 81920, -202121, 261536, -18275, 3494, 131277, 43230, 176677, 53222, -113524, 67010, -212005, 20123, -6160, -38577, -23826, -348827, -101714, 17210, 29632, -190494, 234616, -160557, 179702, 79186, -119787, 329078, -221257, 170378, 185472, -124309, 258113, -46350, 53513, 48254, -24896, 150295, 147084, -324115, 241777, -308166, 191397, 208850, -202226, -76150, -204958, -39839, -57098, 144521, 242884, 258709, -104206, -38782, -312049, -149379, 178849, 299471, -228804, -109821, -4895, 51932, -150071, 78606, -87833, -2679, 101261, 1190, -80890, -20318, -16379, -68587, -47971, 296331, 103974, -54771, 129190, -61878, 217455, 68518, -19890, 82991, -291184, -208862, -221310, 26496, 321146, 413602, 118272, 92838, -333851, -100592, -146027, -115083, -31168, -87509, -366891, 138635, -198848, 44348, 384460, -170421, -469024, -53015, 204078, 363007, -227914, 92070, -86252, -19639, 490166, -278596, 47034, 86693, 201265, 18163, 57101, -72597, 49886, -63615, 115217, -68512, 69901, -5424, 208729, -9527, -328656, 233915, -167890, -121185, -110414, 254771, -395877, 581625, 195755, 41380, -10175, 52931, 96597, 119600, 102989, 16605, -36579, -28041, -36129, 210160, 110024, -545042, 121580, 36097, -3468, -72017, 208370, 175637, -143264, 75453, -180110, -255731, -116171, 159857, 176675, 95107, 134407, 95681, -118907, 80063, 148367, 139818, 220382, 131294, 65146, 198367, -4916, -163468, -30227, -138078, -125154, -26789, -146886, -57085, -351008, 39537, 223, -151459, 122200, 173792, -297983, -141382, -142571, -174224, 153755, -35928, -49031, -371444, 117784, -229714, 11109, 51416, 252217, -242608, -559708, 34079, 333750, 229656, 38863, -91132, 149611, -180460, 88299, 93696, 196525, 511541, 72740, -94343, -4741, -327923, -128775, -75866, -97147, 28241, -152447, 207799, 38, -1724, -60780, 28767, 152943, -160735, -121991, -56300, -249476, -151861, -88274, 162080, 48669, 35885, 157726, -25464, 72378, -19134, 49189, -108022, -452068, -24890, 263726, 171687, 178950, 229134, 16434, 36575, -114490, -58588, 114142, 223157, -25848, -83449, 98, 111442, -267638, -425629, -102050, -226276, -94191, -27393, -84016, 269235, 60567, 55697, 115335, -211098, 192614, -14044, 124283, -198684, -288011, 151607, 69773, -167208, -161204, 208615, -220474, 304492, -166942, 118335, -60914, 111809, -100859, -30176, 7585, -185769, 137322, -95131, -42374, -184316, -474964, -35410, 447212, 145437, -3570, -48730, 4164, 101416, -218880, 206555, 132606, 133126, 81278, 3636, 124724, 109701, -65626, -106325, 18880, 287132, -229686, -272026, 30541, 9433, 32131, 45220, -41374, 276167, -296750, -153573, -19140, -304588, -32597, 307976, 3872, 42764, -233589, -114251, -69548, -58893, 237570, 103376, -206024, 45693, 92352, 211342, 292975, -188162, -150304, -233109, -43379, 86446, 183016, -14079, -59288, 28130, -154805, 387325, -298002, 34244, 375103, 1260, -35226, -66257, -33438, 254476, -409999, 284243, -263950, -49428, -79566, 109096, -296234, 85670, 375234, -252683, 35165, -122708, 78944, 3549, -118908, 90434, 334461, -35387, 133417, -239726, -177289, 87567, 275101, 65918, -58030, -131, -231780, 112055, 163553, -83801, -87129, 49284, -80952, -12259, 389212, -45790, -66423, -120031, 137946, -33592, -120370, 244922, 263143, -111297, -345989, 186757, -126906, 146553, -365186, 165455, -224507, 135457, 2646, -176826, -75450, 127219, 19629, 108329, 366361, -289954, 299773, 19344, -166602, -246592, -35056, 170841, -23643, 280113, -268995, -2241, -232148, 67404, 164397, -77994, -482727, 36878, 80956, 74942, 229069, -198535, 126087, 221048, -329686, 59252, -93457, -15111, 64447, -90315, -125252, 6331, -201536, -201273, 125931, -212945, 123510, 85748, -319902, -125596, 221345, -181873, -86084, 85649, 145212, -46626, -110757, 263656, 322329, 181445, 15815, -149823, -153934, 96855, 77556, 259806, 120570, -278617, 194993, -185004, -71174, 46378, 369925, 576466, 112464, -33958, 99078, 164539, -59440, 332767, 42647, 92264, 123438, 78147, 155509, -114416, -103489, -203929, 81468, 144387, 84855, 310390, -1037, 123960, -202362, -71754, 128928, 157393, -54491, -13272, -281359, -66180, 165045, 106622, 92805, 9226, 1309, -122400], "bias": [135829904739, 81823682726, 95632735191, -102244357132, -418541025553, 213251413385, -93070693972, -167696027313, 134790131341, -76194725340, 206017749011, 119926232151, 132864024085, -265498123383, 235563167332, 50778751614, -71775670817, 27870134209, -345243346585, 79429042738, -200076914241, -262915861402, -295897959020, 216271049674, -122308687441, 298107636598, -104142675915, -331855806134, -217016658071, 240202272502, -30301622038, -106569522789, 31102427643, 97530522920, 217186608804, 281541944666, -69927523657, -257741279080, -80364409667, 50590209832, -187323925809, -186039539654, 66821373962, -9456461827, 6374687454, -147427245486, -44782533391, -179641377359, 173026113258, 201219375818, -358839901483, -180667196617, -290877446140, -126343872883, -16217673982, -281764688449, -179180077656, -195137218622, 40286142913, 13478322320, -140282707862, 34368324934, -106257132174, -52801069176]}, {"weight": [310197, 248473, -240895, 153802, 150404, -212846, 151772, 285077, -208079, -170072, 188638, 50325, 102224, 63133, 72421, -245880, 194135, 216800, -42521, -8059, -283812, 95324, 106039, -11528, 208414, -61926, 104657, -189009, -4366, -32319, 41764, -68497, -24370, 153119, -80960, -297801, 324310, 256072, -239539, 127847, -93233, 48841, 54539, -43451, -145282, -128001, -169829, -154190, -12452, -132676, 126428, 275682, -107521, 44377, 92624, 87492, 14079, 137666, 89391, -229418, 161110, 164472, -141486, 7032, 126664, -38799, 198891, 438176, -145693, -255996, 56317, 133752, -42794, 269382, -248129, 128442, -112305, 318710, 369340, -142110, -101868, 159336, -71760, -8418, 4706, -355838, -2565, -127851, -91407, 267597, -232911, 150739, -51710, -51857, 146506, 63033, 105771, 179466, -61413, -113487, -201148, -153001, 546655, 230719, -250440, -245136, 89321, 101443, 101743, -47260, -23255, 60777, 15921, -411378, -42597, -157820, 32478, 553359, 68118, -58117, 170869, 89473, 77870, 112488, 381209, -209626, 87794, -171718, 102972, -170291, -77365, -54699, 180881, 170248, -230911, 10183, -131530, -233281, -40227, -57182, 449825, 80255, -255360, -104689, 189327, 387122, -293984, -348470, 346809, 72220, -160950, 99101, -488572, 626, 60766, 171326, -187940, 15883, -171540, 47339, -165965, -75647, -184588, 120697, 159126, -43490, 7088, -268516, -55549, -9306, 485800, -206118, 271405, 184782, 52020, 325985, 68975, 72136, -9847, 226805, 203246, -115978, -244541, -37625, -148298, -11775, 229376, -84767, -7938, 10755, 157268, -416492, -112460, 39164, 222451, -91181, -347845, 114872, -117773, -220521, -115731, -34204, -112098, -408832, 166284, 236316, 120769, -210886, -37349, -1209, 110995, 123886, -136089, 15199, 84763, 269857, 130590, 146263, 15538, 261448, 75955, -159615, 260134, 129366, -82124, -88881, 54974, 85858, 36571, 57705, 315111, 198625, 35337, 174485, -191393, 73761, 335380, -40418, -157121, -120874, -201979, -145466, -68679, -260541, 2895, 167250, -168265, 281620, 94682, 191032, -121939, 158398, -202405, 165020, 31853, 102553, -217913, -165914, 110704, -175789, 85862, -253418, 157221, -228465, 102376, 115969, -129156, 107887, 48277, -99882, -186950, -363800, 64812, -290058, 17673, -48834, 125888, -55988, -61068, 135662, 62108, 58604, 86985, -284639, 140281, 113530, -188456, -45244, -7286, -24931, 61886, 265324, 200520, -243238, 115309, 246336, 71700, 202228, 373002, 189759, 46213, 193722, 26857, 4431, -65139, 289800, -151707, 284046, 92657, -259381, 68149, -389269, 115947, 164090, -109801, 22901, 362230, -93747, -196283, 274647, 363793, 685, 187489, 248661, -137630, -89958, 228160, 312341, 104338, -163086, 368329, -98423, -62122, 63457, 288085, 158296, 76901, 85877, 8066, 103459, -468889, -54980, 44732, -213356, 71610, -37902, 325402, 291581, -86343, -27960, -13707, -83721, 36151, -140558, -209575, 115428, 116692, -149091, 165966, -117072, 46928, 152062, -6231, 84293, -95727, -36418, -38159, -138389, -32768, -287058, -91042, -52806, -47486, -44765, -11449, 88871, 162104, -120443, -223030, -193157, -90310, -65233, -142729, -240253, -84548, 33630, 110297, -103326, -76555, -171776, -5828, -157268, 106237, -331035, -66662, 55814, 34076, 499191, 64840, -186115, -17696, -329252, -14940, -154418, 169680, -101865, -21644, -117809, 322320, -59547, 339690, 150914, 89358, 68350, 72996, -357321, -51695, 156662, -9064, -260471, -9714, 315879, 231129, -11493, 176364, -67937, -315836, -171363, 289703, -50788, -45115, -55579, 352958, 301394, 411282, -29481, 54798, -281131, 273770, -216464, 40182, -203400, -109155, -155198, -112678, -99934, -101629, 154470, -204802, 40880, 225766, -95128, -133076, -42731, 218678, 35981, -98468, 89693, -204325, 126299, 75741, -57057, -155443, -164359, 99136, 227808, -118134, 84968, -386859, -108367, -5757, -168622, -173594, -123782, 54162, -34724, -414887, -393101, -112491, 84839, -509288, -92632, -97547, 257348, -71369, 70992, 26184, -394930, 142398, 39927, 94215, 727782, -386319, 319696, -53282, 53260, -8436, -78638, -105626, 61079, -281229, 139130, -77147, -209474, -83416, 233030, -99232, 66444, -135493, 140491, 127068, 342665, -32543, 123944, 18178, 240208, -133246, 138097, -36090, -11898, 17008, 46756, -21545, 39800, 292526, 182667, 161110, -84441, -164833, 177078, 162387, 272980, -111956, -42550, -303901, -72750, 184728, -86471, 118722, -35312, 60068, -212740, 15795, -554448, -34644, -302231, 223548, 144103, 86504, 281939, -175895, 323898, 172795, -43849, 210503, -205067, -152835, -112811, -98053, -195848, 226715, -47982, 65342, -105722, -337474, 50059, -354463, -12722, -253636, 368369, 168934, 19603, 234245, -156876, 100741, 37038, 48940, 235848, 135778, 53519, -306756, -177958, -22746, 17308, -209499, 447038, 281085, 111611, 13353, -39336, -176451, 14362, 47778, -230177, 61944, -28779, -353638, -159484, -76667, 349909, 103165, -247550, 90094, -286814, 200692, -87329, -17357, 245755, -238594, -258975, -108178, 192478, -281632, -524979, -83629, 102273, 222485, -85853, -76264, 213891, -346582, -72018, 35298, 83269, -94500, 6384, -461246, -122015, 84064, -182082, 10934, 82834, -63496, 31598, -178456, -38298, 113112, 29097, -108722, 41562, 132463, -379985, 214850, -62329, 78870, 221926, -254259, -131505, -53486, -145280, 321594, -158815, -102978, 37886, -222835, -73345, 58844, -61700, -17311, -98119, -280728, 59612, 325301, 3411, 41756, 128406, -235288, 315585, 37504, 302487, -135878, 337003, 143686, 102514, 43380, -46068, 222535, 26018, -364624, -207086, -34449, 57463, -10489, 225953, -361664, 26616, -336988, 140823, -17509, 77780, -160133, 237166, 193098, 108168, -24008, 107485, -131032, 158589, 305754, 198452, -135242, 66994, -239702, 106100, 83526, -346596, -215353, -52484, -55769, -224193, 72103, 46614, -36010, -140096, 194392, 306853, -89635, -113474, 91052, -66366, -25839, 137105, -353926, 244366, 13472, -76276, -16541, -6964, -320902, 277107, 7660, 82117, 176383, -189287, 87765, -49611, 156961, -394311, -18368, -111741, 80126, 87129, -131168, -132011, -20513, -166205, 156073, -68438, -538850, -69478, -192508, -302379, -229374, 20280, 246282, 58053, -112424, 84508, -85099, -128754, -213977, -324726, -72278, 29297, -17911, -77105, -175307, 112747, -244149, 143847, -185775, -139474, -271889, -92942, 180788, 95579, 181364, 96786, -204580, -61316, -144621, 246640, -221841, 165659, 165521, 339145, -75941, 132039, 422936, -114488, -284541, -348486, 132111, -349068, -69014, 81062, 34325, 78862, 41204, 237055, -176525, -125490, -143223, 153888, 166901, 83641, 219377, -218366, 309043, 282353, 136358, 330281, -307078, -97214, -136299, 133736, -194658, 140412, 254048, 128865, 52597, -183116, -156976, 231634, 144463, -7233, -77465, -375511, -198497, 354308, -237350, 35123, 186744, -232617, 34239, 173856, 2317, 531698, -309298, 196250, -32031, 143086, 81802, -135901, 42448, -344388, 111820, 55268, 118384, 196137, 68143, 27450, -163318, -132020, 219978, 266245, -44137, 8527, -167683, 217387, 123344, 359831, -162809, -70069, 42902, 119836, -39977, -161815, 163381, 133672, -169844, 251250, 216912, 24894, 14755, 102702, -159729, 5567, -398974, 162463, -289444, 278680, -61192, -39235, -116359, -53392, 262944, -461150, 236703, 62657, -223738, -199324, 310743, -175263, -213789, 210817, 62755, -173857, 40154, -190137, 204052, 196740, 98615, 67039, 326461, -58, -219077, 83316, 386678, -188100, -67002, 77194, -9992, -182084, 207952, 430052, 36356, -167582, -287121, 47819, 204619, 88079, -446, -109230, -202448, 154733, 169380, -286522, 294699, 106412, 259434, -248782, -253174, -27614, 93198, 332980, 130881, -44984, -190252, 227998, -178821, 301859, -52715, 294836, 125849, -25394, -96277, -63192, 79394, 14302, -110071, -30702, 14565, -394590, 84928, -181605, -213786, -312773, -332523, -251251, -131427, 362064, -97479, 32948, 74235, 24295, -14355, -221564, 268949, 334989, -311904, -189818, -51867, -178790, 93788, -134995, 401323, 220685, 39404, 190366, 204994, -104535, -151297, 14485, 159716, 25777, -292318, -148815, -13712, -14026, 365638, -256912, 93718, 276028, 421045, -74961, 91093, 105613, 36235, -18322, 80814, -469387, 126431, 23389, -41239, 379414, -125108, -74716, 369162, -154234, -101971, -27253, 155842, 38519, -239606, -98645, -112582, -14314, 78936, 77520, -329208, 197216, 46817, 256642, 82338, 204145, 86481, 249542, 96806, -18150, 421227, 164795, 106351, -236581, -238806, 54259, 26974, -113836, 26133, 294474, 128902, -211502, -20670, -149212, -71866, -76669, -88538, -232657, -23663, -103916, -543014, 380547, 201818, -69753, 3488, -217182, 314326, 351689, 29045, 189726, 32492, -247781, -76337, 24455, -84257, -40530, -16942, -14992, 9687, -196598, -132909, -238115, 181252, -390311, 213834, 256979, -56013, -482527, -66974, -11897, -187328, -95503, 283643, 123253, -171381, -296137, -60617, -39567, 91977, -99228, 94814, 358708, 151164, -8914, -33949, -66114, 218848, -116281, 8383, 9490, -93013, -254405, 59868, -11308, 92726, -98910, 226296, -162522, 317350, -323949, 80591, 88128, -147467, 78667, 237176, -410918, 93191, -462162, -178999, 301988, -107841, -217595, -36690, 383315, -339528, -194875, 277570, 344351, -19172, -229676, 388494, 295552, 125852, -150590, -9088, -29725, 61328, 268963, 163012, -199707, 255153, 58043, 127357, 271844, -206047, -6641, -98512, -290624, 64267, 465552, -341084, -5984, 118733, 22814, -20970, -240828, 43150, -140277, -405932, 221434, 177650, 9576, 42462, 199140, 41584, 167572, -55142, 243194, 59462, 35970, -235423, 53191, -154214, -118315, -151141, -197641, 393856, 246782, 355967, -226680, 13208, -239769, -128957, -170188, 229774, -73447, 198039, 111982, 427011, -274235, 233416, 212509, -180429, 186686, 62309, -42166, -152728, -133297, 379961, 127, 144979, -146604, -144557, 200561, -250163, -76966, 6307, 20644, -33197, 73371, 128430, 136175, -182732, -52672, 221466, 165835, -254478, 65152, -366691, 8700, 351777, -175705, -154653, 141623, -285980, -117290, 110559, -117574, -43740, 137945, 78139, 49458, -62861, 68596, -22936, 84861, -92113, -33842, -183502, -6489, -150330, -206504, 47946, 39434, 145116, -79915, 75638, 102098, 82445, -153046, 27687, 67498, 1331, -386757, 29749, 410123, -66738, -134959, 69205, 57904, 221090, -233163, 135571, 109443, -26349, 62780, 190824, 161696, -211874, 152028, -11991, 13508, 13568, -27850, 220899, -15518, -207523, -72946, 33124, 227852, 111792, -157658, 460664, 49080, 236411, -28122, 98865, 155607, 225809, 195998, 161674, -58406, -105981, 61653, 172968, -41284, 197444, 269263, -169853, -155135, -26020, 57020, -97236, 250649, 78607, 7312, -266166, -243905, 52089, -395306, 187706, -29316, 601152, 427804, -33634, -19711, 184545, 315707, -303631, -331129, -115303, 108018, 92102, 198297, -222380, -429329, 159045, -153518, -374155, 26890, 147026, -22625, -84869, -29540, -68693, -249879, -132476, 96626, 59628, 31152, -184465, -33644, -403549, 33083, 264858, -273251, -108610, 61004, 232232, -83085, -128318, -364967, 19174, 378527, 51412, -4130, 59702, -2056, -150703, 152606, 41848, 3265, -180798, 241623, 123212, -102492, 185702, -92232, -144955, -140821, -328292, 87407, -339428, -227709, -384739, -15954, -27864, -60558, -193256, -217290, 86077, -102052, 58641, -164093, 33562, 241581, 108654, -76447, 47675, -44611, 1461, -60357, -30462, 39314, -184133, -188307, -257386, -296632, -225640, 29559, -165490, 95206, 6435, -364889, 121409, 150293, -184226, 77888, -158764, 18105, -234392, -332377, -70960, -22935, -73715, -219476, -74127, 49917, -8322, 33829, -124215, 217194, -218020, 90376, 219080, 89143, -37541, -97927, 192053, -263768, -179826, -73693, 229416, 70395, -179441, -57520, -113873, -131569, 181451, -254272, 298210, 153524, 202206, -85812, -27794, -265654, -97253, 91506, 240243, -205227, -67752, -28045, -258729, 109615, -134202, -36218, -83775, -146315, -1306, -39966, -68929, -135030, 59228, 306521, 25930, 184644, -257697, 29243, -203412, -273768, -137053, 220935, 176099, 45044, -284107, -36383, 55924, 32538, -341773, -165033, -11878, 99409, -407083, -30052, 26516, 157487, 128431, 107988, -148280, -353675, -72858, 185666, 258296, 131710, 79584, 70371, -103084, -24108, 309385, -174716, 299322, -59692, 245687, -260773, 108605, -136571, -262339, 40508, 187120, -156622, -277863, -17025, -16207, 101639, 176020, -11013, 343943, 41565, -64215, -298726, -48688, -62354, 178006, 85728, -218612, 31930, 124478, 283242, 164511, 141033, 11138, 71979, 231613, -247049, -64773, -143206, 70281, 228039, -110657, -443076, -76411, 169325, 99657, 79370, -51901, -237086, 95517, -154646, 404852, 105751, -107631, -113329, -17228, -44395, 207021, 34555, -135618, 350419, 9140, 142515, -112743, 67308, 57669, -350273, 373559, 239239, -73626, -204321, 64425, 16071, 65928, 35512, 93839, 268278, 105306, -194568, 252570, 304111, 584277, -208255, 45022, -385946, 102534, -101616, 356537, -143586, -313113, -87355, -366184, 139227, -382792, 5275, -385151, -59372, 304623, 66851, -160060, -5784, 3340, 87609, -253366, 109841, -501296, -116758, -90508, 117396, 4195, -260541, -182582, 36828, -14656, -107349, -89129, 129044, -95961, -16329, 402228, -263899, -343265, 145249, -125796, -58990, -144798, -48158, 296311, 148686, 159825, -262517, -213382, -526262, -150030, 177338, 95823, -41061, -4134, -127694, 37955, 141966, -299527, 55544, 172840, -76945, 129885, 521735, -19341, 72905, -136809, 33597, 85318, 36117, -189015, 38252, 271038, 83161, 178318, -43933, 139004, 51766, -176264, 59042, -183825, -117313, 35095, 55098, -220441, 195371, 106029, -130631, -285013, -26860, -82662, 20972, -67309, -372110, -71985, -56651, 117458, -129421, 311166, -354349, 243043, -41581, 159336, 14792, 211232, -71803, -203644, 263310, -21035, 41069, 228878, -191287, 110382, -109345, -24499, 13398, -278087, -144368, 250440, 164268, -11611, 45066, -54542, 251461, -37138, 42975, 212433, -144097, 288943, -283692, 302077, -69081, -44988, -350339, -84302, -192742, -112636, -25452, 177540, 38482, 57032, -203070, -163260, 333419, -136280, 307001, -45055, 424, 198407, 235763, -20541, -71966, -10366, 62645, 165215, 784, 114719, 303693, 70681, 57769, -281551, -487642, 71991, -17577, -95422, 45142, -11197, 209050, 15962, -138453, 183541, -40248, 97601, -88495, -120454, 15602, 2378, 88943, -49797, -340395, -80221, 147145, -55123, -45671, 182838, -131974, -285980, -29775, -89748, -179107, -32509, 91107, -1722, 56903, 336140, -63557, 51596, -94390, -156884, -108421, -88745, 66634, 435434, -132729, -77227, -11701, 73367, 48853, 238025, -449765, -442450, -91918, 203400, -290214, -557506, 105876, 45165, -202085, -182683, -179755, 20489, -116096, 91582, -529144, -158829, -208730, -47516, -99735, 147891, -344654, 8432, 103495, 344155, -89302, 60143, -334371, -443382, 156591, -1031, 218454, -254579, 96371, 346411, 77798, 51268, 1586, -291185, 251274, -113231, 93513, -289730, -218629, 266013, -64377, 269385, -14501, -341421, 165357, -109345, 129512, 4673, -286038, 30454, 407100, 91382, -10662, 199330, 39050, 38840, -202348, 43347, 191934, -154976, 264050, -16999, -164560, 184925, -53161, 140787, -54081, -11090, 91488, 53922, -369899, -207838, 172279, -24493, -97081, -251830, -200144, -374768, -18774, -110929, -179170, -12628, 67467, 388003, -280248, 214907, 180378, -144416, 37673, -84829, 34420, 279738, 112257, 94278, -79764, -275090, -38642, 223661, -283082, -195575, 23405, -182519, -146905, -78520, -253136, -180567, 130390, -242339, -296188, -116784, 135678, -36502, -86117, 8223, -323591, 91701, 71075, -75871, 186462, -208997, 209073, 28638, -62385, -3684, -19883, 226196, -199577, -141343, 192093, -110391, 166926, 315014, -74478, 126300, -213853, 139900, 36966, 87684, -119666, -307905, 93285, -382480, -58825, 174461, 35571, 361152, 190018, -121209, 5063, -8781, -293278, -174316, -103945, -377442, 8804, -46169, -310094, 74926, 132697, 42084, -60071, 109632, 126088, 56981, -152853, 51272, 221599, -110593, 388882, -97433, 6007, -124654, 41386, -322945, -101216, -202440, 25087, 184335, 119746, -439620, 378526, 54734, -143935, 29126, 32659, -123610, 36687, -112603, -74954, -127211, -265565, 27033, 108493, 95441, 151984, 60121, -98748, 155643, -251635, -166952, -178728, 200203, 174759, 90329, 198697, -162987, 64617, -23203, 156981, -21358, -71354, 100265, 162410, -123887, -11321, -196197, -463050, 37158, 112869, 48578, -361378, -65035, -411201, 253893, -201315, 232706, 175330, -166937, -209977, 64946, -156507, 18997, -89499, -330162, -413448, 42019, -104092, -102523, 128988, 217514, -50520, -63135, 92708, -251527, 41364, 102300, 126090, -359004, -141128, -162798, 18515, 89113, 277436, -91749, -92232, 213108, 54975, 234977, 53520, -214488, -247114, -287594, 122720, 220323, 342805, 156281, 215548, -107514, -214358, 157574, 77423, 19916, 71805, 59907, 237973, 240043, 100879, 156781, 95289, -85484, 140240, -258489, 195353, -221421, 52978, -156661, 102578, -6289, -295610, 77982, -107126, 163333, 246, 73297, -177499, -109241, -85015, 158802, 310925, -149250, 199609, -402180, -221359, -177723, -250706, -293540, 76555, -39680, 70328, 127989, 49236, 121925, -12889, -220026, 196080, -109200, -173426, -32980, -169202, -77376, 63775, 64570, -166425, -90403, 199142, 92015, 384642, 218753, 212111, -257261, 141592, -9844, -102132, 31144, 175208, 92836, -162837, 137625, -118186, 40165, -56230, -40570, 142034, -192814, 360569, -337563, -110786, 68624, 108311, -18625, -10638, 76101, -42832, 258245, 155585, 161790, -179090, -14716, -55696, -186402, 66761, -99660, 121488, -198375, 318648, -166148, 40651, 146782, -105776, 158017, -227846, 269170, 2623, -110553, -55457, 149944, -108337, -138904, -41065, -218166, 337463, -104989, 154152, 38828, -182497, -1104, 145326, -34897, 221160, 189352, 170334, -85204, -200164, -113737, 36376, 101169, -402531, -1504, 29304, -51447, 239355, 78183, 242862, -40031, 173774, 303082, 243140, -202444, -47022, -63981, 90690, 127225, -155500, 12575, -374421, 267284, -94976, 10355, -57398, 212432, -525971, -3079, -19615, -84088, 319980, -164479, 143063, 66036, 233840, -123673, -135866, 203172, 78839, -286375, -99968, 71621, 155291, -125905, -540198, 96987, -226203, -373942, -525011, 150883, 23841, -41829, 257475, 118137, 299604, -258163, -6404, -299680, -42519, -46084, 116151, 8446, 115557, 130392, 399446, -58445, -174432, 45615, -148714, 274702, -52498, -104837, -87365, 133169, -29241, -118942, 308696, -158703, 6593, 120914, -302390, 89023, -195579, 152514, -178441, 128414, 204981, 159679, 46585, -42875, -106847, 272677, -129661, -192235, 123335, -147575, -176107, -267592, -89514, -15332, 45060, 176338, 97668, -35381, -36738, 94565, 235888, 23414, -86960, -184041, -267889, 123502, 107136, 107022, -23849, 260795, -89738, 177072, -7182, -112766, 109834, 75932, 66170, 15066, -7024, 442718, 219518, 133986, 20724, 186690, 96017, 4857, -56270, -14999, -587682, 39038, -90546, 295223, 3586, -220391, -9246, -193913, 87753, 53931, 177549, -146601, 6304, -253026, 130032, 96180, 91904, 300, 76884, 297386, -52846, 25700, -201328, -160944, 18131, 204629, -47505, -43730, -75422, -99125, 54677, -277537, 237440, -123345, 133815, -235412, 123979, 124554, 71217, -184331, 46257, -219296, -46853, 190816, 147680, 2814, -180694, 119669, 3593, -430103, 145071, -4492, 222891, -203024, -588846, 51732, 54045, -313389, -181378, 510718, -56649, 135493, -120609, -387466, -31560, -49233, -74123, -21250, 48986, -27826, -234301, 90121, -361343, -380062, 137017, 93983, -10639, -258666, -131221, -48704, -295821, -136989, 120918, 264571, -77748, 140226, -354797, 122238, -149023, 56971, -45924, 244757, -162089, 116335, -51811, -29344, -34080, -156757, -2613, -11613, 44717, 15664, 147919, 171185, -194748, 161039, -219904, 108967, 114877, -354289, 17235, -86842, -140648, 250399, -121168, -149473, 14031, 127084, -26257, 216203, 98424, -403762, -98144, -104145, 88856, -486546, 472494, 98433, 27596, 219020, 434429, 161405, 175876, 24225, -26234, -88195, -153131, -127348, -250344, -14064, -312276, 35389, -6734, 27236, -96784, 570339, 252116, -230693, 43165, -112702, -188048, -248401, 80117, -126303, 179400, 184211, 254674, -158002, 88116, 117234, -87895, -143059, 298347, 42170, 117885, -152383, -226011, -105555, -22989, -197268, -1825, -312988, -207616, 124363, 111921, -72640, -188657, -190443, -69190, 119470, 172063, -92039, -213816, 49649, -152654, -96065, 245658, 153317, 29283, -235768, 39185, 196978, -69629, 250448, 239628, 308396, 56581, 108881, 262139, 82931, -92911, -83144, 44219, -239223, -26555, 203260, -406179, 284437, 208048, -85224, 100725, 583, 227996, 182154, -259522, 108857, -38116, 15354, -134977, 324041, 192790, -137127, -247388, -71490, 80541, 44525, 232285, 146423, 179723, 60587, -257526, -36275, 196502, -9550, 93255, -59084, -190890, -22864, 57286, -121541, -43692, -174142, 207467, -54581, 269288, 283375, -15023, -186930, -386650, -272862, -254659, 255518, 21470, 72219, -411586, -222060, 164432, 53158, -27287, 104701, 303218, -40973, 12859, 35700, 443411, -389145, 126645, -21280, 105059, -121853, -9076, 131870, 577021, 149781, -157201, -78550, -84047, -332847, -61187, 135840, -236197, 194351, 90416, -136100, -26234, 296271, 135973, 1628, -44058, 14201, -94862, -390144, 378546, 28792, 73802, -10734, -136264, -34464, -296470, 422089, -228834, -191289, -81608, 238763, 2689, -229135, 232509, 135501, 99806, 132671, 443828, 405037, -127292, 301009, 71026, 92514, -313686, -31583, -150668, 153492, 198540, -384535, -4084, 207953, -34604, 135142, 65093, 63331, -50292, -225510, -207891, 131488, 3607, -25675, -78574, -56571, 194060, -62142, -248585, 137846, -37977, 5820, 297987, -3811, 53604, -218530, -40719, 112984, -288310, 37229, 18683, 7653, 192252, 61993, 273981, -184176, 25195, 15657, -198201, 177262, 430910, -3152, 93613, 15667, -132273, -337503, -130825, -258019, 315879, -21337, -64121, 164817, -207932, -142149, 12618, 190697, 92994, 46030, 14480, 74189, 37379, -190920, 8541, -199023, 15030, -89095, 470709, -7395, -260295, -24872, 96270, 310181, -109263, -293325, 151412, -255913, -80847, -47754, -12908, 127746, -126721, -50739, -2645, 27730, 18134, 80820, 156417, 72780, 84078, -293287, 9310, 88883, 135119, -128337, -122162, -106417, 99432, 191644, -75528, 168303, 22889, -23038, -39183, 138395, 60350, 421856, -157972, 96037, -98095, -161134, -2014, 25460, 540924, -34134, -209494, 50606, -384563, -17045, 2971, 147290, 180474, -93344, -27918, -142011, -209102, 57443, -236077, -76857, -184469, 101891, 333920, -241267, -343483, -23150, 2910, 40532, -82732, -37191, 68123, 192858, -362395, -68388, 39632, -170160, 320896, -117782, -7654, 103066, -109603, -342288, -79457, 190821, -62448, -156898, 171586, -61314, -94565, 27704, 142869, 441483, 153340, 214992, -93788, -190159, 11554, 19865, -199917, -32493, 74019, 66804, 93477, 53934, -93981, -95259, -222242, 330833, 2493, -41680, -172164, 544165, -198956, -79493, 77081, 111258, 177566, 335065, 93823, -195750, -47628, 57061, 383374, -259103, 222914, 33350, 155303, -18906, -156157, 139185, 121308, 180184, -2466, -111185, -288943, 151882, 78574, -179021, -99832, -86520, -274892, -151569, -210171, -76459, -136928, -301588, 374915, 232176, -144402, 50497, 77383, 220784, -151740, 202437, -101562, -247621, 134229, 239260, 479705, -222386, 129554, -75962, 145206, -272576, -234072, -143819, 14637, -118833, 122165, 190349, 111140, 300065, 77079, -225569, 252721, -112174, 168759, 291713, 84653, -277334, -170203, 245189, -31349, 14750, 140659, 129073, 51679, -38680, -57957, 159023, 102612, -47694, 200584, -23918, -157867, -140686, -181423, -50495, 228688, -149236, 34937, -121726, -48252, -279907, -40880, -35906, 100150, 41388, -222139, 200971, 38983, 36775, -1702, -95973, 40373, 88157, -323811, -99867, -47258, 47485, 221197, -143053, -92304, -95005, -148574, -64356, 142879, -195343, 79301, -315471, -104052, -61075, 310458, -50938, -408031, -370522, 6308, 113771, 69596, 31061, 215441, -100021, 165884, -302516, -167745, -334960, -50946, -8575, 21150, 11471, -171935, -35264, -277572, 252693, -56281, -90622, 294532, -230268, -208643, -203200, -12581, 80009, 137109, 476755, -416963, 112838, -103272, -108700, -114883, -168453, 312250, 156131, 4300, 250429, -280368, -246665, -403716, -129646, 29973, 19066, 27683, -261559, 148876, 44418, 135882, -350850, 57739, -220169, -73649, 99052, 16885, -157845, 1163, -283891, 213218, -38052, 207339, -97600, -97052, -141653, 162411, -131503, 119485, -70893, -366272, -105716, -218564, 6284, -220659, 171642, -16882, -32920, 121579, 178673, -3726, -142953, -328830, -127169, -114409, 19845, -63978, 127518, -113625, -10573, 219468, 63362, -11129, -111579, -117378, -157673, -100283, 140073, -41130, -250199, 327755, 59310, -260796, -81903, 20554, 315970, -205404, 180923, 259414, -116530, -51441, -192094, -37714, -6782, 122275, 202081, -138670, -364671, -3938, 54411, 46233, -60553, 23125, 280909, 70760, -69209, -92719, -31484, 303392, -33977, -3669, -89403, 203712, 363283, 83527, 15343, 6818, -441964, 138124, 24870, 79399, -131879, -71264, -76189, 189372, -70208, 386050, 79866, -236465, -23828, -120797, -406759, 296484, 130337, 98837, 30660, -256176, -89645, 156036, -194858, -469298, -42097, -26277, 25129, 135041, 118189, 47967, 221608, -281562, 93531, 116138, -229770, -278578, -138271, -122626, 139657, -113913, -158736, -113375, 207354, 2418, -33227, -20391, 239501, -138869, 243848, 39018, -29736, 463576, -195677, -65561, -228448, 176552, 313114, 309543, 226876, -36632, -67702, -309774, 377377, 86932, -91191, 246174, -180315, 75373, -31999, 118388, -11784, -268950, 14009, 194421, -5416, 143678, -193803, -4868, -115762, 138463, 5837, 127915, 201622, 128201, 50626, -185032, -516, -98816, -63777, -69425, -181643, -362820, -123850, 35846, -249903, 2907, 352241, 189638, 304653, 72501, 216414, -134197, -119437, -507737, 219868, 285520, -102539, -47073, -139739, 70930, 208522, -323047, 75895, -51285, 21019, 85081, -34886, -19201, -39645, 179861, 77623, 40888, -235588, -70175, 166581, 6988, 122253, 327447, 192520, 17268, -94719, -473336, -31212, -60431, 72360, -28528, -59388, -329836, -174236, 88354, 318067, -18078, 60764, 176555, -150310, 67994, -137260, 160307, 28065, 55322, -145065, 131058, 386430, -186830, -62979, 42932, 145771, -103720, -525141, 251945, 140970, -323079, -112621, 290684, 268369, 173990, -32645, 15383, -24269, 209135, -162349, -149366, 187268, -8223, 255518, -124474, -10154, -170982, 1365, -274069, -90390, -266229, 128628, 132830, -320728, 247254, 462930, 8528, -118839, 523529, -244489, 3727, 33295, 249342, 66683, -92429, -176315, -63361, -186648, 8865, -104582, -276941, 232659, -92250, -235067, -31189, 12674, -323732, 61475, -194105, 317163, 97123, -74127, -138127, -19457, 113589, -4726, -40253, 10820, -111934, -63618, -386630, 180494, 55386, -143371, 351957, 16130, -192064, 158808, 73784, 73141, -78920, 83506, -48521, 103051, -353108, -80424, 319225, -142187, -111930, -83036, -225181, -409335, -42742, 25183, -9733, -26855, 7978, 189598, -35302, -106414, -52110, 107390, 261739, -116435, 18339, 62719, -183988, 3785, -271683, -327918, 67982, -71156, 37495, -3317, -180989, -8389, -228572, 257836, -251348, -36292, -193199, 105735, -61435, -96142, 158153, 5455, 95767, -181902, -260402, 19872, -59103, 116118, -14812, 38014, -300916, 350048, -30445, 129307, -154981, 57094, -241500, 83797, -65985, 5411, 129379, -228468, -126880, 84771, 388934, -25595, 109575, -19829, 360022, -323872, 17539, -301317, -464628, 55139, 25858, -52798, -19685, 574313, -47856, 94559, -120369, 54725, -44160, -76095, 337158, 218207, 25348, -427117, -66918, 501043, -42756, 204497, 267284, 40588, -156043, -451419, 126819, -151026, 32652, -231671, -49165, 6250, 49788, -206648, 221864, -110643, -310386, -20209, 6372, 29767, 252490, -43829, -22173, -204490, 152101, 34164, -77858, -353058, 267742, -227567, -109602, 66424, -221799, -276843, -393703, 133647, -101058, 542610, -184317, -170804, -104803, 45068, -87159, 113504, -181395, -256097, -333324, -412170, -96031, -55791, -117046, 230482, 227632, -62060, -332528, -105047, -111185, -121809, -129332, -121128, -71651, -117806, 38615, 66799, -168801, 235609, -181668, -299882, 70582, -151518, 59556, -445553, 258111, 124619, -278134, -274112, 309978, -136684, -154628, -420044, -65022, -42211, 132627, -259338, -281806, 83592, 186611, -291235, 200474, 6959, 202381, -13016, -467539, -28169, 196512, -165668, -71915, -32649, -537465, 309807, -167082, 93745, -16071, 233117, 75268, -43546, -165625, 147893, -347268, 119725, -203723, 232128, 29899, 119397, 15198, -324827, -159548, 124637, 30892, 218913, 74753, -179192, -147561, 19077, -428940, 310196, 81884, 227448, -292987, 230697, 413639, -244843, 142990, 206, -286282, 91363, 154520, -111427, 216119, -308958, -277074, 25320, 4706, -132827, 150070, 98409, 159068, -22825, 111697, -82607, 380704, -150617, 390246, 6467, -254970, 253592, 23338, 157768, 226859, 62645, -109780, 180862, 140, 127133, -399224, 82854, -118371, 306464, 115498, 44461, 90144, -185075, 300893, 369128, 72832, 294803, -105499, -147756, 7586, 80622, -73031, 99683, 56794, -185050, 96165, 160067, 31784, 213659, -225663, 86741, -216928, -206510, -116952, -174624, -101579, -39696, 155178, -59531, -293918, 211327, -155166, -10885, 82772, 37001, 202821, 88790, -159656, 403827, 36022, -27312, 178677, 46239, 74002, 461961, -50998, -58901, 21609, 198620, -279257, -364343, -108830, -302870, -78748, 93145, -165113, -264482, 12853, 159884, -314187, 152041, 151499, 176853, 225862, 408174, -66007, 20311, -77193, 366, 284139, -249317, -159607, 255279, 189078, -67311, 158375, 63249, 278097, 13811, 190115, 489733, 110866, 9144, 133916, -67710, 442643, 33379, -50592, -154906, 203385, 160745, -92191, 106853, -279632, 34287, 83925, 316477, -142882, -236960, -165980, -247751, 247768, 287062, 59357, 226384, 24831, -17630, -61733, -57535, -286906, 48983, -7476, 138163, 17336, -30159, -161488, 13375, 136842, -211934, 16214, 43198, -133103, -108967, 42747, -210095, 64863, -165966, 197015, 433349, -159553, 99023, -134712, 192955, -234533, 89083, -161821, -38367, -191115, 152434, -155146, 102314, -63783, -21219, 27389, -141215, 38994, 283669, -144231, 217211, 277693, -151286, -269714, 55973, -101470, 346371, 6452, -148699, -212642, 202029, -105877, 8124, 177171, -89764, -8514, -3071, 126664, 109503, -40801, 11798, -68914, -273896, 47750, 350744, -163810, -143292, -161401, 134313, 83133, -29387, -170168, 17123, -290024, 26586, 161549, -231927, -284073, 292771, -113398, 210564, -28546, -30021, 81266, -163861, 24560, -70714, -244772, 62557, -48808, -29107, -224320, 294988, 162511, 178720, -56618, -320528, 362000, -11325, -138800, 77260, 216342, -4273, 237002, 200749, -199522, -124896, 177493, -502820, -27704, -265224, -88336, -55390, -66406, -102369, -203371, 424837, 346160, -215405, 293267, -74046, 23947, -11729, -122294, 182371, 23335, -88335, -241824, -165640, -304252, 2266, -221818, -49225, 253967, 222307, -5983, -16142, 348461, 96529, -60763, -264332, 73010, 153727, -117085, 53978, -67393, -34113, -461152, -41110, 179686, -117039, 9736, -140126, 66813, -40136, -174101, 247007, 172190, -112128, 92272, 99617, 119059, -314054, 186588, -105602, -66328, 488968, 55956, -71610, -408782, 257612, -249353, -186001, -61421, 262551, 143331, -29257, 57146, -111290, 25887, 13594, 179575, 179280, 91566, -67166, 137507, -17048, -200548, -74755, 15668, 168721, -34019, -224142, 10518, 21031, 34448, 170511, 188871, -110145, -114211, -192815, 129535, 268559, -58405, -44752, 271888, 93712, 80862, -220753, 125812, -172228, -210206, -64279, -108585, -41077, -267106, 177730, 209032, -360967, 181371, -150243, 158852, -12688, 5334, -34310, 224685, -229775, 112672, 204147, 132784, 430915, -98048, 177450, -19665, 228629, -1425, -71898, 242099, -91118, -261868, -95805, 114746, 258034, 20599, 244346, -251756, -82165, -53491, -21235, 15588, 128070, -82451, 25771, -8364, -171626, -21070, -26629, -30600, 5887, 14027, -80132, 235915, -216779, -133642, 515305, -192406, -250937, 136145, -385023, -43611, 397758, -286375, -367384, -277894, 166523, 208493, -95015, 126643, 257703, 331309, -45662, -426610, -152161, -79114, -47998, -34822, 207403, 236233, -31822, 203619, 66297, 11957, 168040, 13393, 381444, -266629, -95494, -23452, 81459, 235034, -4523, -263630, 156172, 139942, -359950, -705, -294755, -123202, -167348, 150008, 21656, -238302, 163132, -265776, 61191, -150888, -67783, 93474, 96658, 247826, -15247, 56805, -81141, 33734, 81465, -18223, -334350, 61443, 67577, -126080, -238079, 273575, 91096, -42463, -210765, -152335, 241453, 25518, -102059, 94478, -150960, 278202, 250760, -86486, -116533, -485307, -274631, -248289, 25059, -60472, -249376, -52118, 93671, 97842, -352130, -23775, -256421, 167148, 145352, -166462, -141997, -85502, -417586, 62276, -50576, 179835, -203605, -114763, -279255, -186159, -219097, 184617, -129432, 23018, -70580, -235313, -31197, 111052, -223875, 149980, -157507, -89528, 98369, -122977, 6965, -58332, 23980, -441303, -339157, 114178, 192256, -168771, -45234, 54630, 128497, -375858, -164240, -61648, 130337, 463119, -42264, -260803, 74566, 244865, 20022, -168060, 177577, 122997, -190198, 70703, 184857, 219080, -12317, -66375], "bias": [238542797521, -235216515367, 85245793652, -266289379346, 207075089377, -50155799035, 246572026939, 95514930352, -237754908818, 276902088614, 301512489582, 171488289225, -148028334521, -59479330073, 28266402046, -136778805415, 328938072749, 28052452275, -525444439723, 65959921473, -67670668045, -14563327257, -71647820684, 156864023727, 217631509970, 55016486099, -65951247679, -8034631147, 3809538902, -155966747665, 112525222090, 89417521125, 299412532185, 243999866264, -133273284323, 159439780705, -184834937594, 135266952864, -100413285115, -198887715264, 54431862130, -519850349147, -340333676475, -34498748145, 16024043935, -71783762536, -306991925049, -158972027744, 76038587035, 113079777810, -3153255440, 224851505370, 77241277372, -145281484466, -54520632093, -272672334134, -21018762745, 216156808742, 133198485113, 272505793522, -58871208759, 261638767933, -37572162072, 286029096417]}, {"weight": [-9356, 302751, 631465, -82802, 93488, 551736, -56936, -565447, 917377, -201096, 67960, 494863, -260484, -431447, 108620, -767579, -123247, 104896, -115561, -660719, 682435, 44323, 612647, -111316, -376715, 115231, -92374, -504175, 629184, -266381, -787780, 568560, -215880, -260197, -755726, 745261, -552000, 25021, 390674, 180528, -25537, -728448, -346626, 80393, -336973, 87054, 291840, 412028, -524902, 940339, 328542, -734, 466408, 1012582, -615886, -96430, -1018158, 82470, 156418, -16764, -280192, -877355, 159902, 623041, -253003, 188381, -671290, 195723, -168399, -326375, -325496, -168497, 163712, -561710, -169997, -17753, -470476, 769115, -365364, -286572, -418793, 769892, 236687, -400936, 473555, 85915, 110125, -147464, -320810, 144591, -233341, 777716, -543357, 657597, -47653, 128032, 356658, -269797, 369967, -1159044, -308213, -395572, -536600, -92018, 165132, 300794, 103114, -284970, 157968, 53204, 400706, 332591, 13046, -384095, -279514, -235353, -134959, 114747, 306151, -21883, 6903, 61346, -220848, -396141, -751467, -297579, 202544, -300902, -101800, 199670, 222896, -462126, 426821, 482595, -483665, -352668, 509881, -62865, -950241, -599175, -106750, -497875, -176978, 13868, 625961, -124337, 459133, 611623, 613998, 121898, -840444, 197270, 448798, -34703, 746820, 368077, 243266, 465057, 142709, -1067121, -213671, 512483, -345713, -95664, -447273, 763660, 719812, -378366, 63055, -291305, 263245, 218185, 347474, 142087, 1256587, -440033, -732274, -168274, -671223, -638892, -428642, -394770, -408652, 221839, -216689, -76846, 382803, -328047, -113247, 156574, -831145, -1020929, 148166, 210621, 883650, 67677, 350914, -83678, 127237, 713718, -909237, 177061, 914201, 120733, 706576, -269353, -13719, 14351, -949305, -500073, -469550, 351910, 373351, 138713, 352781, -70269, 514522, 3762, 24770, -113695, 292999, -180307, 417990, -484650, -470423, 294273, -37904, -194302, 381015, -259956, -85702, 598981, 658875, 673111, -120772, 526839, -406227, -388226, -1006182, 716120, -369852, -54166, -389691, 297586, -160801, -558565, 189067, -613750, -358476, -901916, -609567, 76425, -840977, -634048, -1014, -232707, 852750, 785053, -371540, 238499, 320752, -255768, -640210, -5265, -73992, -186542, 189347, -321372, -493146, 46696, 165226, -503697, 397296, -757906, -247478, -110448, -272354, -241891, 800968, -364246, 1045037, 187125, 39407, 203869, 1083010, -425337, -479628, -323143, 13760, -738767, 9563, 724973, 64814, -125293, -264622, 384634, -353522, 790404, 827631, 109910, -4929, 441204, 468661, -345028, -225407, -566070, 175112, 285370, -577875, -194861, -576732, -384758, 235879, -313989, -128777, -696619, 80047, -18952, -312052, -80913, 77181, -348828, -631958, 772929, -271091, -41421, 432720, 1510716, -532739, 192562, -302889, -230645, -308308, -481870, -17676, -631204, 405309, 23546, 180836, -199566, -157192, 123100, -498306, -153248, -367983, -381234, -903178, 573338, -293893, 498017, 457528, -550510, -465926, 1096098, 749535, -13492, 110176, -270052, 185081, -307011, -870009, -565731, 9029, -484187, -28800, -460040, -334910, 365222, 105941, -4137, 376266, 205739, 619244, -196856, -183918, -556978, -183638, 412998, 556498, 411087, -768057, 463672, -787032, 384465, -157441, 300740, -570394, 501353, -627125, -286152, -427264, -750973, 40465, 773149, 1141647, 41590, 478028, 99355, 213562, -146467, 83508, 230084, -247627, -33174, -25013, 353766, -456346, -22064, 818490, 498310, 577556, 10459, 137412, 429037, 667913, -835441, -563113, 560546, -118531, -287550, -536880, -237591, -600325, 895154, -9604, -24807, 251743, 411960, 404915, 459595, -270052, -127511, 329207, -225764, -2186, 170703, 336122, -760989, 305968, -100052, 302848, 332588, 688315, 579386, 576440, 618005, 124733, 13778, 373635, 313389, -132305, 173297, -15024, -365551, 552420, 23630, 877010, -695840, -238346, 13972, 486889, 171005, 132907, -482558, -495263, 138058, -583946, -227686, 214432, -420513, 687220, 523942, -672692, -399129, -978494, -335011, 328075, -177180, 197258, -651680, 341597, -237631, 5210, -39758, -544324, -493612, 414293, 170800, 449504, 138979, 61211, -738870, -115738, -11723, 836085, 294072, 657556, 255794, -304494, 50138, 101122, -402033, -164548, -88085, 687333, -890722, 516186, -401023, -587359, 505109, 313310, 537034, 342764, 881777, 239178, -66985, 146800, 532303, -333634, -279060, -132259, -900928, 59109, -807413, 22714, 370413, -204141, 717939, -625210, 509954, 289012, -734598, 1160435, -27288, -375633, -602345, -94185, -54540, 43940, -127480, 271071, -165936, -828318, -63939, -1013468, 151442, -419218, 69931, 562528, -406140, 454302, -185525, 750507, -156314, -359798, 294193, -186553, -360207, -204553, -19095, 574560, -827943, 9880, 267508, 82811, 560726, -31826, -79003, 253564, 42514, -167126, 220951, -279334, -261632, -226023, 579221, -1378851, 169348, 14671, -719546, 132588, 203660, 252412, -1135193, 584923, -315810, 293905, 317238, -375296, 282729, -165022, -886714, 499886, -331781, -365791, -172544, 116539, -24516, 234616, -573408, -317800, -49656, 812446, -48721, 464561, 16505, -207044, -105618, -72097, 258408, 588443, 153972, 508163, -413007, -177495, -310059, 134607, -153663, 312401, -398543, 18421, 294030, -884113, 908227, -121211, -866878, 67677, 14316, -35057, 424308, 319966, 127515, 192702, -44674, 760051, -633213, 59782, 27836, 348149, -361236, -746430, 67133, 120389, 637667, -543816, 494301, 1013441, -161713, -552626, -174217, 5995, 241346, -253164, 665748, -477108, -744518, 473760, -973718, -87384, 1334615, -5156, -479777, -24571, -21747, 68771, 283501, -444822, 722404, 104928, 311126, -268898, 550674, -110039, 118815, -399443, -426766, 294606, -189899, -365504, -275334, 299207, -269278, -50366, 6433, -820777, -629759, 143954, -315507, 452362, 413870, 307861, 779007, -35569, 277773, -250170, 1049809, 849153, 5086, 165490, 581887, -62987, -281087, 374137, 33578, 78336, -357134, -735300, 101088, 387396, -96663, 614906, -301332, -451497, -28780, -35356, 329608, -331746, 585653, 841997, -16757, 534975, -452265, 460280, 448317, 369620, -6662, -1264653, -274710, -267942, -418771, 52330, -179350, -352999, -453250, -306296, 480091, -282971, -220435, -195503, 145116, 195311, -1303355, 437341, 614880, -449563, -416221, -192744, -323630, 95858, -833267, -478562, 658899, -397352, 532286, 152113, -774510, 271971, -50371, -194976, 104861, 203181, 302905, 504386, 174715, -588881, -202758, 1259858, 310140], "bias": [1063510857500, 626373718728, 108538600776, 135293719394, -16419819396, -780054861448, 8100937755, 543440017210, -269162648559, 184914884375, 382256859751, -408331663168]}], "output": [224997, 396166, -1183690, -995255, 178751, -3031375, 2459381, 1444456, 354879, -410251, 1902720, 645444]}